//Numpy array shape [3, 3, 16, 16]
//Min -0.083307355642
//Max 0.083290010691
//Number of zeros 0

#ifndef W11_H_
#define W11_H_

#ifndef __SYNTHESIS__
cell_edges_2_op_1_weight_t w11[2304];
#else
cell_edges_2_op_1_weight_t w11[2304] = {-0.0054335324, -0.0640029237, 0.0470260829, -0.0454986915, 0.0795253664, 0.0722007230, 0.0000399647, -0.0310212523, -0.0100422995, 0.0759664550, 0.0056086797, 0.0376418531, 0.0670545548, 0.0086544016, -0.0444350205, -0.0551185459, -0.0607783720, -0.0789897367, -0.0018718446, -0.0026399957, -0.0824468657, 0.0812292174, 0.0116074802, 0.0134400856, -0.0604377165, 0.0428168513, 0.0015608590, -0.0830313861, -0.0366578586, 0.0361968651, 0.0402548201, 0.0147688054, -0.0536815338, -0.0083956597, 0.0162651911, 0.0506988540, 0.0391687490, 0.0198475327, -0.0270357169, 0.0156697053, 0.0657742918, -0.0389722846, 0.0633538365, 0.0652899593, 0.0608337149, 0.0289288312, 0.0296445992, 0.0416413769, -0.0394729488, -0.0022491801, 0.0167634357, 0.0758588687, 0.0654090792, -0.0229381658, -0.0086675445, 0.0018997892, -0.0627133399, -0.0345591009, 0.0101889558, 0.0487521440, -0.0516373441, 0.0245694686, -0.0253609158, -0.0661044568, 0.0815876201, 0.0574984066, 0.0273639075, -0.0260507762, -0.0016489840, 0.0688301176, 0.0058971252, 0.0826923773, -0.0005043025, 0.0638628602, 0.0331955589, -0.0044744588, -0.0580998547, 0.0583442524, -0.0406397916, 0.0139137208, -0.0399555452, 0.0128058055, -0.0180505011, -0.0496197231, -0.0134964203, 0.0321326442, -0.0824804828, -0.0145846084, -0.0116043910, 0.0685816705, 0.0377599895, -0.0773644149, -0.0607614666, 0.0346815251, -0.0464422703, -0.0313667692, 0.0660639256, 0.0234236047, -0.0423475578, -0.0752193108, 0.0029276165, 0.0520368293, -0.0755926296, 0.0158378575, -0.0644255355, 0.0466324240, 0.0383356586, -0.0771668479, -0.0224085730, 0.0823746100, -0.0219362285, 0.0650733039, -0.0760551691, 0.0297616720, 0.0551750213, 0.0090813283, -0.0387822464, 0.0118831303, -0.0477521643, 0.0041596084, 0.0828099102, 0.0666729286, 0.0514915511, 0.0424796902, -0.0662243515, -0.0617455132, 0.0475781783, 0.0542879961, -0.0333521180, -0.0567433089, -0.0225336216, 0.0364529453, 0.0398606732, 0.0184045117, -0.0270629469, -0.0728780478, -0.0340949669, 0.0284635294, 0.0239734650, 0.0642744079, -0.0575551800, -0.0651146472, -0.0301574152, 0.0577591658, -0.0216528103, -0.0531281792, -0.0540715344, -0.0694153234, -0.0517580882, -0.0274225995, 0.0457745679, 0.0820259750, 0.0259088967, 0.0703512803, 0.0761499479, -0.0245946422, 0.0757863894, -0.0178329255, 0.0421158336, 0.0488626286, -0.0618497021, -0.0734174475, -0.0445684046, 0.0803270787, 0.0697541013, 0.0400297232, 0.0116085829, 0.0448596925, 0.0078603439, -0.0765103325, 0.0326858908, 0.0798489600, -0.0791753307, -0.0220852997, 0.0493577160, -0.0259328969, -0.0068403040, 0.0158133898, 0.0186781660, -0.0770874023, 0.0192482602, -0.0030708557, -0.0112842154, 0.0178677253, -0.0286806580, -0.0576233603, 0.0179624464, -0.0086482838, 0.0024514573, -0.0749336854, -0.0795227438, -0.0741745383, 0.0198682863, -0.0492763072, -0.0545075014, -0.0287295152, -0.0530026406, 0.0725991875, 0.0413523428, -0.0187805854, 0.0081496928, -0.0375315771, -0.0422523580, 0.0141607914, 0.0676897317, -0.0775656924, 0.0373975560, -0.0720388442, -0.0097279865, 0.0220577717, -0.0655843765, 0.0754775479, 0.0390730724, -0.0383893512, 0.0769593343, -0.0199014451, -0.0052000917, -0.0513777658, 0.0599896982, -0.0505255722, 0.0040476415, 0.0309450179, -0.0594346523, 0.0289694313, -0.0315166041, 0.0260269642, -0.0279458854, -0.0088929189, -0.0589034706, -0.0278007779, -0.0301451180, 0.0734842196, 0.0300807152, 0.0676375180, 0.0266176518, -0.0641845837, -0.0757166743, 0.0030083705, 0.0618389547, 0.0485496596, 0.0506477021, -0.0676326379, 0.0802725032, -0.0131658651, -0.0265502017, 0.0305589400, 0.0183174405, 0.0450024568, 0.0274654850, -0.0106011005, 0.0102189174, 0.0154025285, -0.0280743036, -0.0777579471, -0.0370243937, -0.0408268124, 0.0713171959, 0.0381431095, -0.0170973279, -0.0772337243, -0.0025024489, -0.0260621309, 0.0146128992, -0.0439187177, -0.0350586139, -0.0741695762, -0.0245122481, -0.0276916046, 0.0001087978, 0.0211181082, -0.0560018010, -0.0233973581, -0.0576783195, 0.0290817767, 0.0681231618, 0.0162022300, -0.0707964152, 0.0003743352, -0.0789461285, 0.0392349884, -0.0487633981, -0.0723582059, 0.0186752547, 0.0523161478, 0.0040122666, 0.0300239213, 0.0354628265, 0.0255107190, -0.0173593387, 0.0634377897, -0.0765932426, -0.0722529367, -0.0753416792, -0.0062666326, 0.0028308190, 0.0632313192, 0.0569160730, -0.0080074770, -0.0735961050, -0.0746599808, -0.0486029461, 0.0622680038, -0.0303395763, -0.0364320464, -0.0043725553, -0.0257459600, 0.0595839247, -0.0677272230, -0.0821052492, -0.0168456398, -0.0042323754, 0.0570871159, -0.0308528095, -0.0036970093, -0.0331960656, -0.0409229435, 0.0132095749, 0.0599640869, 0.0049493266, 0.0670644417, -0.0717325732, -0.0362285152, -0.0304891840, 0.0595368445, -0.0341171212, -0.0632794723, -0.0015669884, -0.0534940064, -0.0214637928, 0.0355436429, -0.0041253958, 0.0215190966, 0.0138192484, 0.0050798003, -0.0475252196, -0.0699269697, -0.0360470042, -0.0569733195, -0.0015918633, 0.0431521274, 0.0388551503, 0.0228809454, -0.0476851277, -0.0391706266, 0.0032897030, 0.0149346543, -0.0099215517, -0.0232895445, 0.0543596521, -0.0201531947, -0.0428512432, 0.0447038859, 0.0610235967, -0.0794145912, 0.0813031569, 0.0036745088, 0.0185458325, -0.0408132039, 0.0591653585, -0.0053827097, 0.0043624123, 0.0554977842, -0.0335455462, 0.0554602630, -0.0452031419, -0.0145517457, 0.0442617536, 0.0520630479, -0.0706069246, 0.0132761337, 0.0156776235, 0.0037614813, 0.0745319426, 0.0291867107, 0.0169930104, 0.0001126820, -0.0530950874, -0.0257356670, -0.0340957828, 0.0401789136, -0.0573938712, 0.0446214527, 0.0067325793, 0.0704746246, 0.0369171724, 0.0749346688, -0.0559550226, -0.0288987197, 0.0263558999, 0.0745293051, 0.0195010938, -0.0511442944, 0.0009153936, 0.0313617028, -0.0704905465, 0.0559923239, 0.0040340819, -0.0272071194, -0.0605680235, -0.0141269853, -0.0812924504, 0.0537041649, -0.0012414593, -0.0238440540, -0.0395719521, -0.0416625850, -0.0617030375, -0.0713925511, 0.0660416186, 0.0005381677, -0.0069671520, 0.0019790728, 0.0434884354, -0.0232036952, -0.0010461755, 0.0026290980, 0.0272432603, 0.0338919759, -0.0622964352, 0.0155338161, 0.0824446902, 0.0221350100, 0.0560043752, 0.0486142896, 0.0666775480, -0.0394518487, -0.0507513359, 0.0625694990, -0.0591000654, -0.0457892194, 0.0831542611, -0.0699344277, -0.0212785639, -0.0368266664, -0.0272524990, 0.0367859863, -0.0673395246, 0.0313550159, 0.0669183508, 0.0666542202, -0.0327350944, 0.0738083124, -0.0477097556, 0.0552287325, -0.0129675120, -0.0333868600, -0.0622726344, 0.0002571431, 0.0692526996, -0.0657357275, 0.0434542224, 0.0138602853, -0.0646317378, 0.0753563643, -0.0544529445, 0.0058277952, -0.0200522542, -0.0504655913, 0.0316876359, 0.0774492174, 0.0039727688, 0.0590101220, 0.0429900438, 0.0285631679, 0.0099695818, 0.0580230132, 0.0672963411, 0.0431700870, 0.0403221622, -0.0246485341, -0.0373239070, 0.0578984991, -0.0479802899, 0.0826251432, 0.0286468230, -0.0518245772, 0.0449797176, -0.0056385314, 0.0058495109, -0.0321459360, -0.0536517799, -0.0133257937, 0.0029591571, -0.0651836991, 0.0720975026, 0.0787394419, 0.0279723015, 0.0658636913, 0.0359426141, 0.0541511141, -0.0787148848, 0.0661787614, -0.0050997776, -0.0578355789, -0.0728907138, 0.0760474876, 0.0569268204, -0.0286597665, 0.0174021143, 0.0818603411, -0.0601980574, -0.0264508110, 0.0676795095, 0.0585911013, 0.0758194849, -0.0683524162, -0.0549244806, -0.0293175206, -0.0144128082, -0.0024752694, -0.0527340509, -0.0592370145, -0.0755285993, -0.0654266179, -0.0324939340, 0.0384655967, -0.0109394938, -0.0566388741, -0.0168463644, 0.0731583089, 0.0443184450, -0.0289552659, 0.0411856510, 0.0215088837, 0.0805639103, -0.0209933482, 0.0542873330, 0.0105267232, -0.0075986204, 0.0073709120, -0.0571813025, 0.0532617494, -0.0575247444, -0.0831436664, -0.0630586296, 0.0670508370, 0.0192038156, 0.0608581938, -0.0498083048, 0.0156203127, 0.0667442307, -0.0502092540, -0.0486480780, -0.0274203531, -0.0146248303, -0.0359706692, -0.0071079875, -0.0831783637, 0.0712939426, 0.0225816332, -0.0630998984, 0.0326633118, 0.0046359962, 0.0677536428, 0.0806375444, -0.0377904773, -0.0355255604, -0.0384064279, -0.0642848387, -0.0669249520, 0.0268233977, -0.0812597498, -0.0058723395, -0.0160204470, 0.0634546652, 0.0774097741, -0.0583023019, -0.0753867701, 0.0149072167, -0.0274694376, -0.0773682743, -0.0061114123, 0.0789423212, -0.0684995353, 0.0651743934, -0.0520835593, 0.0556078739, -0.0506871790, 0.0273764655, 0.0067440430, -0.0244652405, 0.0808300748, 0.0035775125, -0.0655406937, -0.0072767870, -0.0567918085, 0.0019493800, 0.0732418820, 0.0287737809, 0.0750620365, 0.0712721050, 0.0825912580, 0.0501154549, 0.0010056844, -0.0443462282, 0.0156019246, -0.0773194581, 0.0516011231, 0.0111562451, 0.0065894295, -0.0810765103, 0.0003754279, -0.0613969751, -0.0475387685, -0.0687029809, -0.0070778970, 0.0411471091, -0.0714783669, -0.0339428261, 0.0666189417, -0.0154503016, 0.0454609320, -0.0404172130, -0.0031489970, -0.0225022323, 0.0170216803, 0.0007827442, -0.0573443994, -0.0486792587, -0.0778690875, 0.0407461263, 0.0190254599, -0.0682132989, -0.0653743073, -0.0668848306, 0.0085462704, 0.0084658135, 0.0664521903, 0.0060002902, 0.0432602800, 0.0283841770, 0.0338492803, -0.0589859746, 0.0633312240, 0.0822881758, 0.0470545925, 0.0091795269, -0.0142583335, -0.0662948266, 0.0129081961, 0.0517681725, -0.0402017906, 0.0287911650, -0.0288720671, -0.0468092300, 0.0156732611, 0.0128902057, -0.0678814650, 0.0113846194, -0.0450097397, 0.0172697343, -0.0541727133, 0.0793673471, -0.0495979488, -0.0748657286, -0.0766518041, -0.0326523334, 0.0737454072, -0.0109786838, -0.0565386675, 0.0275361650, 0.0424864180, 0.0314149186, -0.0179722011, 0.0685224310, 0.0763557330, 0.0182736404, 0.0014464187, 0.0411947407, -0.0003716331, 0.0379748158, -0.0185205601, -0.0744375587, -0.0156572275, -0.0055432040, -0.0790432170, 0.0333933160, -0.0140276151, 0.0633432493, 0.0788504332, -0.0663398877, -0.0723548606, -0.0501790047, 0.0333711542, 0.0256652739, 0.0358210728, -0.0621998757, 0.0784318224, 0.0462374277, 0.0427102037, 0.0387702063, 0.0341036320, 0.0349656008, 0.0567734390, 0.0029639155, 0.0468647033, -0.0286700185, -0.0212907922, -0.0082157440, 0.0221728161, 0.0378639996, 0.0379534550, 0.0126826530, -0.0325109437, 0.0313051380, 0.0388808623, 0.0824346840, -0.0699344873, -0.0323029943, 0.0292627942, -0.0188807603, 0.0418238267, -0.0812654272, 0.0674893409, -0.0779367611, 0.0042733140, -0.0340275466, 0.0068626856, 0.0504102558, 0.0788156241, -0.0011166974, 0.0052193245, 0.0416339450, -0.0233398508, 0.0322934985, 0.0564246550, 0.0246046353, -0.0371352173, 0.0129949600, -0.0383780450, -0.0321885757, -0.0237488151, -0.0403154194, -0.0247987062, 0.0100041125, -0.0068632318, -0.0411347710, 0.0433604643, 0.0584631898, 0.0430940129, -0.0679562986, 0.0225693751, 0.0386545323, -0.0283605531, -0.0485982187, -0.0309614595, -0.0288996343, -0.0034153590, 0.0812168121, 0.0538236797, 0.0201315675, 0.0239772014, -0.0343196094, -0.0049326872, -0.0800857544, 0.0354602933, 0.0812216476, -0.0297479331, -0.0153164500, 0.0257344954, 0.0103582321, -0.0502200723, -0.0826649070, 0.0006533730, 0.0416493230, -0.0445336066, 0.0418372676, 0.0452044830, 0.0170014147, 0.0678486526, -0.0738818944, -0.0009952436, -0.0264709461, -0.0620090365, 0.0650095493, -0.0818658695, 0.0266320463, 0.0651169419, -0.0617667250, 0.0455483235, -0.0230278913, -0.0044105034, -0.0155572314, -0.0605365001, 0.0330824330, -0.0577110834, 0.0342437401, -0.0636897609, 0.0421812311, 0.0787674040, -0.0096816039, 0.0697424933, 0.0438933261, -0.0307246391, 0.0091885468, 0.0439835191, -0.0805910081, 0.0655831844, -0.0151371108, 0.0717207938, 0.0783312470, 0.0551532544, -0.0407934450, -0.0339698568, 0.0185664669, -0.0068858918, -0.0303534828, 0.0297746863, 0.0530626439, -0.0032011906, 0.0255077500, -0.0197583754, 0.0367027782, -0.0239450540, -0.0199198425, 0.0299568661, 0.0814342275, -0.0374620594, 0.0559018552, 0.0213377811, 0.0064083217, -0.0111749908, 0.0585583411, 0.0419488959, 0.0395654477, -0.0116631202, -0.0474135391, -0.0603274964, -0.0147496425, 0.0174114536, 0.0674205571, 0.0058911848, -0.0398713127, 0.0627507940, -0.0268620607, 0.0547844395, 0.0188612994, -0.0462608337, -0.0303364769, -0.0118471291, -0.0038239269, -0.0609280989, -0.0150069939, -0.0523054786, -0.0111076478, 0.0042576380, -0.0762610734, -0.0445472263, 0.0801410377, -0.0789807811, 0.0681386888, -0.0277569089, -0.0005252832, -0.0067701400, -0.0239320807, 0.0111249825, -0.0519302562, 0.0673674792, 0.0678089112, -0.0574477650, -0.0795019194, -0.0662230626, 0.0622233003, 0.0264236107, 0.0142716253, 0.0410384871, -0.0617674701, 0.0381401293, -0.0069274162, 0.0363948606, -0.0832445771, -0.0527231656, -0.0290093664, 0.0631954446, -0.0310355071, -0.0814737976, 0.0804682150, 0.0404594131, -0.0494022816, -0.0228766464, 0.0727055147, -0.0334821455, 0.0135317957, -0.0643508732, 0.0785591379, 0.0472092666, -0.0284941066, -0.0361045785, 0.0727014095, 0.0643571541, 0.0620936044, -0.0739893913, -0.0149784731, -0.0099015636, -0.0686803609, -0.0484561585, -0.0377072096, 0.0282640234, 0.0635527447, -0.0275560431, 0.0200598538, 0.0568202697, 0.0316735990, -0.0406134687, 0.0102115758, -0.0585414208, -0.0676144585, 0.0139276879, -0.0283614378, 0.0080073280, 0.0560579412, 0.0780236274, 0.0689416528, 0.0830874443, -0.0632027462, 0.0128217200, -0.0105795329, 0.0098464498, 0.0012705660, 0.0247869249, -0.0212721359, 0.0063691717, -0.0293437466, -0.0331249945, -0.0655342937, 0.0177434497, 0.0414652750, 0.0264502037, 0.0783592537, 0.0008394180, -0.0479559116, 0.0125053898, -0.0025706461, -0.0032119292, -0.0141565790, 0.0674106032, -0.0069492511, 0.0057448358, 0.0437346697, 0.0237757079, -0.0332825109, -0.0818978846, 0.0477869511, 0.0160894301, 0.0640256628, 0.0790305510, -0.0302541237, -0.0047708214, 0.0603331886, 0.0554586947, 0.0742696524, 0.0042667175, 0.0152211320, -0.0204468835, 0.0180752259, 0.0253441855, 0.0548621938, -0.0616258867, 0.0818223283, 0.0369993895, 0.0732899755, -0.0129266735, 0.0649194866, 0.0786453411, 0.0819161832, 0.0381133147, -0.0367894657, 0.0176763646, 0.0069455854, 0.0549771041, 0.0685447603, 0.0741030574, -0.0317896605, 0.0062973183, 0.0165635105, 0.0601635352, 0.0215674955, -0.0804942399, -0.0804987326, -0.0307614263, -0.0810948685, 0.0348260663, 0.0258627832, -0.0073589515, 0.0357268378, 0.0698699579, 0.0468120538, -0.0188076347, 0.0326332003, -0.0228596888, 0.0774691403, -0.0253926143, -0.0640321746, 0.0124720708, -0.0494221300, -0.0072949566, -0.0158685446, 0.0635337755, -0.0601031370, 0.0176039562, -0.0159500036, 0.0504818819, 0.0755654201, 0.0057830722, 0.0358444378, 0.0480223559, -0.0118475165, 0.0682538152, 0.0148269786, 0.0719056875, -0.0733390674, -0.0638235509, 0.0633279011, -0.0705142841, 0.0742888898, -0.0438002348, 0.0286370385, -0.0445493832, -0.0465742312, -0.0777799189, -0.0396640040, -0.0074750707, 0.0287911762, 0.0820639729, 0.0159492195, 0.0222485438, -0.0730629787, 0.0348184854, 0.0750406533, -0.0042190743, 0.0143057387, 0.0506452397, 0.0515352823, 0.0288204607, -0.0593462884, 0.0688129216, 0.0701882541, -0.0559706092, 0.0808421969, 0.0778836608, 0.0340049267, -0.0819002315, 0.0507414304, -0.0721680969, -0.0190457758, 0.0466997661, 0.0729394481, 0.0095544085, -0.0761869475, 0.0216793530, 0.0368256457, 0.0526227318, -0.0408397652, -0.0826106071, -0.0514398329, 0.0359818339, 0.0539510213, 0.0065815416, -0.0267425030, 0.0337841846, -0.0615000241, 0.0559201650, -0.0460036695, 0.0412264019, -0.0433721393, 0.0470445901, 0.0187569931, -0.0503854528, 0.0350624472, -0.0604995675, -0.0794558078, 0.0323503502, 0.0280767176, -0.0730349869, -0.0172785074, -0.0437984467, -0.0695970133, 0.0751440674, -0.0252106711, -0.0800106823, 0.0644951537, 0.0490828380, -0.0465515107, 0.0130593032, -0.0098834941, -0.0039575696, 0.0645892248, 0.0160631146, 0.0741620660, 0.0373942889, -0.0321879573, 0.0378410816, 0.0710533857, 0.0350256301, -0.0186719671, 0.0477228686, 0.0751056671, -0.0136896977, 0.0763239190, -0.0439669602, 0.0340689123, 0.0796302408, 0.0028239645, -0.0495096035, -0.0090156449, -0.0070751752, 0.0388593450, 0.0578242540, -0.0677309632, -0.0203573871, 0.0389640108, -0.0641616508, -0.0661287457, 0.0286195036, -0.0825329646, -0.0732952729, -0.0763011202, -0.0789912492, 0.0460054055, -0.0437996686, 0.0641911030, -0.0009220495, -0.0277619269, 0.0139549077, 0.0523532815, -0.0079788761, 0.0830883011, -0.0254776310, 0.0394384600, 0.0032517053, 0.0273548588, 0.0288408138, 0.0771726891, -0.0140415831, 0.0384574905, 0.0265079904, 0.0431472696, -0.0085488828, -0.0382382981, 0.0648866892, -0.0604710355, 0.0027550620, 0.0832900107, 0.0582719333, -0.0331196114, 0.0107658468, -0.0008417724, 0.0269580930, -0.0577543676, -0.0461332090, -0.0181902926, 0.0245620869, 0.0121196406, -0.0002096881, -0.0428628065, 0.0277615990, -0.0493976101, -0.0619322658, 0.0532555208, -0.0285772253, 0.0169375576, 0.0143544162, 0.0182786267, 0.0568028651, 0.0478072166, -0.0065714289, 0.0721979812, -0.0155735426, -0.0767877325, 0.0301449392, -0.0693095624, -0.0813734829, 0.0728757754, 0.0700142160, 0.0427705608, 0.0685967281, 0.0172985643, -0.0727505460, 0.0654059052, 0.0818772912, -0.0271174740, 0.0336709134, -0.0824879706, -0.0383493453, -0.0627521425, 0.0617943108, 0.0149505492, -0.0328132585, 0.0464466587, 0.0663739517, 0.0730767921, 0.0683161393, -0.0079594059, -0.0792413503, -0.0185285378, -0.0707800016, -0.0168954004, 0.0342281163, -0.0405152440, 0.0653345212, 0.0272400212, 0.0344498940, -0.0034178426, 0.0276905224, -0.0535926037, 0.0219986346, 0.0137537923, 0.0225687195, -0.0016558684, -0.0661456808, 0.0402097404, 0.0391054489, 0.0449602567, -0.0428306796, 0.0814796016, 0.0035704395, -0.0396140255, 0.0362229124, 0.0762428865, 0.0736156851, -0.0075002932, 0.0511944927, 0.0431739129, 0.0412846543, 0.0337820873, -0.0050083646, 0.0142385941, 0.0725099966, -0.0405981280, 0.0543861948, -0.0658416152, -0.0491209663, -0.0063786781, 0.0601848327, 0.0689104795, 0.0473997593, 0.0152272414, -0.0823526680, -0.0368610062, 0.0042773075, -0.0161799286, -0.0543946289, 0.0571677312, 0.0728590563, 0.0802297443, -0.0212012362, -0.0300449114, 0.0399218798, -0.0288246740, -0.0328689665, -0.0519251525, -0.0504534617, -0.0116083845, -0.0244559515, 0.0182112250, -0.0652521774, -0.0325925797, -0.0148699535, 0.0543765500, -0.0120403459, 0.0387601517, 0.0365955196, -0.0790001079, 0.0233133156, -0.0605785027, 0.0256096739, 0.0718078315, -0.0158446729, 0.0384101644, 0.0785806924, -0.0233785342, 0.0324611515, 0.0238358490, -0.0733087510, 0.0770125240, -0.0654783994, -0.0738533437, -0.0446099192, -0.0327746943, 0.0159237683, -0.0122803431, -0.0817300454, 0.0213330630, 0.0600260161, 0.0819638893, 0.0259214826, -0.0473648310, -0.0410880893, -0.0168777760, 0.0571778156, 0.0546715036, -0.0708608627, 0.0300682280, -0.0329369269, 0.0201016665, 0.0493475050, 0.0455733649, -0.0007989267, -0.0124889789, 0.0609108135, 0.0669187084, -0.0388042182, 0.0459414199, 0.0420484804, -0.0197999794, 0.0118825641, 0.0737282932, -0.0767312944, -0.0081567653, 0.0363656245, -0.0805565715, 0.0387122780, 0.0711858198, -0.0521138981, -0.0654833317, 0.0703144893, 0.0672640949, 0.0212467145, -0.0182635766, -0.0534122698, 0.0484124981, 0.0622379147, -0.0637455508, -0.0537650399, -0.0255878586, 0.0754207894, -0.0222914107, -0.0636309013, 0.0421087928, -0.0588298999, -0.0687055066, 0.0460484810, -0.0757589936, -0.0523509867, -0.0391753241, -0.0266292747, 0.0155095877, -0.0265292898, -0.0292964410, 0.0688683242, -0.0335952081, 0.0106836231, -0.0635601282, 0.0143858278, -0.0699352026, -0.0721832290, 0.0127301384, 0.0693133846, -0.0567968264, -0.0780238658, -0.0595970452, -0.0399400182, -0.0253657233, -0.0831751674, -0.0511854216, 0.0680552274, -0.0443228558, -0.0576437339, 0.0629246086, 0.0774992853, 0.0255766716, -0.0822193250, 0.0409176908, -0.0743829608, -0.0431719162, -0.0599491075, -0.0478502028, 0.0092246765, 0.0212861542, -0.0312965252, 0.0769991577, -0.0782827809, -0.0707868189, 0.0699231252, -0.0828091949, -0.0776541755, -0.0065247491, 0.0695336461, 0.0788862854, 0.0008517362, -0.0455510728, 0.0144964131, 0.0664009601, -0.0825881958, -0.0429247841, 0.0413707420, -0.0430778116, 0.0774921328, 0.0281571522, 0.0473895371, -0.0007974267, 0.0144692035, 0.0831057876, -0.0417849533, -0.0718518198, 0.0369343795, 0.0410310775, -0.0427600108, 0.0565290526, -0.0509438887, 0.0773789734, 0.0214222483, 0.0264424663, -0.0255955067, -0.0151960487, -0.0056802547, 0.0213591885, -0.0752303898, 0.0745225251, 0.0738750100, -0.0451456234, -0.0375219025, 0.0693015680, 0.0783856735, 0.0376639962, 0.0255069043, -0.0758431777, 0.0049067889, -0.0702267513, -0.0760053173, 0.0333055183, -0.0779055580, -0.0056540784, 0.0754694864, -0.0273385085, -0.0071960329, -0.0346837789, 0.0701887980, -0.0738069192, -0.0445590392, 0.0591808185, -0.0139085455, -0.0186433569, 0.0714395568, -0.0524327047, 0.0148385419, -0.0733109564, 0.0028200306, 0.0785370618, 0.0356110744, 0.0288352016, 0.0610851794, -0.0788953751, 0.0793383867, -0.0676910132, -0.0448998064, -0.0790988132, 0.0545968786, -0.0403072722, 0.0752140954, 0.0648373514, 0.0310356375, -0.0795150623, -0.0674258322, -0.0470371880, -0.0605328456, -0.0391920134, 0.0593556762, 0.0781574771, 0.0084683569, 0.0306384228, 0.0804322213, 0.0488858558, -0.0464792922, 0.0342362821, 0.0233035702, 0.0739209205, -0.0427079685, 0.0193042196, 0.0583404079, -0.0126971267, -0.0418439806, -0.0231909603, 0.0429837555, -0.0344836190, -0.0740294531, -0.0494056493, 0.0569712259, 0.0491569862, 0.0095920479, 0.0530776232, 0.0355121791, 0.0100243883, 0.0763971210, -0.0434728116, 0.0545607768, 0.0637556091, -0.0400373936, -0.0122497464, -0.0803905278, 0.0268049985, -0.0795060322, 0.0464055017, 0.0106832655, 0.0439009182, -0.0123005193, 0.0764641240, -0.0773955137, 0.0551164597, -0.0526123084, 0.0051992275, 0.0109100388, 0.0561589412, 0.0390835144, -0.0661249980, 0.0648065954, -0.0723589510, 0.0097634215, 0.0456655137, -0.0686870813, -0.0607375056, -0.0401476398, -0.0342834592, 0.0409842990, -0.0619546175, 0.0511279516, 0.0162491985, -0.0502199046, -0.0219932403, 0.0293941926, 0.0454343297, 0.0444334224, 0.0795939118, 0.0369245037, -0.0724945739, -0.0403928347, 0.0312188193, -0.0188328866, -0.0265214611, 0.0666791946, -0.0418394916, -0.0386338905, 0.0545494035, -0.0388524309, 0.0352690481, -0.0324313119, 0.0365229137, 0.0008778230, 0.0359891951, 0.0308788475, 0.0718422979, -0.0026024352, 0.0702496991, 0.0185119472, -0.0329155400, -0.0583976582, -0.0104164062, -0.0339967310, -0.0698439777, -0.0619044006, -0.0219976101, 0.0399765447, -0.0456330590, -0.0438414402, 0.0456501767, -0.0230603069, -0.0456490628, -0.0336545818, 0.0478277318, 0.0239921026, -0.0353952162, 0.0826243460, -0.0748679191, -0.0489084460, 0.0692556426, -0.0793389603, 0.0814297572, -0.0126420325, 0.0486454256, -0.0229827315, -0.0209571477, -0.0382080562, -0.0724098906, 0.0568002611, -0.0668767318, 0.0325050317, 0.0731201023, 0.0041494858, -0.0799457431, -0.0317198150, -0.0109017147, -0.0833073556, 0.0566137098, 0.0422284566, 0.0181781333, 0.0723754838, -0.0293583591, 0.0601591431, -0.0425942130, -0.0442956053, 0.0241862815, -0.0307853166, 0.0101074474, 0.0289089717, 0.0624479204, 0.0789787099, -0.0687123016, 0.0325348340, -0.0011936765, 0.0160405543, 0.0367827080, 0.0113917226, 0.0655335709, -0.0489113554, 0.0774224252, 0.0625144616, 0.0256589167, -0.0504429713, 0.0692705438, -0.0672467798, -0.0813669935, 0.0817383453, 0.0120877819, -0.0488260724, -0.0195386130, -0.0266861077, 0.0443186723, 0.0819349661, -0.0396640524, 0.0428110808, 0.0749896020, 0.0720150396, 0.0819667280, 0.0224744566, -0.0650881827, 0.0690036565, 0.0178914964, 0.0222172216, 0.0314682648, -0.0175113697, -0.0156868417, -0.0723263770, 0.0315444916, 0.0445885621, -0.0648931116, -0.0435352139, -0.0803473890, 0.0500924401, -0.0597419553, 0.0777677819, -0.0161555111, -0.0108309845, 0.0804668069, -0.0143648470, 0.0076932623, -0.0143026290, -0.0404204205, 0.0085184844, 0.0119160814, -0.0351430438, -0.0135028576, -0.0422732122, -0.0614250712, -0.0374596342, -0.0464078560, -0.0530780815, -0.0353193842, -0.0193823799, -0.0506522618, 0.0370914489, 0.0100799697, -0.0801078752, 0.0637635961, 0.0169725958, -0.0430219993, 0.0285491906, 0.0751321912, 0.0396221019, -0.0243078154, 0.0308621582, 0.0027528268, -0.0362766348, 0.0673636720, -0.0691488534, 0.0117789516, -0.0775638521, -0.0069867126, -0.0643802360, 0.0633514822, 0.0021453891, 0.0555891395, 0.0621729344, -0.0306864157, -0.0285949372, 0.0320963264, -0.0711066425, 0.0611208715, -0.0377051421, -0.0059468448, 0.0128847314, 0.0052683190, -0.0530285873, -0.0533116460, 0.0692216977, -0.0593463778, -0.0415103659, 0.0435503535, 0.0355963930, 0.0192702543, 0.0016948000, -0.0151217226, 0.0226855539, 0.0435044095, -0.0097102141, -0.0417896807, -0.0667271987, 0.0041950038, 0.0573928282, 0.0426879600, 0.0546502843, -0.0068779741, -0.0117592430, 0.0186130963, 0.0636761710, -0.0032156843, -0.0333862416, -0.0069216941, 0.0241727214, 0.0350700282, 0.0268842429, -0.0415836200, 0.0380488932, 0.0758996904, 0.0828006268, 0.0088186329, -0.0299016833, -0.0724964291, -0.0416404232, -0.0797890425, -0.0550554246, 0.0426674671, 0.0333386399, -0.0180020146, -0.0779391751, -0.0229097046, 0.0232208408, 0.0166291762, 0.0493918099, 0.0703587011, -0.0379514284, -0.0639631078, 0.0534874313, 0.0338341035, 0.0557458811, 0.0484571345, -0.0666099116, -0.0240237601, 0.0651095808, 0.0418367200, 0.0253689121, -0.0638155863, 0.0542938188, -0.0094346525, -0.0426474996, 0.0753844082, -0.0215937812, -0.0006764895, 0.0324748009, 0.0521655269, -0.0412819721, 0.0105343824, 0.0230747703, 0.0400801077, 0.0258704610, -0.0072988705, -0.0591944680, 0.0479572117, -0.0671729296, 0.0204470027, 0.0296263993, -0.0478755645, -0.0239616837, 0.0538759343, -0.0242657159, -0.0479565188, 0.0246276222, 0.0149102062, -0.0476817302, -0.0667948052, 0.0511317663, 0.0089401156, 0.0170305520, -0.0003222609, -0.0832417607, 0.0069946498, 0.0358068869, -0.0535696074, -0.0297348015, 0.0303337649, 0.0484967008, -0.0608187653, 0.0405497439, 0.0271202065, -0.0830331445, -0.0645401105, 0.0040507112, -0.0606877655, -0.0350523628, 0.0167992674, -0.0546183847, 0.0691806972, 0.0240467768, 0.0828630924, -0.0767099187, 0.0193090662, 0.0818956271, -0.0082698353, -0.0777192116, 0.0175815951, -0.0151403593, 0.0240840409, -0.0338273868, 0.0711462796, 0.0740630403, -0.0780845508, -0.0712857172, 0.0344876945, -0.0796688274, -0.0194085669, -0.0757166818, 0.0402528532, 0.0122655910, 0.0142522836, -0.0514146425, 0.0080978163, 0.0138785243, -0.0489561893, -0.0452270322, -0.0810062662, -0.0223953314, -0.0802880824, -0.0536751747, 0.0541768745, 0.0604449287, -0.0302395616, -0.0692712367, 0.0123490281, -0.0189407319, 0.0170812253, 0.0810915828, -0.0014232525, -0.0028155304, -0.0425582901, 0.0031212314, -0.0800675154, 0.0747889653, -0.0630135089, -0.0745022073, -0.0348143838, -0.0461469367, 0.0298279636, 0.0652086586, -0.0798012912, -0.0023945849, -0.0012330848, 0.0331997089, 0.0446495786, 0.0499717295, 0.0272405986, -0.0132892570, -0.0220786128, -0.0244183801, -0.0205500200, -0.0270216707, -0.0179134123, 0.0215720553, 0.0248792320, -0.0798946992, 0.0246862136, 0.0202879775, 0.0517736673, -0.0103208413, 0.0754409507, -0.0142444158, 0.0815400705, 0.0814871415, 0.0813812912, 0.0497786216, -0.0740516558, -0.0728982612, 0.0646649376, 0.0152792465, 0.0575363263, -0.0769866630, -0.0335766003, 0.0037350669, -0.0298617184, 0.0792088583, -0.0247412566, 0.0814243332, 0.0441330560, -0.0250117239, -0.0100012915, 0.0752873123, 0.0157048516, 0.0520056188, 0.0637214705, 0.0809271783, -0.0359840207, -0.0126602221, 0.0274580345, -0.0111380061, -0.0467918552, -0.0364138857, -0.0058636772, -0.0146703385, 0.0696962774, 0.0657903701, 0.0483628772, 0.0759509280, 0.0667126924, 0.0480384417, 0.0239720847, -0.0212264396, 0.0246100891, -0.0735460371, -0.0375605077, -0.0400506444, 0.0047441288, 0.0371922590, -0.0662049279, -0.0299892910, -0.0618790090, -0.0011097733, 0.0672570020, -0.0124444934, 0.0619946830, 0.0427787863, -0.0152725615, -0.0361675285, -0.0652673468, -0.0389668196, 0.0076610167, -0.0068936599, 0.0507200025, -0.0499091931, -0.0096224463, 0.0001800945, -0.0279815998, -0.0129720019, 0.0475463495, -0.0613090247, -0.0395875014, -0.0485721119, 0.0047319098, 0.0421158448, -0.0672550052, 0.0167795382, -0.0429828092, 0.0130775515, 0.0538629517, -0.0386621617, -0.0212560035, -0.0131207844, 0.0055643539, 0.0241294391, 0.0044419840, -0.0769029558, -0.0440389104, 0.0261349976, 0.0821661353, -0.0707698688, -0.0757811144, -0.0725725368, -0.0091417274, -0.0716555715, 0.0580680668, 0.0617930889, -0.0756458342, -0.0280323420, 0.0709774047, -0.0082690902, 0.0156738386, 0.0443709642, 0.0303346589, -0.0291237384, 0.0793933496, -0.0468400754, 0.0263234060, 0.0752869174, -0.0393806733, 0.0622877143, -0.0492542014, -0.0576151423, 0.0279824734, 0.0002271224, -0.0183424242, 0.0572332777, -0.0104323206, -0.0383039415, 0.0691683590, 0.0148802251, -0.0288223792, 0.0386347026, 0.0390954725, -0.0490091294, 0.0239142980, 0.0135545647, 0.0450517945, -0.0488133766, -0.0562199131, -0.0117628090, -0.0822160020, 0.0312136747, 0.0195102021, -0.0476219170, -0.0435680449, -0.0354533195, -0.0670478716, -0.0089333504, 0.0362878218, -0.0807443261, -0.0357144699, -0.0145688923, -0.0563505068, -0.0634274781, -0.0160591006, 0.0403104201, -0.0583210066, 0.0519098043, 0.0549405552, 0.0079602599, 0.0273651294, 0.0831231922, 0.0267752465, -0.0722430795, 0.0358689651, 0.0086140502, -0.0753273740, -0.0483093448, -0.0589165650, -0.0068815006, 0.0521865971, 0.0086412001, -0.0507256761, -0.0295509715, -0.0613772497, 0.0705130771, 0.0115342960, -0.0486533120, -0.0605780259, -0.0570200197, -0.0830791593, -0.0204423834, -0.0317163467, -0.0090347175, 0.0628049225, -0.0156916007, -0.0816904232, 0.0150307361, -0.0483437367, -0.0374633595, -0.0496010184, -0.0469426177, 0.0623735934, -0.0500188954, 0.0027701021, -0.0723813325, 0.0797115341, -0.0195590965, -0.0285405777, 0.0672819540, 0.0565530136, 0.0304131377, -0.0708817244, 0.0319969542, -0.0719460547, 0.0539368689, 0.0401193574, 0.0122997845, 0.0342251360, 0.0824779198, -0.0746932477, 0.0706294179, -0.0372788049, 0.0042246669, -0.0505831689, 0.0377278440, -0.0510422625, -0.0389964543, 0.0234343428, 0.0721784160, 0.0334563181, 0.0605787896, -0.0122377658, -0.0625558347, -0.0321186185, 0.0498437397, -0.0079545081, 0.0755196214, -0.0088169435, 0.0468161665, -0.0419308543, 0.0147177838, -0.0214492790, 0.0031040553, 0.0188730899, 0.0055403132, 0.0114646573, -0.0677569583, -0.0452435724, 0.0277538691, -0.0020104647, 0.0200542696, 0.0816724300, -0.0135460114, 0.0078552375, -0.0355878584, -0.0639980435, 0.0513023548, 0.0203646496, -0.0066784485, 0.0168842841, -0.0225550495, 0.0144550176, -0.0300275870, 0.0396733209, 0.0597750768, 0.0603217557, 0.0743482709, 0.0744233802, 0.0469263755, -0.0362731591, -0.0120640295, -0.0266739577, 0.0812363923, 0.0676310435, 0.0255515296, 0.0312616564, -0.0374728963, -0.0308691915, -0.0812442303, -0.0458443351, 0.0735445768, -0.0556335859, 0.0775000304, -0.0446987711, -0.0145941544, 0.0404220000, 0.0360417888, -0.0831778795, 0.0028570651, 0.0348661691, 0.0063049379, 0.0068067969, -0.0294882189, -0.0287631024, 0.0763551667, -0.0215254948, 0.0667525455, -0.0446542166, 0.0043815058, 0.0510168485, -0.0124140354, 0.0555834770, -0.0024187346, 0.0429083556, -0.0343649760, -0.0202181730, 0.0696776137, -0.0069353231, -0.0680611432, -0.0609191507, -0.0755368099, 0.0021032288, 0.0001480075, 0.0695881769, -0.0597201288, 0.0577808209, -0.0532894656, -0.0571555533, -0.0221441165, -0.0685565472, 0.0551815368, 0.0147601729, 0.0725804940, 0.0126812821, -0.0466403626, -0.0044584349, -0.0357850306, 0.0339410193, 0.0327404998, 0.0345457792, -0.0812349916, -0.0794523507, 0.0622014850, -0.0443345085, 0.0115622701, 0.0645587966, 0.0330035761, 0.0227228757, 0.0506314710, -0.0145517066, 0.0380386002, 0.0691103786, 0.0492563881, -0.0202369094, -0.0135004343, -0.0184429958, -0.0115895392, -0.0558367856, 0.0587358214, -0.0135498364, 0.0117247114, 0.0756668150, 0.0632721707, 0.0060964320, 0.0525898598, -0.0682766214, 0.0128345741, 0.0657210276, 0.0029930524, 0.0768582746, 0.0199091323, -0.0600807853, 0.0815922916, -0.0714344382, 0.0303912032, -0.0682325065, -0.0342739709, 0.0689523965, 0.0201088879, 0.0763650164, -0.0290716533, 0.0234195609, -0.0754792690, -0.0379904993, 0.0635627508, -0.0772332177, -0.0744320303, -0.0724961385, -0.0363635607, -0.0096109025, -0.0814088881, 0.0213010143, 0.0574458577, 0.0455356874, 0.0358957462, -0.0350512713, -0.0668842718, -0.0092245573, -0.0184360221, -0.0517905056, -0.0205929652, -0.0110741695, 0.0727652684, 0.0146581000, -0.0561808906, -0.0580940731, -0.0006592738, -0.0369570181, -0.0274323337, -0.0560818128, 0.0342617929, 0.0529396273, 0.0119474037, 0.0357731991, -0.0034841225, 0.0475255251, 0.0247967783, 0.0109346854, 0.0260759294, -0.0190566238, 0.0827887058, 0.0133903548, 0.0408826508, -0.0418406837, 0.0707858205, 0.0601409934, -0.0088448180, 0.0201039705, 0.0379437990, -0.0220799651, 0.0592795126, -0.0524756052, -0.0515358858, -0.0034625358, -0.0138880014, -0.0190458540, -0.0223992951, -0.0525837094, -0.0281568356, 0.0392609574, 0.0403706506, 0.0246987306, -0.0777682811, -0.0137786176, 0.0258833058, -0.0368494838, -0.0045376988, 0.0617672093, -0.0006036927, -0.0260373149, 0.0622950159, -0.0252230000, -0.0128619829, 0.0731466487, -0.0268263780, 0.0473257229, -0.0098126931, 0.0012001733, -0.0653547198, -0.0768063515, 0.0497604497};

#endif

#endif
