//Numpy array shape [3, 3, 16, 16]
//Min -0.083300068974
//Max 0.083312749863
//Number of zeros 0

#ifndef W12_H_
#define W12_H_

#ifndef __SYNTHESIS__
cell_edges_2_op_1_weight_t w12[2304];
#else
cell_edges_2_op_1_weight_t w12[2304] = {0.0007111395, 0.0532996058, 0.0583179183, -0.0155044422, 0.0185562931, 0.0762017965, 0.0014423756, -0.0728643388, 0.0005808444, 0.0309715513, 0.0484451316, -0.0291354507, -0.0180621129, -0.0698616207, 0.0096128201, -0.0685947314, -0.0247715861, 0.0657601655, 0.0592833385, -0.0614713021, 0.0425026603, -0.0155295758, 0.0213780738, -0.0421554707, 0.0122106653, -0.0707671940, -0.0572218038, -0.0353259481, 0.0593591332, 0.0612745136, -0.0765431747, 0.0093973307, 0.0037459244, 0.0394179933, -0.0386343151, 0.0228386875, 0.0737638548, -0.0425002463, -0.0646471158, -0.0736628249, -0.0420234613, 0.0047885240, 0.0174390301, -0.0202927161, 0.0569887869, 0.0486722253, 0.0645870641, 0.0046297279, 0.0803863555, -0.0272077955, 0.0828960389, -0.0098860664, 0.0799473971, 0.0058865156, -0.0231327955, -0.0767081380, 0.0388738960, -0.0133340880, -0.0572866723, -0.0646030903, 0.0322888680, -0.0783448145, 0.0708173513, -0.0102030421, 0.0287116729, 0.0802184343, -0.0715321153, 0.0191235486, 0.0337234251, -0.0681107938, 0.0334297828, 0.0329237841, 0.0689463168, 0.0248548333, -0.0265389550, 0.0180336740, -0.0111211082, 0.0075726034, -0.0515697226, -0.0629549772, -0.0207033902, -0.0195527188, -0.0510141589, 0.0150847780, 0.0156605560, -0.0658859536, -0.0042296737, -0.0192695186, -0.0369709283, -0.0747508481, -0.0272350349, 0.0775643513, -0.0569586866, 0.0236912966, -0.0119430330, -0.0146990679, -0.0170963258, -0.0772686154, 0.0774161220, 0.0227292739, -0.0031079296, 0.0105354553, 0.0665237829, 0.0254657194, 0.0776616856, -0.0201267600, 0.0647012964, -0.0104815541, 0.0707017779, -0.0382988453, -0.0142800389, 0.0323930942, -0.0797849149, 0.0649247617, 0.0681877881, 0.0763522610, 0.0743875206, -0.0587088317, 0.0168274902, 0.0023785711, -0.0566218272, 0.0561160035, 0.0675466880, 0.0023957272, 0.0527697466, -0.0066315103, -0.0421042815, 0.0302733872, -0.0381277800, -0.0044377521, 0.0465318523, 0.0784430057, 0.0195946898, -0.0011729342, 0.0554734878, -0.0194192864, 0.0426948741, 0.0818472803, -0.0071515483, -0.0534724891, 0.0531840585, 0.0407317840, 0.0361164287, 0.0168818589, -0.0373449661, -0.0579549149, 0.0098040709, 0.0225175377, -0.0364476517, 0.0036975159, 0.0112146679, 0.0698232427, -0.0431325473, 0.0081457784, -0.0235051438, -0.0679674894, 0.0489478745, 0.0774623975, 0.0730557367, 0.0454238467, -0.0453719124, 0.0490199476, 0.0106926030, 0.0831810683, 0.0031581363, -0.0066110957, 0.0557454042, -0.0823635235, -0.0524344444, -0.0436305702, 0.0592426360, 0.0237325430, 0.0229270309, 0.0735454932, -0.0340378284, 0.0046890145, -0.0012865202, 0.0195678882, -0.0778308734, 0.0275041182, -0.0158583429, -0.0395331308, -0.0619839914, 0.0404678956, 0.0434909798, -0.0439060330, -0.0637683570, -0.0040777121, 0.0597915761, 0.0299192574, 0.0032224893, 0.0395693704, -0.0654304326, -0.0141203692, 0.0441205315, 0.0073401663, -0.0756147206, 0.0435956307, -0.0508392416, 0.0702321157, 0.0414626300, 0.0809136108, 0.0828458667, 0.0384204239, -0.0073528220, -0.0213145949, -0.0445151292, 0.0190285295, -0.0732492954, 0.0433935858, 0.0533291325, 0.0280689392, 0.0284095481, -0.0370475091, -0.0039830208, 0.0809836388, -0.0058059506, 0.0589339174, 0.0539964624, -0.0554810576, -0.0126198102, -0.0528352410, -0.0706810579, 0.0027430218, -0.0551601797, 0.0824275687, 0.0038156318, 0.0172102787, 0.0016069233, 0.0677194446, -0.0272054803, -0.0196856968, -0.0727688223, 0.0090086609, 0.0374049172, 0.0802239552, 0.0010230490, 0.0399760380, -0.0171846990, -0.0308056828, 0.0442847684, -0.0037692201, 0.0105183395, 0.0476931930, 0.0392983668, -0.0107853869, -0.0793986470, -0.0392923690, 0.0294273626, 0.0362255648, 0.0565384477, -0.0811342523, -0.0454487838, 0.0507127419, -0.0752661228, 0.0708558559, -0.0271660220, -0.0657827854, 0.0159174595, -0.0209209770, -0.0758215711, -0.0439579971, -0.0164315291, 0.0219241381, -0.0649925470, 0.0692757741, 0.0737585500, 0.0184415244, -0.0227601994, 0.0292065665, -0.0739640743, 0.0756649002, 0.0676788241, 0.0003969948, -0.0013982982, -0.0517401099, 0.0422442220, -0.0760753080, 0.0435120016, -0.0378803201, -0.0006354221, 0.0380202942, -0.0113146538, 0.0371877402, -0.0075165252, -0.0077064945, 0.0681101829, 0.0799000114, 0.0472750366, 0.0101121757, -0.0111683048, -0.0042771781, 0.0125137744, -0.0009804816, 0.0178867280, -0.0254378356, -0.0190298799, -0.0109062446, -0.0316793025, 0.0161650181, -0.0585392565, -0.0371375605, -0.0635402501, 0.0515949950, 0.0018634703, -0.0738625824, 0.0751262009, -0.0499612503, 0.0042040139, 0.0111410059, 0.0462912209, 0.0242010541, -0.0773303956, -0.0363415554, -0.0456765406, -0.0543940030, -0.0474484563, 0.0831705257, -0.0001418981, 0.0247613341, 0.0367429145, -0.0805374980, -0.0462973416, 0.0258634686, 0.0493033156, 0.0452556834, -0.0626303032, -0.0344184116, -0.0032517053, 0.0067207380, -0.0062821293, 0.0765911862, 0.0396464281, -0.0263890307, -0.0226741489, 0.0584722310, 0.0165255852, -0.0556589961, 0.0446423069, -0.0313189551, -0.0813911632, -0.0731183067, -0.0814144015, 0.0411263146, -0.0398283303, 0.0424358621, 0.0105948020, -0.0134722618, -0.0297377519, 0.0535354428, -0.0443735383, -0.0222763494, -0.0823019668, 0.0150564658, -0.0138075557, 0.0774077401, -0.0203027204, 0.0435415618, -0.0246326197, -0.0612976700, -0.0378823765, -0.0289051570, 0.0299529918, -0.0341126099, -0.0701281652, -0.0551230349, 0.0339878276, -0.0082522724, 0.0830563754, 0.0789873227, -0.0712236911, 0.0046830741, -0.0227056611, -0.0799504966, -0.0706703886, -0.0773188174, 0.0462010279, 0.0474578142, -0.0362712927, -0.0086679719, 0.0683377981, -0.0048702415, -0.0146582490, -0.0768650174, 0.0603333376, -0.0699018314, -0.0431490391, 0.0337330028, 0.0818241909, 0.0173060615, 0.0780256316, 0.0674328357, 0.0105766030, -0.0046960977, 0.0465919338, 0.0252853166, 0.0705945417, 0.0307716373, -0.0098745236, 0.0615522154, 0.0428298637, 0.0717662498, -0.0263537746, -0.0236965418, 0.0175683219, -0.0461745746, -0.0404911637, -0.0176264066, -0.0399635620, 0.0514134206, 0.0473765656, 0.0199670885, 0.0135492003, 0.0249153227, -0.0468591601, 0.0101944497, -0.0265806001, -0.0147250853, -0.0519658700, -0.0700193718, -0.0501827300, 0.0453266725, -0.0361230336, -0.0173521265, -0.0156347863, 0.0354789123, -0.0821650401, 0.0529469289, -0.0128237559, -0.0826250762, -0.0155133130, 0.0829306692, 0.0580998547, 0.0270331632, 0.0545179807, -0.0118268132, 0.0025347543, 0.0604313388, 0.0036095199, 0.0353041627, 0.0487059243, 0.0793509632, -0.0803708807, 0.0770385191, -0.0388413221, 0.0013702841, -0.0051611406, -0.0404801369, 0.0748290494, 0.0504187308, -0.0793174878, -0.0671125203, -0.0300078876, -0.0483735576, -0.0055202171, -0.0074473745, -0.0772422701, 0.0382196791, -0.0211717915, -0.0129563455, 0.0542558618, 0.0647046492, -0.0353213511, -0.0508210212, 0.0033195450, -0.0152407717, 0.0224484690, -0.0567503944, 0.0533659756, -0.0615345724, 0.0026587315, -0.0152941579, -0.0592207015, 0.0485068038, 0.0620425045, -0.0456069820, 0.0731836185, 0.0221614130, -0.0621710978, -0.0558996089, -0.0709521398, -0.0739742368, -0.0809363127, 0.0182578843, 0.0301831942, -0.0826528519, 0.0677477121, 0.0632962361, -0.0073810648, 0.0720727146, -0.0614595711, -0.0044690943, 0.0489293560, 0.0535243377, 0.0616344996, -0.0645816922, 0.0442354381, 0.0738753676, -0.0785590485, 0.0235304665, -0.0710717961, -0.0267955326, -0.0118229492, 0.0406384207, -0.0193331279, 0.0755399466, 0.0048807519, -0.0441328175, 0.0035486245, -0.0314627029, 0.0078785829, 0.0374845788, -0.0182732530, 0.0434796251, 0.0331938192, 0.0665767342, -0.0295670759, 0.0287041925, -0.0118340757, 0.0660051927, -0.0608825609, 0.0174179394, -0.0059580011, -0.0047968384, 0.0116229076, -0.0658987910, -0.0348501354, 0.0288950447, 0.0794634447, 0.0744058937, -0.0613661632, -0.0315210074, -0.0116146924, -0.0495419204, -0.0052448949, -0.0047707423, -0.0379407890, 0.0348150469, -0.0651646405, -0.0377038307, -0.0694325939, -0.0538333282, 0.0247094110, 0.0214264914, 0.0110152215, 0.0379153006, -0.0423956588, 0.0822121203, -0.0334920995, -0.0360217094, 0.0800046101, 0.0007322692, 0.0612193085, -0.0203467589, -0.0474419408, 0.0594800711, 0.0496701486, -0.0300906189, 0.0712219104, -0.0815127715, 0.0437055230, 0.0633626804, 0.0660655126, 0.0447829813, -0.0814583078, 0.0274877269, -0.0507132560, -0.0339113846, 0.0299138036, 0.0612704791, -0.0129786478, -0.0610578582, -0.0209024902, 0.0084741190, -0.0139251649, 0.0316045508, -0.0114691081, -0.0217317156, 0.0635661557, 0.0606169775, 0.0039369767, 0.0059326789, 0.0758441016, 0.0670080110, -0.0378851891, 0.0814635232, 0.0081999097, -0.0266426951, 0.0426946543, 0.0200372934, 0.0089691635, 0.0797846392, -0.0263382867, -0.0537016690, -0.0105309952, -0.0376521945, -0.0415812954, 0.0482984968, 0.0670322999, 0.0314069130, -0.0830258727, -0.0765025914, -0.0315456912, 0.0373514742, 0.0092184283, 0.0438421257, 0.0829363912, 0.0663602799, -0.0521420836, 0.0000820255, -0.0719175041, -0.0666903108, -0.0097736130, -0.0698788986, -0.0791953057, -0.0320463888, 0.0263851061, 0.0404590257, 0.0039470498, 0.0748589113, 0.0089335097, -0.0526877902, -0.0567688495, 0.0808505714, -0.0573820882, -0.0364910327, 0.0231081285, 0.0021993907, 0.0027904869, 0.0340737291, -0.0585091673, 0.0064464090, 0.0230661482, 0.0709748715, -0.0363672562, -0.0550484993, -0.0721804574, 0.0292211790, -0.0647772178, -0.0580927320, -0.0662803203, 0.0097884741, -0.0129721705, 0.0744402707, -0.0395297632, -0.0685860887, -0.0047244094, -0.0605346933, 0.0150895165, 0.0405979119, 0.0037259869, 0.0512409136, 0.0725401714, 0.0535920784, -0.0443449877, -0.0358132720, 0.0006254582, 0.0521974452, 0.0508820266, -0.0536058359, 0.0791311339, -0.0154700801, -0.0219826791, -0.0185466874, -0.0727250800, -0.0759324357, -0.0010567951, -0.0080513461, 0.0175192282, -0.0150667075, 0.0637552813, -0.0261481889, 0.0176753309, -0.0540007614, 0.0416315123, -0.0384486876, 0.0425787345, 0.0599188097, -0.0447668992, 0.0508247986, 0.0761865154, 0.0356099904, -0.0081561599, 0.0496021919, -0.0400931314, 0.0527352355, 0.0814261734, -0.0199644752, 0.0104610398, 0.0809073523, 0.0184374228, -0.0781347379, -0.0601771660, 0.0013157262, 0.0732457414, -0.0321628861, 0.0398569591, 0.0096623413, -0.0405586101, -0.0308836550, -0.0291632749, -0.0482575372, -0.0100274477, 0.0247292891, 0.0503177010, 0.0284561291, -0.0511569306, 0.0038794882, -0.0186705068, -0.0464802086, 0.0692358017, -0.0615291893, -0.0097385459, 0.0307528526, -0.0121822944, 0.0828060806, 0.0372001380, -0.0646976307, 0.0352382623, -0.0109551596, 0.0759537295, -0.0641898140, 0.0443131700, -0.0431762263, -0.0436559319, 0.0078214314, -0.0018641260, 0.0646163747, 0.0781918243, 0.0202582069, 0.0701959133, 0.0193721391, 0.0091614174, 0.0348701142, -0.0811534524, -0.0309118982, 0.0556689203, -0.0555549152, -0.0343319476, 0.0822035000, 0.0008303681, 0.0153103108, 0.0685553923, -0.0773039684, -0.0125939809, 0.0113924081, -0.0814124569, -0.0518180318, 0.0367736407, 0.0639805570, 0.0190648790, 0.0602290891, -0.0346163474, 0.0194783937, -0.0108673535, -0.0033508472, -0.0679430366, 0.0044722436, 0.0771184862, 0.0038546033, 0.0286290403, 0.0289703850, 0.0748502463, -0.0408319384, 0.0540644005, 0.0232843980, -0.0750769377, -0.0047256909, -0.0501126647, -0.0825078562, -0.0520610996, 0.0457057767, -0.0725646093, -0.0110699479, -0.0426448956, -0.0012138028, -0.0334606208, 0.0420013368, 0.0721045583, -0.0705355704, 0.0224375799, 0.0577827282, 0.0323279686, -0.0363717936, 0.0334462039, 0.0799669772, -0.0458975807, -0.0359447002, -0.0814206898, -0.0346332043, 0.0675292462, 0.0667693168, -0.0730050132, 0.0695734024, -0.0433890969, -0.0598129332, -0.0474682376, -0.0020170610, 0.0684429780, 0.0378638692, 0.0232827887, 0.0186857153, -0.0003354433, 0.0337248072, 0.0139977736, 0.0099097993, 0.0545993336, -0.0479814336, -0.0789532736, -0.0773533285, -0.0087959627, 0.0187251139, 0.0545187183, -0.0042841122, -0.0027775129, -0.0547345206, -0.0018987858, -0.0358162038, -0.0681409910, -0.0803290009, -0.0164898410, 0.0500857048, 0.0592346489, -0.0140962889, 0.0634441748, 0.0268404037, 0.0159562826, 0.0477733240, 0.0777202770, -0.0642210767, -0.0824183598, 0.0177534726, 0.0535413735, 0.0119787455, 0.0512289144, 0.0184096973, -0.0510627851, 0.0399790481, 0.0411094092, -0.0797589719, -0.0633162558, 0.0215479955, 0.0432021841, 0.0480059758, 0.0628501847, 0.0117912302, -0.0823047981, 0.0480552688, -0.0025308006, -0.0628608838, -0.0580080524, -0.0378822200, 0.0384158269, -0.0070467936, -0.0264534820, 0.0436775573, -0.0129847378, 0.0830666423, -0.0560770743, -0.0297829118, 0.0582135990, -0.0504157506, -0.0230372790, 0.0249055568, -0.0615387857, 0.0023517392, 0.0511460342, 0.0388740152, -0.0076532578, 0.0280994065, 0.0273169111, 0.0780840367, -0.0261621661, -0.0251655113, -0.0524795912, -0.0048218626, 0.0163253825, -0.0168897174, -0.0822963640, 0.0641728565, 0.0125820804, -0.0229951292, 0.0073460969, -0.0205964521, -0.0718957633, 0.0142575586, 0.0402306691, -0.0239446070, -0.0311970245, -0.0231751055, -0.0167430211, 0.0129324244, 0.0013478033, 0.0440742187, -0.0352547430, 0.0761116222, -0.0566186160, -0.0433870703, 0.0462448783, 0.0447410494, 0.0050517172, -0.0005117729, -0.0253516864, -0.0104134856, -0.0268795248, 0.0100399256, -0.0119754476, 0.0224936381, 0.0343414545, -0.0475389585, -0.0013004576, 0.0357119553, -0.0391025767, -0.0573469326, -0.0188843459, 0.0632799640, 0.0040383539, 0.0696489736, -0.0548070222, 0.0002559013, 0.0325654894, -0.0799530745, -0.0086432863, -0.0147232674, 0.0527759828, 0.0616552532, 0.0585807003, 0.0645680353, -0.0008241890, -0.0173994023, 0.0659124777, -0.0107921520, 0.0328024291, -0.0459697545, -0.0194930173, -0.0721537024, -0.0271279346, -0.0630358309, -0.0034897451, 0.0016845878, 0.0254765376, 0.0328275040, -0.0333125405, -0.0297483802, 0.0530461632, -0.0447491966, 0.0235806331, -0.0123599954, -0.0533574522, -0.0552493259, 0.0115389246, 0.0711573213, -0.0825561956, -0.0678941905, 0.0318621993, -0.0623701289, 0.0006849632, -0.0455462672, 0.0520026982, -0.0215601642, -0.0625270084, 0.0257132761, 0.0809779838, -0.0685476363, -0.0226015616, 0.0512683503, -0.0446708053, -0.0778117478, -0.0771373659, -0.0305543113, 0.0547909290, -0.0497597046, -0.0207283646, -0.0520863123, 0.0677728802, -0.0754652321, 0.0696690679, -0.0175095219, -0.0626129657, 0.0410715602, -0.0779923797, 0.0507415980, -0.0195981283, 0.0430612192, 0.0367360599, 0.0248167161, -0.0048071700, -0.0571665503, 0.0133729801, 0.0408484302, -0.0769308805, 0.0571223125, -0.0685484186, -0.0798836648, -0.0821088478, 0.0643300116, 0.0659030974, -0.0467234589, -0.0270902757, -0.0131161651, 0.0330968648, -0.0769350678, 0.0154438643, 0.0500368066, 0.0574248843, -0.0713848323, 0.0194852781, 0.0151281999, 0.0332538895, 0.0825290382, 0.0414199941, 0.0228261612, 0.0576451235, 0.0465446375, -0.0249352902, 0.0572073385, -0.0372552313, 0.0547693111, -0.0102963634, -0.0328181162, -0.0454619639, -0.0322618671, -0.0639145002, -0.0560218692, 0.0198112335, 0.0609516352, -0.0484059937, 0.0310345739, 0.0184392501, -0.0049809664, -0.0419617295, -0.0195064079, -0.0459833741, 0.0445857607, -0.0484179631, 0.0713633746, -0.0270883571, -0.0000418919, -0.0047345720, -0.0387262851, -0.0127265519, 0.0815219283, -0.0769273192, 0.0317834616, 0.0186553970, -0.0819623992, 0.0119180484, 0.0127391778, -0.0657792538, 0.0141670592, -0.0720101520, -0.0581057854, -0.0586605929, -0.0657960102, 0.0031273309, 0.0795325488, 0.0637817457, 0.0196643192, -0.0724448934, -0.0411212295, 0.0266599711, 0.0820376873, -0.0324058197, -0.0571732633, 0.0747758225, 0.0338029377, -0.0651628673, -0.0353682935, -0.0704630837, 0.0471955277, 0.0508516580, 0.0192775652, -0.0604546331, 0.0174641442, -0.0432249457, 0.0533243045, -0.0257542450, -0.0100620985, -0.0629728287, 0.0528682508, -0.0380877368, 0.0249944087, 0.0208606385, -0.0208320878, 0.0099684093, -0.0135920262, 0.0228936523, -0.0795349106, -0.0122227352, -0.0102305599, -0.0762559548, 0.0500188060, 0.0224173144, 0.0134184388, -0.0833000690, -0.0721370578, -0.0193702411, -0.0525633655, -0.0359668657, 0.0142932115, -0.0793653205, -0.0082391687, -0.0166331790, 0.0494666733, 0.0702797398, -0.0725431889, -0.0411392003, -0.0377253294, -0.0010492253, 0.0003439866, -0.0300211199, 0.0755308867, 0.0116226394, -0.0698042512, 0.0832590982, 0.0314177796, -0.0645660758, 0.0640493035, 0.0376940668, -0.0296719670, -0.0807027668, 0.0521208420, 0.0251757838, -0.0482433699, -0.0521013923, 0.0458340347, -0.0609363541, 0.0392840244, -0.0618381090, -0.0788831487, -0.0540088490, -0.0394457504, -0.0503647886, 0.0422107168, 0.0144144278, -0.0724530965, -0.0624166988, -0.0564427935, -0.0273064915, 0.0363446362, -0.0214783661, 0.0796854869, -0.0301874075, -0.0521293655, 0.0724968538, -0.0159078147, -0.0272917785, 0.0519135073, -0.0543214865, 0.0612116791, -0.0183215421, -0.0130190197, 0.0316225290, -0.0517200008, 0.0740930885, 0.0094808564, 0.0537446439, 0.0756087676, 0.0768234879, 0.0091906730, 0.0315687582, -0.0331415944, -0.0315431207, -0.0114343995, 0.0197458677, 0.0162239056, -0.0612381734, 0.0825074241, 0.0155712180, 0.0693350509, 0.0564520024, -0.0560525060, -0.0253296923, -0.0041644266, -0.0812667906, 0.0777578652, -0.0710654259, 0.0607601441, -0.0790453702, 0.0137746939, 0.0137355933, -0.0416199379, -0.0277011711, 0.0092793237, 0.0475227535, 0.0524306297, 0.0600827709, -0.0085591646, 0.0528982319, -0.0136360843, -0.0259103663, -0.0699388981, 0.0016046980, 0.0264848638, 0.0162070971, 0.0265302528, 0.0547086149, 0.0751414299, -0.0208469089, 0.0341018029, -0.0495352559, 0.0342458561, -0.0149851684, 0.0580669343, -0.0207449347, -0.0422040187, -0.0032860173, 0.0631915778, -0.0690883547, 0.0138888257, -0.0648325607, 0.0167596806, -0.0683942884, 0.0008321959, -0.0011319859, -0.0427502170, -0.0499436073, 0.0187122598, -0.0175527949, -0.0265146866, -0.0344012156, -0.0223664418, 0.0735975057, -0.0828824565, -0.0207211226, 0.0221084263, 0.0685053617, -0.0558749922, 0.0455769524, -0.0424098261, 0.0499264710, -0.0195272006, 0.0672566816, -0.0174492914, 0.0173149537, -0.0642477497, 0.0742250532, 0.0640379190, 0.0330151580, -0.0418902934, -0.0209683832, 0.0138502130, 0.0064718002, 0.0368018113, 0.0569956228, 0.0050168880, -0.0256437678, 0.0594730601, 0.0045827995, 0.0565454327, -0.0349262692, -0.0165059250, 0.0140783479, -0.0684031993, -0.0714367181, 0.0078279087, -0.0440000705, -0.0671730563, -0.0500093810, -0.0714644715, -0.0356954634, 0.0355570614, 0.0689038634, -0.0363023058, 0.0160942376, -0.0623828247, -0.0549668111, 0.0578009486, -0.0828440040, -0.0086693922, -0.0396927223, 0.0295953862, 0.0234601032, 0.0446653925, -0.0143175703, 0.0493090376, 0.0561728776, 0.0369357914, -0.0371911749, -0.0634941086, 0.0286544431, 0.0561388321, -0.0759880021, -0.0053569605, 0.0637113526, 0.0147842923, 0.0038004825, 0.0332866944, 0.0089783426, -0.0813515186, 0.0619396158, 0.0521965027, 0.0773387179, -0.0664463118, -0.0001333151, 0.0135772647, 0.0238967538, 0.0496264808, -0.0273422841, -0.0689557642, -0.0372853205, -0.0496577211, 0.0195087325, -0.0330803171, 0.0292977225, 0.0551854111, 0.0569532141, 0.0700884759, -0.0533890724, -0.0658653826, -0.0081452718, 0.0615624972, -0.0444756411, -0.0205495637, -0.0787379369, 0.0500119328, -0.0455341563, -0.0706536546, -0.0270244014, 0.0357093327, 0.0825582147, -0.0191916563, 0.0827495679, 0.0193235017, -0.0812020600, 0.0073414776, -0.0249177460, -0.0693650544, -0.0250249859, 0.0477653258, 0.0373512246, 0.0352668129, 0.0521241315, 0.0038855379, 0.0792943388, 0.0551423654, -0.0291098002, -0.0108065167, -0.0054339399, 0.0620934963, 0.0525710434, -0.0619042031, 0.0597758517, -0.0522949696, -0.0072000963, -0.0206544846, 0.0810109153, -0.0534152500, -0.0223918241, 0.0212696325, 0.0443809405, -0.0735426694, 0.0504743718, -0.0145014394, -0.0318462364, -0.0631989315, 0.0646547973, 0.0620617568, -0.0299673062, 0.0169441849, -0.0725530460, -0.0534704439, -0.0660456568, -0.0125913192, -0.0541412905, 0.0397642180, 0.0316707678, -0.0628418699, 0.0505504683, 0.0682859570, -0.0573357381, -0.0796426833, 0.0584225096, -0.0041953912, 0.0439550690, 0.0683675855, 0.0754580796, 0.0566863269, 0.0611468181, -0.0624975339, -0.0011927327, 0.0223073941, 0.0026344724, 0.0704954639, -0.0313196331, 0.0746543482, 0.0562023483, -0.0357258245, -0.0389999524, -0.0320566110, -0.0819059238, 0.0346665345, -0.0231521465, 0.0591791496, -0.0695457831, 0.0656609535, 0.0360039398, -0.0736337155, -0.0340085402, -0.0584821738, 0.0021740487, -0.0459819436, -0.0687018782, 0.0742893293, -0.0512994342, 0.0768984556, 0.0282847770, -0.0425817445, 0.0404691100, -0.0093563730, -0.0045907567, 0.0156420395, 0.0150908176, 0.0410228334, -0.0527017973, -0.0762180611, 0.0538154058, -0.0795930550, 0.0170871764, -0.0088231424, -0.0208060499, -0.0395567045, -0.0527514964, 0.0049594594, -0.0310439523, 0.0178798344, -0.0100252423, -0.0007843833, 0.0091963653, -0.0207740217, -0.0722049698, 0.0387702547, -0.0533108711, 0.0720463023, -0.0048804041, 0.0731972381, 0.0723806396, -0.0157590024, -0.0674603209, 0.0078404257, 0.0340371914, -0.0717158169, 0.0026838048, 0.0638301894, -0.0752152801, 0.0383337587, -0.0327839404, -0.0507450067, -0.0733135864, -0.0060586827, 0.0370423533, -0.0644915700, -0.0549772903, -0.0826227888, -0.0282191820, -0.0271765236, 0.0769110247, -0.0199044142, -0.0299566071, 0.0494688787, -0.0530086011, -0.0475172326, 0.0760859773, -0.0350068547, 0.0572509803, 0.0163894277, -0.0604703315, -0.0426126197, 0.0179260671, 0.0090006441, 0.0599220283, 0.0008814291, -0.0623038970, 0.0497643650, -0.0210482422, 0.0769490525, 0.0384300612, -0.0658895969, 0.0011781793, -0.0360273048, 0.0345717147, -0.0015240533, 0.0466164090, 0.0746191815, 0.0265226532, -0.0221089814, -0.0388026386, 0.0567524210, 0.0610862225, 0.0616383553, 0.0604137853, -0.0309665650, -0.0650155470, -0.0141789904, 0.0611508526, 0.0363640673, 0.0532845668, -0.0617437176, -0.0751837268, -0.0445421487, 0.0099936025, -0.0792257860, -0.0465742908, -0.0099622998, -0.0188152343, 0.0683153570, -0.0330896154, -0.0469915420, 0.0189059023, 0.0537822768, 0.0169459824, 0.0078464262, 0.0746937767, 0.0164143629, 0.0613064617, 0.0003669244, -0.0045734616, -0.0061173034, 0.0171427969, 0.0668721348, 0.0057353191, -0.0132655734, 0.0112001142, 0.0810306370, -0.0268163439, 0.0667808205, 0.0016531465, -0.0493213385, 0.0282534137, 0.0046442514, 0.0005005971, -0.0591259860, 0.0765249506, -0.0108792046, -0.0513484702, 0.0344284065, 0.0490882620, -0.0695184767, 0.0373066291, 0.0091238162, -0.0598118603, 0.0532169342, 0.0576425008, -0.0585412644, 0.0343718007, 0.0566463135, 0.0071079973, -0.0360056683, 0.0141766556, -0.0133324591, 0.0397339687, 0.0561971329, 0.0183188003, -0.0614244938, 0.0488752648, -0.0248560067, -0.0561848730, 0.0018927957, -0.0294886548, -0.0831500515, 0.0124135586, 0.0104735075, -0.0530327521, 0.0366199985, -0.0169588067, -0.0194659159, -0.0578253865, -0.0814777985, 0.0249982532, 0.0368138328, -0.0677563250, -0.0073675346, -0.0636307001, -0.0349862017, -0.0285186227, -0.0727359504, 0.0255579669, -0.0627288297, -0.0560135245, -0.0510883369, -0.0392076410, -0.0217197854, -0.0250340048, -0.0362301134, 0.0615735240, -0.0492180027, 0.0595672429, 0.0790954381, 0.0536196344, 0.0362750068, -0.0232342221, 0.0819857940, 0.0143315876, -0.0239660740, 0.0630905330, 0.0766795427, -0.0648169667, -0.0535881147, -0.0559236705, -0.0065913666, 0.0174346883, -0.0357558355, 0.0626338571, 0.0547500998, 0.0223007482, 0.0508165509, 0.0162638705, 0.0640066862, -0.0818540528, 0.0584699772, -0.0607970692, 0.0042308657, -0.0813065097, -0.0574909188, -0.0650368482, -0.0467178486, -0.0772552043, 0.0429071337, 0.0509715900, 0.0665996522, -0.0409342982, 0.0300482195, 0.0600830205, -0.0787370875, -0.0787513629, -0.0565905049, -0.0106617874, -0.0473293178, -0.0704655275, 0.0672355667, 0.0072036427, 0.0763979256, -0.0443368517, -0.0075671198, 0.0739304572, 0.0121754007, -0.0275440533, 0.0591331683, 0.0791206509, 0.0696830153, -0.0073135924, 0.0467975996, 0.0407801121, 0.0388242081, 0.0032825901, -0.0593939424, 0.0573191382, -0.0387332514, -0.0252847504, 0.0042380774, 0.0467571467, -0.0246622637, -0.0468210243, -0.0709363520, 0.0499486439, 0.0389526933, 0.0704365596, -0.0069562844, 0.0412276834, 0.0043369909, -0.0209925435, 0.0137003474, 0.0284268148, 0.0270231906, 0.0707575828, -0.0018450030, -0.0303931311, -0.0389766060, -0.0453594066, -0.0471024960, -0.0079314811, 0.0260505471, 0.0070001432, -0.0816648901, -0.0057123718, -0.0127957417, 0.0674892515, -0.0755669996, -0.0808678940, 0.0631814450, -0.0127914604, 0.0217484254, 0.0106815267, 0.0638667122, 0.0517148264, -0.0489682592, -0.0734533817, 0.0398268476, -0.0203104988, -0.0443824008, 0.0148510290, -0.0668593198, 0.0345471576, 0.0222111829, 0.0144462259, -0.0477301888, 0.0297203269, -0.0378489308, 0.0002703455, 0.0761550143, 0.0073740114, -0.0484084077, 0.0429198667, 0.0276722331, -0.0122809298, 0.0607449450, 0.0521012619, -0.0044378117, -0.0715526566, 0.0346777588, -0.0573552288, -0.0457523391, 0.0753620863, -0.0519489422, 0.0306363869, 0.0242839549, 0.0439099669, -0.0568190068, -0.0506415740, 0.0315332562, -0.0588263720, -0.0744078234, -0.0828858539, -0.0499008596, 0.0070072166, -0.0598910749, 0.0193774626, 0.0547757670, -0.0807890072, 0.0271499194, -0.0634580851, 0.0063505750, 0.0073572528, -0.0558623075, -0.0436117165, -0.0331423804, -0.0344748981, 0.0460363515, -0.0521874912, 0.0127229160, -0.0672879294, -0.0128715392, -0.0609027594, -0.0111143626, -0.0676158220, 0.0471564569, -0.0084678400, -0.0519038327, 0.0254439749, -0.0101145208, -0.0250346120, -0.0741725564, 0.0434916541, 0.0569983236, -0.0385728031, -0.0636161342, 0.0002485899, 0.0667866245, 0.0231252164, -0.0389439426, -0.0400657132, 0.0267189890, -0.0029650182, -0.0168742891, 0.0127472635, 0.0687696040, -0.0759544373, -0.0595943928, 0.0320931375, 0.0259998441, -0.0463300645, -0.0621180646, 0.0767566860, 0.0676741973, 0.0711048394, 0.0684155524, 0.0507698618, -0.0528542139, -0.0673273057, -0.0103924153, 0.0306261554, -0.0499409437, -0.0163542703, -0.0583074465, 0.0321829617, -0.0188006107, -0.0801799893, 0.0661537871, -0.0256584696, -0.0737119019, -0.0585783757, -0.0794587955, -0.0649567991, -0.0117064724, -0.0750998706, 0.0146301650, -0.0360703766, -0.0491953827, -0.0134852855, -0.0358383283, 0.0082325730, -0.0176349897, -0.0499222577, 0.0403383747, -0.0182814691, -0.0370534807, -0.0302547496, 0.0517790206, 0.0753156319, 0.0327467285, -0.0579490736, 0.0205247272, -0.0769963413, 0.0324894451, 0.0414979160, 0.0495939851, 0.0286693927, 0.0063168686, -0.0104971305, 0.0179157555, -0.0314457044, -0.0350976847, 0.0612364039, -0.0781585947, -0.0041494756, 0.0225835498, -0.0713617727, -0.0391369388, -0.0393082723, 0.0032121281, 0.0303042326, 0.0193439163, 0.0375427753, 0.0616765507, -0.0261940751, -0.0485941134, 0.0626936555, 0.0280858874, 0.0382666700, -0.0666696057, -0.0270258021, 0.0727587193, -0.0126759075, 0.0367673710, 0.0730715171, 0.0088709053, 0.0600255802, -0.0706000850, 0.0292710084, -0.0785595402, -0.0462964363, -0.0156970732, -0.0587824248, -0.0529239215, -0.0763588622, 0.0571525432, -0.0202148147, -0.0698787495, -0.0243385620, 0.0090128034, -0.0621013343, -0.0548783690, -0.0176635701, -0.0304996241, 0.0173927676, -0.0474516563, 0.0750123933, -0.0618425794, 0.0119909449, -0.0155618601, -0.0260943659, 0.0730554312, -0.0045156451, 0.0695641637, 0.0693261251, -0.0132303173, 0.0277164280, 0.0736300200, -0.0099482937, -0.0725129768, -0.0231869761, 0.0502740219, 0.0526837856, 0.0030058869, -0.0428148359, -0.0199082494, 0.0732483044, 0.0223201793, -0.0792126134, -0.0616378672, 0.0782926753, 0.0099513633, 0.0659906715, -0.0717857704, -0.0263935793, 0.0376518555, 0.0405933820, -0.0797133148, 0.0722335503, -0.0474758446, -0.0390394703, 0.0164694861, -0.0410948656, -0.0143984137, -0.0238121655, -0.0291774720, -0.0114948377, 0.0462210849, 0.0111070117, -0.0493085235, -0.0344475508, -0.0278847311, -0.0583973825, 0.0770833939, 0.0047248267, 0.0535821132, 0.0034236538, 0.0215676054, -0.0130916480, 0.0004479167, -0.0460514016, 0.0824199691, -0.0818601325, -0.0094050495, 0.0298004560, 0.0713144392, 0.0810504332, -0.0525517315, 0.0619713478, -0.0590715259, -0.0729718134, -0.0312773809, 0.0460952893, 0.0454846956, -0.0517968833, 0.0168620702, -0.0419511497, -0.0310789179, 0.0451974086, -0.0276288111, -0.0049273125, -0.0444765650, 0.0394727327, -0.0782413557, 0.0800130367, -0.0428727902, -0.0178036001, 0.0611396581, -0.0433918685, 0.0107871853, -0.0082503846, 0.0706854910, 0.0531692468, -0.0656648129, 0.0350125767, 0.0355468094, 0.0793071166, -0.0105301207, -0.0747029334, -0.0578296967, -0.0261194892, -0.0127720488, 0.0097903516, -0.0825815499, -0.0712279230, 0.0540485159, 0.0348282196, -0.0625230074, -0.0465327762, 0.0379612930, -0.0331028849, -0.0484922417, 0.0620310195, -0.0560053699, -0.0759008825, -0.0661046058, 0.0133848712, -0.0237767305, -0.0091212336, 0.0759792551, 0.0408126861, 0.0076006469, -0.0472937338, 0.0338302888, 0.0555056520, -0.0305113569, -0.0591351241, 0.0183528755, -0.0042543695, -0.0671045631, 0.0521792844, -0.0146559039, 0.0556401126, -0.0238099005, 0.0215338487, 0.0833127499, 0.0331239328, -0.0603538118, -0.0823607817, -0.0746195018, 0.0800059736, -0.0134494035, -0.0227606464, -0.0477697551, -0.0228514932, 0.0530774258, -0.0269869603, 0.0116173942, -0.0136685492, -0.0690986514, 0.0387183391, 0.0296597388, -0.0682385713, 0.0349678434, 0.0068599535, 0.0278326869, 0.0748485625, 0.0410333611, -0.0761534646, 0.0148374494, -0.0796235576, 0.0485821553, -0.0764708146, 0.0233161766, -0.0072712833, -0.0472379886, -0.0469834544, -0.0622347742, 0.0229552723, 0.0284854528, 0.0342631638, -0.0789760575, 0.0009967437, -0.0455295369, -0.0235179979, -0.0283377543, 0.0381866992, 0.0639902428, -0.0670255572, -0.0002864883, 0.0102782538, 0.0742705241, -0.0726289824, 0.0081635211, 0.0397907719, -0.0066624545, -0.0410002023, -0.0040377178, -0.0117253577, -0.0658523068, 0.0271069054, 0.0552288443, 0.0484415665, -0.0288544036, -0.0772285312, -0.0804318488, 0.0071075503, 0.0346488394, 0.0209214240, -0.0756820664, 0.0211676192, -0.0360050313, -0.0832245946, 0.0770972297, -0.0519594550, 0.0627951026, -0.0305954479, 0.0010362613, -0.0171289481, 0.0421951190, 0.0028927382, 0.0540215261, -0.0134382574, 0.0514633581, 0.0448897257, -0.0400988534, 0.0503604375, -0.0707172304, -0.0252900254, -0.0421058610, 0.0728695765, -0.0391620621, 0.0051180567, -0.0821444467, -0.0479380414, -0.0137674818, 0.0254503619, -0.0696577206, -0.0487047024, -0.0200918801, -0.0022829459, 0.0372466594, -0.0395890288, 0.0552915484, -0.0657781065, 0.0269294642, -0.0095658721, -0.0142812217, 0.0420945548, -0.0553604215, -0.0792004317, -0.0725752860, 0.0677881390, -0.0472833626, -0.0444115251, -0.0065570544, 0.0129228290, -0.0684666410, -0.0615837872, -0.0635430440, -0.0695106983, 0.0327378288, -0.0286337193, -0.0787125602, -0.0717718452, 0.0625489503, -0.0729093328, -0.0740643591, 0.0125007899, 0.0605943464, -0.0154804019, -0.0751945153, -0.0508206449, 0.0287060607, -0.0626231432, -0.0242179018, 0.0360509567, -0.0453257896, 0.0492978431, -0.0580430031, 0.0705978051, -0.0546770468, 0.0469181389, 0.0313643441, -0.0737178177, -0.0016982371, 0.0451578014, -0.0277118701, 0.0127811683, -0.0088167051, -0.0202945936, 0.0807807297, -0.0698829666, -0.0178387873, -0.0556354932, 0.0178740136, 0.0423427001, -0.0004013359, 0.0672599599, -0.0585388876, 0.0523866415, -0.0121072428, -0.0326284617, 0.0531291626, -0.0754097998, -0.0002761271, -0.0206854101, 0.0031924187, -0.0112278601, 0.0749062300, 0.0709011853, -0.0369520821, 0.0042879172, 0.0110587627, 0.0063096667, -0.0805463195, -0.0507506393, -0.0225956403, 0.0105976528, -0.0280864742, -0.0297812819, 0.0488420948, -0.0767962560, -0.0644257441, -0.0346736163, 0.0300773364, -0.0062266872, 0.0813220665, -0.0516542904, -0.0290956944, -0.0546692796, 0.0415447652, 0.0328243226, -0.0075019221, -0.0080913706, -0.0781529918, -0.0009645175, -0.0817562044, 0.0266724378, -0.0572181568, -0.0622266792, 0.0046127802, -0.0482907780, 0.0090121580, 0.0608017296, -0.0464558192, 0.0380416997, 0.0054497248, -0.0169188641, -0.0380224176, 0.0706653371, 0.0300897248, -0.0295749139, 0.0193531439, 0.0152444178, 0.0531951450, -0.0538076684, -0.0283474512, 0.0451417081, -0.0267865919, 0.0584815480, 0.0349759907, -0.0063781417, -0.0677209869, 0.0130244140, 0.0580614805, -0.0501805730, 0.0301083121, -0.0174453687, 0.0237418320, -0.0807168037, 0.0277551617, 0.0400754996, -0.0713542029, -0.0316756964, -0.0355019085, 0.0611339360, 0.0695405081, -0.0317287631, -0.0825961232, -0.0614781491, 0.0228234790, 0.0356088206, 0.0013103520, -0.0467586853, -0.0697071627, 0.0360094905, 0.0472612977, 0.0283112004, 0.0595306680, 0.0244312547, 0.0174185559, 0.0289048292, 0.0166217946, 0.0492091998, -0.0827808008, -0.0395487174, 0.0586220659, -0.0788614228, 0.0593250990, -0.0179313831, -0.0254290141, -0.0815002844, 0.0257127304, -0.0710027665, 0.0116178915, 0.0610723048, -0.0339925773, -0.0496107452, 0.0386946462, -0.0251316261, 0.0664185137, -0.0186981633, 0.0178053882, -0.0381215625, -0.0360023081, -0.0192611646, 0.0085243257, -0.0129424576, 0.0687149242, 0.0307855159, -0.0043964963, 0.0649977773, -0.0641815364, 0.0510843806, 0.0179399848, -0.0657659918, -0.0271336380, 0.0777010918, 0.0201861262, -0.0326833688, -0.0051287059, -0.0208290070, -0.0742289200, -0.0343195982, -0.0458075590, 0.0659799427, 0.0334844515, 0.0706846267, 0.0808372274, -0.0603610650, 0.0615902543, -0.0750174001, -0.0685005561, -0.0583632477, 0.0129340440, -0.0604334734, 0.0391097292, -0.0682657808, -0.0037464411, 0.0245081149, 0.0242625568, -0.0816711411, 0.0734200254};

#endif

#endif
