//Numpy array shape [3, 3, 16, 16]
//Min -0.083310507238
//Max 0.083309128881
//Number of zeros 0

#ifndef W16_H_
#define W16_H_

#ifndef __SYNTHESIS__
cell_edges_5_op_1_weight_t w16[2304];
#else
cell_edges_5_op_1_weight_t w16[2304] = {0.0223122314, 0.0828113183, -0.0668491647, 0.0429109484, -0.0025115185, 0.0314732827, 0.0046231812, 0.0627451688, -0.0406291634, -0.0229775645, 0.0770334825, 0.0410787910, 0.0137536135, 0.0358680785, 0.0805701688, -0.0068769609, 0.0440080166, -0.0685609281, -0.0669303611, -0.0797463506, 0.0571370162, -0.0478484333, -0.0303690210, 0.0057658069, -0.0357589535, -0.0498934686, -0.0250713881, -0.0545080975, 0.0514297523, 0.0371384062, -0.0364545472, 0.0048712450, -0.0299908910, -0.0208115838, 0.0357450843, 0.0802905336, 0.0680052191, -0.0642041788, 0.0601934753, 0.0042528994, -0.0572695360, 0.0750816464, 0.0303440467, -0.0495412163, 0.0057070469, -0.0450923480, 0.0799791813, -0.0107514616, -0.0118873119, -0.0054986202, -0.0341423526, -0.0002046813, 0.0679909885, 0.0611056238, -0.0557691641, -0.0240872987, 0.0274939351, 0.0048444625, -0.0288207699, -0.0395612456, -0.0332138762, -0.0332551636, -0.0290246457, -0.0400793925, 0.0792590007, 0.0609433576, 0.0074705705, -0.0494761989, 0.0508877300, 0.0720550120, -0.0498036742, -0.0767226666, 0.0478877425, -0.0229513589, 0.0627527609, 0.0197284631, -0.0530460328, 0.0128694428, 0.0215458199, -0.0411474854, -0.0450113490, 0.0384799913, -0.0239394512, 0.0141738942, -0.0503415242, 0.0821218714, -0.0353149921, -0.0383497141, 0.0803408921, -0.0132780904, 0.0788594633, 0.0469188839, -0.0548775941, -0.0826133341, 0.0559479110, -0.0578827746, 0.0737423152, -0.0609250888, 0.0264104288, 0.0065663229, -0.0414608233, 0.0112111215, 0.0163583532, 0.0172243454, 0.0482133999, -0.0283213444, 0.0589915365, -0.0796871856, 0.0257507768, 0.0363497622, 0.0390203148, -0.0224626344, 0.0413088724, 0.0617573746, -0.0137167089, 0.0183156524, 0.0725384429, -0.0650951564, 0.0787510052, 0.0747965127, 0.0588543974, -0.0386148542, -0.0079081552, 0.0415591002, -0.0153988926, 0.0078209247, -0.0475205109, -0.0656616613, 0.0412247144, -0.0235204026, -0.0288951732, -0.0694440976, 0.0505750552, 0.0199392624, 0.0166862477, -0.0705500618, 0.0250966903, 0.0268131457, 0.0400867835, -0.0143594127, 0.0238564610, 0.0176317915, 0.0807487667, 0.0391485207, -0.0048417011, -0.0111647490, -0.0322328806, -0.0524317399, 0.0571187362, 0.0736538842, 0.0724866167, 0.0782906562, -0.0582267232, -0.0820620358, 0.0490774065, -0.0327089578, -0.0578852482, 0.0581330955, -0.0522421375, 0.0735398158, 0.0599457994, 0.0420559235, 0.0776398703, -0.0330448225, 0.0697838143, 0.0551420301, -0.0249716993, 0.0285141338, 0.0727329627, -0.0151264016, 0.0019936163, 0.0293867122, -0.0601018742, -0.0645855293, -0.0093009509, -0.0447239354, 0.0099221272, 0.0267799348, 0.0396026000, -0.0393450297, -0.0129868034, -0.0808971599, 0.0572737567, 0.0732466131, 0.0102878297, 0.0423102342, 0.0715072006, 0.0729713589, 0.0466183573, 0.0488557667, 0.0395105593, -0.0582734421, 0.0084756482, -0.0608332790, -0.0255235247, 0.0137376990, -0.0694137812, 0.0524333604, 0.0456504636, -0.0733916834, -0.0703238919, 0.0713171512, -0.0191094130, 0.0584665276, -0.0606514737, -0.0051014270, -0.0213828925, -0.0133217797, -0.0220369603, -0.0354803614, -0.0446805917, -0.0773501024, -0.0419580452, -0.0238627903, 0.0453985445, 0.0475451276, -0.0308677610, 0.0322632380, -0.0168799218, -0.0390836522, 0.0082942527, -0.0405868627, -0.0382406823, 0.0422075577, -0.0703341439, 0.0673766956, 0.0577044971, -0.0097004091, 0.0026506649, -0.0140936067, 0.0740332976, -0.0732548907, -0.0182588585, 0.0569774248, -0.0205533784, -0.0145815089, -0.0798157826, -0.0166766010, -0.0211207010, 0.0145961018, 0.0776139721, 0.0537253320, 0.0831415877, 0.0676559955, 0.0626644045, 0.0316505134, 0.0101592233, -0.0122670615, -0.0769763887, 0.0147670666, 0.0105754007, -0.0020286140, -0.0487729348, -0.0649028867, -0.0762305781, 0.0443923436, -0.0264592040, 0.0606669709, 0.0153340632, -0.0808243752, -0.0139914257, -0.0663115308, 0.0054382016, -0.0095917601, 0.0500571132, 0.0705312267, -0.0710080266, 0.0068348111, -0.0279790163, -0.0326871946, 0.0506161712, 0.0098962989, -0.0322442949, 0.0532962605, -0.0161867421, -0.0677328855, -0.0407474376, -0.0771026164, 0.0775278434, 0.0521959364, -0.0617251992, -0.0060643950, -0.0003504239, 0.0413356051, 0.0190752205, -0.0783874169, 0.0597706959, -0.0425266102, -0.0710870922, -0.0189640764, 0.0394684784, -0.0037525308, 0.0716823637, -0.0122537101, -0.0484736748, -0.0157796852, 0.0646013543, 0.0062059746, -0.0789280981, 0.0568569563, 0.0511470959, 0.0541078411, -0.0662383810, 0.0771423131, -0.0809372142, 0.0066596931, -0.0687348619, 0.0611274876, -0.0525860339, 0.0812933370, -0.0696767569, -0.0751592815, 0.0335060991, -0.0122457035, -0.0308061000, -0.0211394373, -0.0532259867, -0.0587262064, -0.0479220152, -0.0289531294, -0.0296677556, -0.0413203649, 0.0102507854, 0.0314926244, -0.0630456358, 0.0472733974, -0.0051992871, -0.0244294964, 0.0386098772, 0.0029626142, 0.0473129675, 0.0135566313, 0.0670411065, -0.0467931889, -0.0498002283, 0.0438939221, -0.0421006270, -0.0564568117, -0.0157850496, -0.0441246144, -0.0656916723, 0.0454650037, 0.0574233271, -0.0023982008, -0.0287184976, -0.0587648712, -0.0015129173, 0.0677612573, -0.0212073456, -0.0816550329, 0.0647271201, -0.0724760368, -0.0073874029, 0.0750139505, 0.0664208606, 0.0804184973, 0.0814381912, 0.0018633809, -0.0549614765, -0.0433066040, -0.0746323615, -0.0714368448, -0.0057563097, 0.0715783760, -0.0146857360, 0.0353156365, 0.0475310795, -0.0081356652, -0.0201023705, 0.0738051385, 0.0746855512, 0.0638909861, -0.0181565676, 0.0433309600, 0.0105151106, 0.0799297839, -0.0437800996, -0.0808329582, -0.0085558668, -0.0064512370, -0.0126700066, -0.0132940048, 0.0127286781, -0.0075477283, 0.0387915447, 0.0595850274, 0.0360732898, 0.0110197319, 0.0476288609, 0.0598465502, -0.0035174114, -0.0508070551, 0.0791489631, -0.0001095727, 0.0299182944, 0.0092990333, -0.0414289460, -0.0729994997, 0.0328616053, -0.0524435043, -0.0611648001, 0.0605562106, 0.0244100653, 0.0414848439, 0.0261370037, -0.0189142972, -0.0567226261, 0.0097271418, -0.0553034097, 0.0489613861, 0.0453632101, 0.0244492460, -0.0003341917, 0.0601797774, 0.0177834332, 0.0552155301, -0.0649340898, -0.0615476854, 0.0394476689, 0.0124604478, -0.0552049503, -0.0560051203, -0.0167821515, 0.0724927336, 0.0292999167, 0.0741077513, 0.0285675488, -0.0109267980, 0.0607456006, 0.0017521394, -0.0507985614, -0.0329221450, -0.0718009770, -0.0644587204, 0.0054788017, -0.0754727200, -0.0334961228, -0.0168984886, 0.0537051074, 0.0088830739, -0.0379177928, 0.0433641523, 0.0582687035, 0.0113709699, 0.0646613464, 0.0441148989, 0.0214698724, -0.0796107873, -0.0807212889, 0.0220229328, 0.0365989693, -0.0721197650, 0.0727106109, 0.0243666265, 0.0143387001, -0.0776742995, -0.0472660474, -0.0523920134, 0.0771274120, -0.0290662590, -0.0618869849, -0.0662516728, -0.0630096942, -0.0276405532, 0.0502741784, -0.0035481078, 0.0540880747, 0.0305343345, 0.0128012355, 0.0128323985, 0.0475183651, -0.0597042069, 0.0721670836, 0.0417943895, -0.0072975196, 0.0590348095, 0.0473788083, 0.0281534083, 0.0297964215, 0.0063879169, -0.0081368275, -0.0377111249, 0.0108993202, -0.0209451877, 0.0189351588, 0.0202926863, 0.0519767292, -0.0516929738, -0.0709247291, 0.0134440195, 0.0340659693, 0.0158682372, 0.0354939699, -0.0605767034, 0.0309507996, -0.0193812679, 0.0557550378, 0.0306922346, -0.0412263013, 0.0358346924, -0.0003728053, 0.0032524602, 0.0466043800, 0.0680466890, -0.0407662429, 0.0520439632, -0.0205999389, -0.0528968312, 0.0003500365, -0.0220385697, 0.0779658556, -0.0657047182, -0.0582015887, 0.0427664109, 0.0622836612, -0.0238238685, 0.0176118631, -0.0316332579, -0.0352217890, 0.0703709424, 0.0400642045, 0.0160474181, -0.0460806079, -0.0827203542, -0.0396767892, 0.0689357817, -0.0463597365, -0.0630638003, 0.0249313563, 0.0537300520, -0.0646072328, 0.0046144393, 0.0722553879, -0.0002188374, 0.0815674737, 0.0680821091, -0.0304994062, 0.0237870216, 0.0778267384, -0.0307901353, -0.0077645197, 0.0347421020, -0.0057846517, -0.0818625912, 0.0455082096, 0.0094543518, 0.0344585963, -0.0220653806, 0.0434603430, 0.0662217066, 0.0621115975, 0.0560954027, 0.0047820769, -0.0570751168, 0.0466148891, -0.0053580534, 0.0574508347, 0.0402772613, 0.0390434712, 0.0075403075, 0.0494736172, -0.0581093319, -0.0032663282, 0.0029293848, -0.0103487950, 0.0313895494, -0.0817479268, -0.0288854875, 0.0418147966, 0.0359181874, -0.0742052570, 0.0023818493, 0.0685441494, -0.0716098696, 0.0562859252, 0.0407345556, 0.0381678827, -0.0704485700, -0.0292476546, 0.0815104321, -0.0424024239, 0.0374122709, 0.0524399951, 0.0460053273, -0.0166120287, 0.0218796227, 0.0375532359, 0.0392258205, -0.0097007565, 0.0172736887, -0.0825485662, 0.0157510266, -0.0254560150, -0.0087859593, -0.0830106661, 0.0646099970, 0.0761538148, -0.0473019592, -0.0033000642, 0.0129719917, 0.0768582970, 0.0810209215, 0.0729754195, 0.0615302622, -0.0223628562, -0.0227748323, -0.0450472943, -0.0751428008, 0.0612876751, 0.0651737750, 0.0378935635, -0.0596200638, -0.0123707326, 0.0654183477, 0.0371034183, 0.0775518715, -0.0252915453, 0.0758245960, -0.0331510641, 0.0287536941, -0.0461866260, 0.0013950894, 0.0806936771, -0.0090385722, 0.0739766359, 0.0362365507, 0.0733171478, -0.0192620493, -0.0792062655, -0.0811342001, -0.0682585388, 0.0753271952, -0.0262212846, 0.0768284947, 0.0758233592, 0.0649962127, -0.0655063689, -0.0772606879, -0.0016809718, -0.0770481080, 0.0397458188, 0.0399103053, 0.0489770509, -0.0439612679, -0.0737303197, 0.0082097445, -0.0354703479, 0.0632484481, 0.0045831869, -0.0109282285, -0.0665788278, 0.0571216270, -0.0116512291, -0.0798703134, -0.0667704269, 0.0249225348, 0.0031027042, 0.0268687457, 0.0806557685, -0.0336575620, 0.0284704026, -0.0183886681, 0.0328489095, 0.0222383328, 0.0632103160, -0.0589858331, 0.0472314097, 0.0445055142, 0.0229839720, 0.0279399157, -0.0467518605, -0.0229853839, 0.0115777869, -0.0094894292, -0.0521169901, -0.0203118790, 0.0425970927, -0.0252970792, -0.0266976804, 0.0577540472, -0.0751880109, 0.0451964065, 0.0797432661, -0.0303729437, -0.0019839506, -0.0597018711, 0.0554783456, 0.0549863428, -0.0451489314, 0.0327038541, -0.0625993609, 0.0761211216, 0.0494827814, -0.0344116688, 0.0352474302, 0.0456548743, -0.0281619802, -0.0052235462, -0.0807972848, 0.0712360367, 0.0514472239, 0.0558757782, -0.0539445542, 0.0786012188, -0.0521225631, 0.0181058738, 0.0314867049, -0.0085696746, -0.0637898445, -0.0282054823, -0.0528111905, -0.0294165239, 0.0815129578, 0.0306339432, -0.0374122597, 0.0780218169, -0.0731341690, -0.0002693819, 0.0159921348, -0.0381239243, -0.0615922511, 0.0735231787, 0.0501459427, 0.0149296075, 0.0505720526, -0.0825586617, 0.0574174449, 0.0296887271, 0.0500995815, 0.0054140617, 0.0155954976, -0.0071896059, 0.0568065010, -0.0254809298, -0.0609149076, 0.0574115030, -0.0429478511, -0.0325069390, 0.0586281382, 0.0810382739, 0.0193651058, 0.0742909312, 0.0607807487, -0.0006740855, 0.0670233518, -0.0199262798, 0.0409681760, 0.0380747020, -0.0650941059, -0.0784254223, 0.0803651065, 0.0415247008, -0.0074143736, -0.0076935701, -0.0583219528, 0.0185879245, 0.0433307923, 0.0207459386, 0.0603832379, -0.0237643030, 0.0111955944, 0.0720504150, -0.0724161789, -0.0733370930, 0.0027814766, 0.0189030413, -0.0604172312, 0.0131040365, -0.0383830816, 0.0732310265, 0.0295756385, 0.0458481610, 0.0429997481, -0.0568073355, 0.0463927872, -0.0068548773, -0.0196347144, 0.0498318970, 0.0814152360, 0.0071128751, -0.0416315608, 0.0502305180, 0.0299796853, -0.0782526061, -0.0595042706, 0.0507280976, -0.0701073110, 0.0500197820, -0.0600303598, 0.0181921218, -0.0404964760, -0.0507574938, -0.0593736395, -0.0378437825, -0.0049974471, 0.0017015353, -0.0697352588, 0.0820836127, -0.0564077869, 0.0453479923, -0.0337937102, -0.0236396492, -0.0412530638, -0.0573097207, -0.0802337825, -0.0124795316, -0.0284134131, -0.0055992622, -0.0491555259, -0.0140022039, 0.0727206320, 0.0410804898, -0.0039259498, -0.0334383957, -0.0368329324, 0.0644279197, 0.0393106751, 0.0379552133, 0.0625870377, 0.0211188029, 0.0811148509, -0.0353486054, -0.0429563373, -0.0228735860, 0.0499472506, -0.0362223350, 0.0821299925, 0.0670002922, -0.0503914021, 0.0446874946, -0.0051916479, 0.0394243412, 0.0639388561, 0.0812932625, 0.0307859331, -0.0204941314, -0.0549895205, -0.0558084659, 0.0468329042, -0.0327700526, -0.0734449998, 0.0252111182, 0.0616408773, -0.0833105072, 0.0073744985, 0.0740464479, -0.0442081094, 0.0598299131, 0.0756179169, -0.0381891131, -0.0144779757, 0.0530709773, -0.0357767940, 0.0362977572, 0.0744121447, 0.0759013072, 0.0512559228, 0.0788489729, 0.0176870339, -0.0156193692, 0.0556540675, -0.0484345220, -0.0522027984, 0.0180568490, -0.0268373750, -0.0515684411, 0.0224104412, -0.0406179763, 0.0190353338, 0.0027236305, 0.0277813282, -0.0822556093, -0.0597447567, 0.0164630096, 0.0283990391, 0.0346306898, 0.0453086905, 0.0068190950, 0.0460976735, -0.0126754306, -0.0043422063, 0.0330142938, 0.0540474840, 0.0409693383, -0.0287468694, 0.0463482328, 0.0620312281, 0.0476935506, 0.0401482061, 0.0281502083, 0.0212931074, 0.0339253545, 0.0532239005, 0.0249916967, 0.0731915757, -0.0169319548, -0.0751996636, 0.0146291917, -0.0221033692, 0.0750330389, -0.0154467346, 0.0260533988, 0.0161519945, 0.0551026687, -0.0231123418, 0.0522498675, 0.0829556137, -0.0269826781, -0.0432786979, -0.0781668499, 0.0281907897, -0.0677873194, 0.0620887093, 0.0451581515, -0.0695649460, -0.0688890368, -0.0138324806, -0.0167186614, 0.0382576995, -0.0477848351, 0.0248580929, -0.0418245122, 0.0555516593, 0.0712486506, 0.0177927520, -0.0462197252, -0.0544943698, -0.0190765020, -0.0357523561, 0.0002332517, -0.0450964011, -0.0690847710, 0.0781783536, 0.0580102094, 0.0513618812, -0.0771306753, -0.0338620543, 0.0768575296, -0.0338381939, 0.0547694601, 0.0134524927, 0.0455571227, 0.0524335876, 0.0274975915, 0.0358573720, 0.0527639724, 0.0614732020, -0.0719104335, 0.0638661608, -0.0448342636, -0.0468181521, 0.0659329444, -0.0042805956, 0.0482192896, -0.0802199841, -0.0076628942, 0.0312631764, 0.0375634283, -0.0598685443, 0.0004168331, 0.0347000994, 0.0659615248, 0.0591353439, 0.0194953121, -0.0568713993, 0.0767054260, -0.0177541189, 0.0531762578, 0.0533015430, -0.0402654484, -0.0062700696, -0.0078705959, 0.0265675057, 0.0314879641, 0.0289390832, 0.0717049092, 0.0070841853, -0.0289575197, 0.0569632873, 0.0733474642, 0.0519908667, -0.0367339030, 0.0360433273, 0.0312630460, -0.0789502114, -0.0588158704, -0.0292817373, 0.0729668885, -0.0434957594, 0.0583340898, 0.0723389238, 0.0396093540, -0.0484786592, 0.0761314929, 0.0044732071, -0.0532416813, -0.0312138535, -0.0224170964, -0.0314699337, -0.0378093235, 0.0293927919, -0.0348737501, 0.0038834019, -0.0580117591, -0.0493110642, -0.0786098167, -0.0238771345, 0.0108658532, 0.0074559576, 0.0786929503, 0.0410945453, 0.0290279128, -0.0343331285, 0.0455318019, -0.0043310304, -0.0652780384, -0.0365047716, -0.0385927707, 0.0351437479, 0.0372901894, -0.0281848684, -0.0681909099, 0.0592071526, -0.0041214721, -0.0634737387, -0.0256162398, 0.0227272976, -0.0491749197, -0.0722404942, 0.0146099590, 0.0394697599, 0.0822460279, -0.0501915216, -0.0494937412, -0.0138457129, 0.0645825863, 0.0671777204, 0.0362098403, 0.0304319430, 0.0272454452, -0.0310150143, -0.0410210043, -0.0247388948, 0.0445808731, -0.0299015753, -0.0016536730, 0.0332375206, -0.0657215565, -0.0539465211, 0.0045908862, 0.0538752005, 0.0779335424, 0.0731494278, 0.0718092620, 0.0591197759, -0.0505237728, -0.0484542437, -0.0408735722, -0.0399840772, -0.0600408986, -0.0508431643, 0.0049597477, -0.0305050481, -0.0461076088, -0.0073562893, -0.0419546068, -0.0268323869, 0.0272562932, -0.0541260205, 0.0663344637, -0.0808946788, -0.0147849685, -0.0139035583, -0.0294571836, -0.0720141456, 0.0263386443, 0.0694223270, 0.0426434241, -0.0511967055, 0.0146702193, 0.0586584173, -0.0326197892, 0.0416104421, 0.0051088077, 0.0717554837, -0.0362875424, 0.0045728260, 0.0294368099, -0.0459738970, -0.0466820449, -0.0461201444, 0.0276678726, -0.0371410698, 0.0596759841, 0.0269897711, 0.0010225921, 0.0188523177, 0.0770273209, 0.0102313543, -0.0194325075, -0.0792915076, -0.0786589459, 0.0651624203, -0.0690363348, -0.0115376730, 0.0345446765, 0.0798139051, -0.0667389557, 0.0129906088, 0.0148736890, -0.0396165773, 0.0158029012, 0.0009553981, -0.0821039453, -0.0407380797, 0.0196854789, 0.0594309494, -0.0799203590, 0.0158173144, -0.0118727088, 0.0355730169, -0.0397167914, -0.0189265553, 0.0133238863, 0.0023503385, 0.0050723995, -0.0476720259, -0.0825994909, -0.0176499709, -0.0435439460, -0.0674773529, -0.0513756014, -0.0252838656, -0.0422609113, 0.0492968708, -0.0605185218, -0.0005896459, -0.0197540633, -0.0795235261, 0.0450453684, -0.0275588743, -0.0373688973, 0.0419886410, -0.0023074432, -0.0580797680, -0.0187133513, -0.0093731219, -0.0312638208, -0.0764811411, -0.0209672209, 0.0159924533, 0.0515537076, 0.0438288040, 0.0443402678, -0.0028857943, 0.0473139398, -0.0353688225, 0.0525418185, -0.0238223672, -0.0304671898, 0.0827502012, -0.0314824805, -0.0765693560, -0.0299745295, -0.0480789207, -0.0243151281, -0.0427847542, -0.0135351634, -0.0777575970, -0.0021440280, 0.0678746253, -0.0577691086, 0.0198096447, -0.0061977296, 0.0783996060, -0.0226096176, 0.0608809330, -0.0595626533, 0.0189227816, -0.0016474542, 0.0551456735, 0.0675347373, -0.0082082041, 0.0554608889, -0.0176622998, -0.0270441305, 0.0726411119, 0.0136564197, 0.0003373805, 0.0435086414, 0.0224304181, -0.0021012123, 0.0244648028, 0.0177452378, -0.0352600366, 0.0667027980, 0.0149623305, -0.0466363095, -0.0261332691, -0.0487672612, 0.0522614419, -0.0488881320, -0.0562526546, 0.0499442928, -0.0565209240, -0.0521852560, 0.0046229428, -0.0606817529, 0.0551989004, 0.0672313496, 0.0759094954, -0.0719755217, -0.0694552734, -0.0113512408, -0.0671583340, 0.0061603580, 0.0715593845, -0.0609069094, -0.0342704952, 0.0424686335, 0.0666179135, -0.0314409770, 0.0598451421, 0.0702869669, 0.0703339800, -0.0079015698, -0.0394274220, -0.0618297644, 0.0576616861, -0.0601936243, -0.0612330288, -0.0284680482, -0.0462818742, -0.0461843908, -0.0379440971, -0.0191124436, -0.0093600089, 0.0590031408, -0.0072851614, 0.0169044603, 0.0637083352, -0.0520866103, 0.0269630700, 0.0633767769, -0.0618912391, -0.0187997576, 0.0732275695, 0.0732336119, 0.0467263199, -0.0672660992, 0.0701945648, -0.0185663365, 0.0750576928, 0.0245012306, -0.0704025626, 0.0668270960, 0.0530855209, 0.0430350527, -0.0004049221, -0.0017917663, 0.0504940115, -0.0464658216, -0.0198209491, -0.0582544506, 0.0065909694, 0.0656082183, -0.0068933023, -0.0360976048, -0.0166973937, 0.0223729201, 0.0457156226, 0.0327106267, -0.0522313192, 0.0816168785, 0.0630926862, -0.0043945792, -0.0788777918, -0.0344087258, -0.0652429461, -0.0493775457, -0.0102091422, -0.0577924624, -0.0519092679, 0.0103489039, -0.0172818042, -0.0227410365, 0.0680924952, 0.0027041002, -0.0089043826, -0.0789356679, 0.0688182712, -0.0687833801, -0.0201790817, 0.0613743886, -0.0625628307, -0.0392107107, -0.0406077057, 0.0753990337, -0.0031929950, -0.0309351832, 0.0750716031, -0.0535874479, -0.0444642976, 0.0055323765, 0.0803888738, 0.0523499735, 0.0274552424, 0.0074552819, -0.0359378085, -0.0041224854, 0.0083878022, 0.0301782675, 0.0467726626, -0.0523919463, 0.0444834083, -0.0053801266, -0.0154504403, -0.0301770363, -0.0648873076, -0.0527108163, 0.0818133280, -0.0259917378, -0.0561845265, -0.0593444109, 0.0610432364, 0.0190745238, 0.0648661852, -0.0092564858, 0.0170677546, -0.0226601716, 0.0082979677, 0.0091707949, -0.0177311599, -0.0742269009, 0.0276655965, 0.0797347575, -0.0021320377, 0.0125758117, -0.0166733321, -0.0500024073, 0.0435925238, 0.0241048317, 0.0448053330, -0.0035296602, -0.0539151840, -0.0484052971, 0.0217681434, 0.0150711881, 0.0359046683, 0.0449195355, -0.0160602722, 0.0615506768, -0.0586732477, -0.0419475138, -0.0012894209, -0.0083593111, 0.0563968793, 0.0633313358, -0.0398605242, 0.0450803973, -0.0708895922, 0.0309734195, -0.0675852373, -0.0035019938, 0.0373994745, -0.0399561711, -0.0031627459, 0.0405570231, -0.0253520235, -0.0414579324, 0.0544275828, 0.0051292325, 0.0298206713, 0.0169418696, 0.0747246444, -0.0737282038, 0.0363844112, -0.0637279674, -0.0443806015, 0.0524254441, 0.0740039796, -0.0555740707, -0.0725220814, -0.0456053652, -0.0400596634, -0.0132957539, 0.0363713764, 0.0205358732, 0.0134576485, 0.0632559583, -0.0491294488, 0.0833091289, -0.0275337622, -0.0052908892, 0.0237140767, -0.0587771982, -0.0406479873, -0.0817505345, 0.0303554498, -0.0486521907, 0.0127537008, -0.0280377064, 0.0173187777, -0.0564769059, -0.0768786818, -0.0312787034, -0.0245772675, -0.0048812288, 0.0160805676, 0.0274172053, -0.0629534274, 0.0569896623, -0.0561103821, 0.0773408338, -0.0658065081, 0.0112306811, 0.0494034439, 0.0711546987, 0.0099310484, 0.0000798897, -0.0242211614, 0.0121966489, -0.0825133994, -0.0598231554, -0.0751995221, -0.0206379574, 0.0735254809, 0.0179169886, 0.0271747950, 0.0040060878, 0.0195087325, 0.0483866818, 0.0453985967, 0.0464100018, -0.0691823214, -0.0448924154, 0.0792146474, 0.0810655653, -0.0440801196, 0.0006634262, 0.0516530797, -0.0428159162, -0.0622132383, -0.0508343428, 0.0399215408, -0.0507221892, -0.0739351809, -0.0611074194, -0.0380190797, -0.0603195690, 0.0740848482, 0.0613715500, -0.0430903472, -0.0746871382, 0.0192308165, 0.0166777428, -0.0291889459, 0.0293275341, -0.0355419032, 0.0040963683, -0.0695922077, 0.0758180544, 0.0230074264, 0.0171124674, -0.0694848597, 0.0512717180, -0.0261049159, -0.0259621032, -0.0791170225, -0.0009246522, -0.0039079292, -0.0289652981, -0.0533625297, -0.0355809852, 0.0150394682, 0.0564445332, -0.0194997415, 0.0338886753, -0.0394943580, 0.0602244809, -0.0051619550, 0.0755243525, -0.0065913168, -0.0512766168, 0.0103425756, -0.0825642943, -0.0423892215, 0.0718226656, -0.0333296396, 0.0416500382, 0.0484089516, -0.0517592020, -0.0444589034, 0.0343580432, -0.0615204275, -0.0808858350, 0.0803649798, 0.0039106314, -0.0152200293, -0.0735816434, -0.0575871877, -0.0619480908, 0.0288228150, -0.0111638345, -0.0043598493, -0.0441323109, -0.0713757575, 0.0422577150, -0.0104945479, 0.0595768988, 0.0263928045, -0.0334877484, -0.0813469887, -0.0352523886, -0.0528176390, 0.0114544947, 0.0717533380, 0.0144159468, -0.0471259691, -0.0045766006, -0.0419154279, -0.0343256593, 0.0102858534, -0.0254909303, 0.0776431113, 0.0371558703, 0.0659000799, 0.0034969274, -0.0577377751, 0.0363754816, 0.0146288136, -0.0481928475, -0.0688556731, 0.0033517412, 0.0688435286, 0.0173030719, 0.0603537448, -0.0281348806, -0.0387792550, 0.0440164804, -0.0343948491, -0.0521202162, -0.0327906758, -0.0245813988, -0.0414079726, -0.0247390233, 0.0406549834, -0.0239088740, -0.0698628426, 0.0818241239, -0.0384497903, -0.0041932752, 0.0506357513, -0.0318783931, 0.0461696163, 0.0385938138, 0.0565096885, -0.0690203905, 0.0548435487, 0.0295075495, -0.0764675140, -0.0801092759, -0.0036061821, -0.0563630313, 0.0004844939, -0.0362544842, 0.0067336126, 0.0125989784, -0.0731206387, 0.0205674935, -0.0735671371, -0.0515421443, 0.0553726107, 0.0082888389, 0.0427015610, 0.0645858869, -0.0511880927, -0.0828237236, -0.0629626065, -0.0049413694, -0.0109693659, -0.0510460772, 0.0822895765, -0.0312555060, 0.0055726687, -0.0412416607, 0.0245207418, 0.0216640159, 0.0548281297, 0.0298589282, -0.0268661231, 0.0199400373, -0.0801454931, -0.0029762934, -0.0315546729, 0.0534163117, 0.0655904412, 0.0398527570, 0.0014407861, -0.0202683508, 0.0272097029, -0.0338133909, 0.0686462373, 0.0497712009, 0.0661314353, -0.0656068474, 0.0261183679, 0.0689824522, -0.0575015880, 0.0280676782, -0.0078083482, 0.0264423061, 0.0681890100, 0.0658758506, 0.0043891747, -0.0318680704, 0.0756933317, -0.0769547224, 0.0584799200, -0.0806731284, 0.0043215440, 0.0437194593, -0.0632631406, 0.0204676669, 0.0020582872, -0.0606544465, 0.0614274032, 0.0095566837, 0.0763602033, 0.0515924729, -0.0716406852, -0.0684553683, 0.0264009107, -0.0649246499, -0.0015803298, 0.0024730938, -0.0736503229, 0.0374045223, -0.0146948360, -0.0764886811, 0.0264808014, 0.0778581351, -0.0757112280, 0.0818239525, -0.0669617280, 0.0472082831, 0.0558627546, -0.0568122640, 0.0578504801, 0.0530454479, -0.0443448275, -0.0247672256, -0.0085773338, -0.0422360189, -0.0415386483, 0.0294309482, 0.0059133670, 0.0559140928, 0.0732268468, 0.0085877152, -0.0301479679, 0.0551785566, 0.0636519790, 0.0446930006, -0.0040790830, -0.0261430927, 0.0091647450, -0.0034555024, -0.0606685430, -0.0390262268, 0.0250675138, -0.0819928125, -0.0442706496, 0.0025406850, -0.0822012722, 0.0122361165, 0.0523856282, 0.0395455882, -0.0702733174, 0.0476854853, 0.0354007185, -0.0089680701, 0.0059615076, -0.0549325496, 0.0339251831, 0.0392076708, 0.0233938321, -0.0439499021, -0.0571365692, -0.0654176027, 0.0515823476, -0.0701921582, -0.0655514449, 0.0244799722, 0.0331327729, -0.0677154958, 0.0122350538, 0.0561364703, -0.0357319526, 0.0399899073, 0.0507794395, 0.0809221342, 0.0145412255, 0.0108395778, -0.0152674057, -0.0276657660, 0.0179479327, 0.0009937634, 0.0637800694, -0.0688170344, -0.0699880943, -0.0756390169, -0.0643058494, -0.0284022670, -0.0222863927, 0.0739314631, 0.0013228093, 0.0064749988, 0.0788232461, 0.0103158941, -0.0381160676, 0.0152087938, -0.0345409214, -0.0046439338, -0.0023146255, -0.0295692701, 0.0085240277, -0.0576152913, 0.0643873811, 0.0035040502, 0.0118474364, 0.0417937562, 0.0144818099, -0.0683061332, 0.0132973930, -0.0706695616, -0.0021848271, 0.0036598956, -0.0471378826, 0.0700457096, -0.0449071899, 0.0568987094, 0.0331156366, -0.0183745418, -0.0730076209, 0.0254821014, -0.0719941705, -0.0236433260, 0.0044486201, 0.0466584116, 0.0659675524, 0.0724637434, -0.0082445927, -0.0380083807, 0.0305605698, 0.0146258138, 0.0585567690, 0.0381774008, 0.0771233067, 0.0153928129, 0.0006512669, 0.0732272342, -0.0498571880, 0.0467663668, 0.0211596526, -0.0542938784, -0.0416134894, 0.0554005131, 0.0105128456, 0.0756494775, -0.0104327276, -0.0715008378, -0.0698466673, -0.0821302161, 0.0277424362, -0.0345345736, -0.0403493531, -0.0001072282, 0.0164780896, 0.0347113572, 0.0172172636, -0.0024033764, -0.0371463932, 0.0121473763, 0.0201182757, -0.0050370544, 0.0441994481, 0.0207959265, -0.0138750672, -0.0692211315, -0.0714005828, -0.0083828252, -0.0175480973, -0.0189033393, -0.0058701145, -0.0211770367, -0.0469300710, -0.0164937750, -0.0295636486, -0.0201957617, -0.0385816768, 0.0429529101, -0.0332185738, -0.0345331915, 0.0562368594, -0.0231740419, 0.0255128350, -0.0615459681, -0.0035570883, -0.0583564714, -0.0510802008, 0.0395430662, 0.0823044255, -0.0761983693, 0.0711170137, -0.0699311197, -0.0544871055, -0.0009592028, 0.0208013803, -0.0221367553, 0.0333723351, -0.0518256426, 0.0360321626, -0.0140803643, 0.0293402392, -0.0222513266, -0.0332903601, -0.0455458090, -0.0677749664, -0.0575366840, 0.0650820136, 0.0053723585, 0.0784720629, -0.0605609901, -0.0655124709, 0.0728203133, -0.0299902149, -0.0297238640, 0.0760056898, 0.0110768713, -0.0156282000, -0.0600140654, 0.0308109373, -0.0378919430, 0.0048558968, 0.0125734974, 0.0720912814, -0.0790423602, -0.0592462420, 0.0362744220, 0.0700296387, 0.0329803787, -0.0525041670, -0.0804096237, -0.0563881658, -0.0434650630, -0.0643617138, -0.0217546336, -0.0055847089, 0.0713935345, -0.0726967603, 0.0749765113, 0.0485083237, 0.0255745370, 0.0237245467, -0.0055346210, -0.0386244915, -0.0361458436, -0.0354087651, 0.0189273208, 0.0593808293, -0.0818022415, -0.0177156832, -0.0370196328, 0.0029627830, -0.0320954919, -0.0236870944, -0.0467385985, 0.0237868931, 0.0120729497, 0.0766384304, -0.0193482172, -0.0679636970, 0.0042697773, -0.0724122301, 0.0431425311, -0.0058370139, 0.0680780560, -0.0030344871, -0.0655216202, 0.0572888367, -0.0033732185, 0.0189055856, 0.0595820062, -0.0196400397, 0.0670097545, 0.0244640578, -0.0460261405, -0.0097026937, 0.0045304471, 0.0010780341, 0.0030036815, -0.0647699535, 0.0440200269, 0.0643498972, -0.0812664330, -0.0162456613, -0.0712259114, 0.0830365866, -0.0445083156, -0.0237258188, 0.0676216036, -0.0823492110, 0.0283627994, -0.0042334781, -0.0510552935, 0.0331383981, -0.0724787265, -0.0600957051, 0.0050135599, 0.0232900307, 0.0702280998, 0.0390581749, 0.0307488292, -0.0374311842, -0.0061248038, -0.0532534532, -0.0406702720, -0.0002428976, 0.0813955143, 0.0282458737, -0.0202744007, 0.0114435479, 0.0134830698, -0.0649154633, -0.0500466041, -0.0056693172, -0.0236130580, 0.0477922261, -0.0719096884, 0.0783215016, 0.0556030981, -0.0478662252, 0.0222824197, 0.0475858748, -0.0347510315, 0.0417375490, 0.0252584647, 0.0736624748, 0.0433630198, 0.0548322238, -0.0661988109, -0.0223239940, -0.0682082027, 0.0405325368, -0.0631859079, 0.0584732257, -0.0122876251, -0.0581413805, -0.0826919973, -0.0674359575, 0.0210563876, -0.0063560489, 0.0410913862, -0.0519141033, 0.0359847061, 0.0377928317, 0.0515589342, 0.0135096330, -0.0658355653, 0.0443606637, 0.0267896708, 0.0480522998, 0.0800751597, -0.0817938149, -0.0261331797, -0.0703748688, -0.0080870586, 0.0790130645, 0.0418674760, 0.0789531991, 0.0544778369, -0.0715936348, -0.0316770375, -0.0722234175, -0.0530928113, 0.0273541138, 0.0819871202, -0.0356037728, 0.0307068080, -0.0233392250, -0.0174102802, 0.0220429897, -0.0148911430, 0.0326961130, -0.0752648786, 0.0205916148, -0.0420981012, -0.0560972691, -0.0661438331, -0.0703938380, -0.0025193766, 0.0378387570, 0.0503702015, 0.0634898320, -0.0069036735, 0.0534182787, -0.0179902520, 0.0358652994, -0.0244537070, -0.0295634586, -0.0643662140, -0.0407931358, 0.0557397492, -0.0045109564, -0.0706525147, 0.0590589605, -0.0489358753, -0.0675376728, 0.0716153830, -0.0111111943, 0.0522438064, 0.0779798627, 0.0426930264, -0.0120322397, 0.0144193443, -0.0266644508, -0.0130126029, -0.0303423367, 0.0402844325, 0.0678677410, 0.0372222103, -0.0016107877, -0.0594993830, -0.0204456225, 0.0004295884, -0.0664159730, 0.0571221635, 0.0799231082, 0.0509981029, 0.0285176896, 0.0336756334, 0.0700083673, -0.0427536629, 0.0608768798, 0.0088417679, 0.0460833013, -0.0372906774, 0.0055056736, 0.0351780020, 0.0060369270, 0.0290303677, -0.0685828328, 0.0734628960, 0.0722229108, -0.0241789706, 0.0147405127, -0.0706181601, 0.0732956007, 0.0774439126, 0.0056958315, -0.0624132007, -0.0012271542, 0.0248387810, 0.0348704122, 0.0441069491, -0.0753778443, 0.0831789002, -0.0123009467, -0.0673413053, 0.0268523656, 0.0148630990, 0.0572665147, 0.0721769109, -0.0190725774, 0.0775474310, 0.0140768774, 0.0557800047, 0.0258791931, -0.0053351158, -0.0001665544, -0.0326536559, 0.0144484416, 0.0600022450, -0.0597213618, 0.0487472266, -0.0617187023, 0.0002563583, 0.0397019424, -0.0665538386, -0.0418108925, 0.0796291977, 0.0154768554, 0.0474155471, 0.0751330405, 0.0567472950, -0.0714736879, -0.0285287369, 0.0274700150, -0.0083043063, -0.0298208501, 0.0238597095, -0.0357971899, -0.0573575310, -0.0751954392, -0.0572320856, -0.0136423530, 0.0265469924, 0.0390362889, 0.0512674972, 0.0613338277, 0.0320123844, -0.0697657540, -0.0686156824, 0.0635806322, -0.0290239304, 0.0711861849, 0.0378434062, -0.0188115686, -0.0808756799, -0.0453828685, -0.0034377205, -0.0023803196, -0.0068637882, -0.0046195453, 0.0107774697, 0.0053577553, 0.0490752980, 0.0822259113, 0.0055373828, -0.0624853037, -0.0126200188, -0.0234278161, 0.0219311025, 0.0530833043, 0.0223200899, 0.0709593222, -0.0304655507, -0.0229989439, 0.0721224844, 0.0295597836, -0.0184795130, -0.0256599393, 0.0828767568, -0.0142183788, -0.0745832175, 0.0310833193, -0.0726948157, 0.0027737776, 0.0700776652, 0.0832612067, -0.0284714662, 0.0097960839, 0.0559664257, -0.0287813302, -0.0197908096, 0.0276591796, -0.0250943843, 0.0233994443, -0.0421205834, -0.0500331335, 0.0479307584, 0.0179351475, 0.0652221739, 0.0635966882, -0.0154349925, 0.0210981797, 0.0353215598, 0.0299049523, 0.0208386239, 0.0302886255, 0.0390898921, -0.0747403800, 0.0340315402, -0.0670351312, -0.0245403722, 0.0138037317, 0.0453965403, 0.0378675647, 0.0502891093, 0.0453380272, -0.0466772877, 0.0126359826, -0.0133846030, 0.0623973161, -0.0727947727, 0.0432609655, -0.0073571038, 0.0615675151, 0.0385892056, 0.0380745344, -0.0287011024, -0.0601440445, 0.0497608073, -0.0783576146, -0.0042780126, 0.0181940179, 0.0818086267, 0.0117170522, -0.0410334021, -0.0200886820, 0.0015947937, -0.0457036830, -0.0323977023, -0.0365980230, -0.0764211491, -0.0204962473, -0.0010485697, -0.0450165197, 0.0206691287, 0.0686139539, 0.0314663872, -0.0270317327, 0.0178135149, -0.0107863601, 0.0657955557, -0.0659798011, 0.0242343135, -0.0538887307, -0.0637004972, -0.0258203857, 0.0393580720, 0.0055513699, -0.0797756985, -0.0291320421, -0.0185231138, 0.0039808354, -0.0548380837, -0.0297301412, 0.0132404109, -0.0058071129, -0.0115077812, -0.0743535012, 0.0106702810, 0.0204527844, 0.0791689232, -0.0504717790, -0.0697184503, -0.0373576507, 0.0546965525, 0.0110907396, -0.0672884062, -0.0497347899, -0.0301067922, 0.0606263839, 0.0392938890, 0.0136494059, -0.0620919168, 0.0377885886, 0.0261134990, 0.0547747165, -0.0607346147, 0.0755133107, 0.0308342427, -0.0527463518, 0.0549186096, -0.0282716136, -0.0651667267, 0.0314527974, -0.0186952725, -0.0593954027, -0.0023991445, 0.0092477435, 0.0333345160, -0.0215208158, -0.0111923655, -0.0112228235, 0.0432670265, -0.0637388900, -0.0101036625, -0.0597684011, -0.0096394038, -0.0768894255, -0.0266917497, 0.0327586085, 0.0031310562, 0.0303023849, -0.0062153623, -0.0779031962, 0.0455708839, -0.0674091652, 0.0604171120, -0.0233097598, -0.0443880521, -0.0256254189, 0.0389571935, -0.0567266718, 0.0616378486, -0.0237722602, 0.0023251160, 0.0138240270, 0.0250808746, -0.0495277941, 0.0776502937, 0.0807431713, 0.0245565437, 0.0100379782, 0.0359929428, -0.0649678111, 0.0000853534, 0.0320441313, 0.0022503226, -0.0177062955, 0.0343990698};

#endif

#endif
