//Numpy array shape [3, 3, 16, 16]
//Min -0.083272419870
//Max 0.083283632994
//Number of zeros 0

#ifndef W16_H_
#define W16_H_

#ifndef __SYNTHESIS__
cell_edges_5_op_1_weight_t w16[2304];
#else
cell_edges_5_op_1_weight_t w16[2304] = {0.0459794775, 0.0460016914, 0.0372525193, 0.0055751125, -0.0806671381, 0.0128791193, -0.0131763062, -0.0625198260, -0.0170582384, -0.0022098410, -0.0240621548, 0.0652097091, 0.0395229794, 0.0771006271, -0.0635500550, -0.0813327804, 0.0322732814, 0.0447516516, 0.0455314033, 0.0054877326, -0.0574535653, -0.0630940944, 0.0129539911, -0.0262070894, -0.0728500560, 0.0417570882, -0.0551773459, 0.0522212274, 0.0756528676, 0.0021028116, -0.0159494486, 0.0655344576, -0.0649092346, 0.0801725984, -0.0063290577, 0.0555152111, -0.0319351740, 0.0051668226, -0.0435044914, -0.0005837153, -0.0012346444, -0.0190947298, 0.0413955450, -0.0785945579, 0.0616043322, -0.0548747815, 0.0150874602, 0.0058389609, -0.0157264993, 0.0442811511, 0.0403027311, -0.0649920031, -0.0543284677, 0.0593979359, -0.0792974606, 0.0707768425, 0.0292230565, 0.0160997715, -0.0363633707, 0.0241944082, -0.0600376390, 0.0243090373, 0.0046911109, -0.0012632844, 0.0295015108, -0.0769741461, -0.0361283980, 0.0587675124, 0.0759642422, -0.0297491457, 0.0400829799, 0.0529277176, -0.0259030648, 0.0532421470, -0.0275435969, -0.0446506999, 0.0519581325, 0.0178502109, 0.0695478097, 0.0463682003, 0.0392078087, 0.0719960853, -0.0463086851, -0.0234895777, 0.0043831547, 0.0162533410, -0.0332274847, -0.0582705140, -0.0427738093, -0.0726363808, 0.0012865798, -0.0241100881, 0.0220510568, 0.0121000996, -0.0010108104, 0.0284529105, 0.0334342830, -0.0228748880, -0.0358503573, 0.0068591293, 0.0091739437, -0.0518535748, 0.0742461160, 0.0224686339, 0.0203477312, 0.0246191993, -0.0731333271, -0.0661228299, -0.0334976539, 0.0377320834, 0.0465187170, -0.0580862164, -0.0387067348, 0.0133898482, -0.0472481363, -0.0328345075, 0.0696225688, 0.0222714134, 0.0674435869, 0.0146822101, -0.0691829696, 0.0594795048, -0.0432686061, -0.0334031023, 0.0663246959, -0.0113446349, -0.0596878231, 0.0655355975, -0.0418758802, 0.0827920586, -0.0215101950, -0.0030794488, -0.0131581267, -0.0015644254, 0.0482431129, -0.0116392085, 0.0500859916, 0.0229001679, -0.0325675383, 0.0729845390, 0.0020157695, -0.0654627383, 0.0366859697, 0.0652862489, -0.0568084978, -0.0626561046, -0.0469380468, -0.0534264445, -0.0674371198, -0.0265779477, -0.0325701386, -0.0037890286, -0.0470815338, -0.0350167304, 0.0736323521, -0.0785115212, -0.0680344701, -0.0602762587, -0.0644827783, 0.0541180260, 0.0313053578, -0.0316200703, -0.0720654428, 0.0331546478, 0.0162563510, -0.0645083115, 0.0159607437, -0.0083801029, 0.0331214890, 0.0753353611, -0.0498320349, 0.0167077146, -0.0797198191, -0.0515616052, 0.0799544752, -0.0812456012, -0.0375395156, -0.0773880407, 0.0116532855, 0.0546905845, -0.0178765859, -0.0466425866, 0.0470001064, 0.0464342237, -0.0667956248, 0.0103299497, 0.0071818274, -0.0394890122, 0.0773630366, -0.0645799413, 0.0273159984, 0.0457251780, -0.0676666722, 0.0355805680, 0.0129469875, -0.0095610442, 0.0263902824, 0.0006483761, -0.0724358484, -0.0458785594, -0.0808657184, 0.0264686421, -0.0282160714, -0.0594403148, 0.0123681212, -0.0453846082, 0.0188355502, 0.0420481935, -0.0685353130, -0.0492747054, -0.0615964420, -0.0772566944, 0.0233604629, -0.0579407513, 0.0425273441, 0.0484105609, 0.0225274917, 0.0095856003, 0.0044516204, -0.0415533483, 0.0287591275, -0.0624180101, 0.0082721505, 0.0103644114, 0.0710761771, -0.0507692657, -0.0374062583, 0.0039667091, 0.0012330848, -0.0086543821, -0.0233354699, 0.0239393916, -0.0111919288, 0.0787287802, 0.0660903007, -0.0710205883, 0.0406447686, -0.0108817769, 0.0765095130, 0.0088297985, 0.0732801631, -0.0201514252, -0.0184326433, -0.0712101161, 0.0677811056, 0.0694827437, -0.0351000987, 0.0005706918, 0.0651056990, 0.0417435095, -0.0319602787, -0.0440922491, 0.0237456560, -0.0605866089, -0.0268988274, 0.0034151108, 0.0683925003, -0.0792646632, 0.0496592522, -0.0768467784, 0.0370236784, -0.0534045398, 0.0291570164, 0.0408002771, 0.0218144748, -0.0497663021, -0.0786085874, -0.0546801649, 0.0537170880, -0.0725044236, 0.0266603492, -0.0193297192, 0.0710995942, 0.0198564846, 0.0439504571, 0.0117529146, -0.0776201785, 0.0455851071, 0.0644950047, -0.0805822387, 0.0229499284, 0.0775716305, 0.0758895651, 0.0663011521, 0.0221085548, 0.0089172572, -0.0612732694, -0.0148955537, 0.0415612459, 0.0264332462, 0.0202427506, 0.0625482500, 0.0427252017, -0.0333881006, 0.0042653568, 0.0791250020, -0.0688072219, 0.0762329102, -0.0631809905, -0.0345113575, 0.0256355219, 0.0748884231, 0.0706131086, -0.0766037703, -0.0342088714, 0.0226082262, 0.0372856893, -0.0160889830, -0.0397590324, -0.0400695875, 0.0133600663, -0.0814849064, 0.0084011434, -0.0720771104, 0.0328514427, -0.0580502339, 0.0614237376, -0.0785487369, 0.0428659655, 0.0751570463, 0.0106480094, -0.0507107824, -0.0332500748, -0.0396885611, -0.0240416620, -0.0152281355, 0.0342189074, 0.0327406898, 0.0633538365, -0.0139149725, -0.0563776866, -0.0238547530, 0.0370850116, 0.0532824695, 0.0346289016, 0.0661912113, -0.0756306350, -0.0549469516, -0.0109707760, -0.0595055223, -0.0812703371, -0.0514283814, -0.0327603780, 0.0268243402, -0.0324841700, 0.0718390942, -0.0324658118, -0.0789493844, -0.0463988185, 0.0772800893, 0.0452494659, -0.0144521371, 0.0194967613, 0.0139727192, 0.0830966532, 0.0327339321, 0.0624348968, -0.0576670766, 0.0544444583, 0.0203049164, 0.0724019781, 0.0021070933, 0.0554508083, 0.0082105091, 0.0112672476, 0.0524902195, 0.0051944694, -0.0732901618, 0.0794153884, -0.0240027998, -0.0345173068, -0.0350295044, -0.0207123607, 0.0160100963, -0.0031529011, -0.0229020566, 0.0143364649, 0.0383662134, -0.0808632821, 0.0389706455, -0.0557323210, 0.0661381707, 0.0068703648, 0.0037033968, -0.0097377114, -0.0737944320, 0.0630583763, 0.0484907404, -0.0259558950, 0.0411940254, 0.0635729954, 0.0830937251, -0.0592374727, 0.0431858934, 0.0581079610, -0.0155064091, -0.0572186150, 0.0553411767, -0.0769973397, 0.0608991235, 0.0694207624, -0.0652237386, -0.0361174904, -0.0435606055, -0.0683009177, 0.0068952795, -0.0251975879, 0.0717845187, 0.0704594627, -0.0806082860, -0.0729307756, -0.0720052421, -0.0268177446, 0.0049027954, 0.0483196639, -0.0621782504, 0.0212024394, -0.0185713731, -0.0410488993, 0.0823112354, 0.0550756902, 0.0252069272, 0.0022054801, -0.0589825176, -0.0401871093, 0.0497798212, -0.0378216393, 0.0474329814, 0.0518859997, 0.0220390558, -0.0676637739, -0.0173790082, -0.0660578907, -0.0583066233, -0.0464986563, -0.0287918206, 0.0639123023, 0.0391126797, 0.0194681119, -0.0329245999, 0.0796882212, 0.0272372607, 0.0089768525, 0.0209053718, 0.0240905676, -0.0156687219, 0.0540030859, 0.0289164428, 0.0137730250, -0.0365004018, 0.0108849360, 0.0760963932, 0.0087993508, -0.0218419433, -0.0483582690, -0.0348282307, -0.0471712500, 0.0632318407, -0.0440515392, -0.0498342104, -0.0680339336, -0.0086101964, 0.0073148739, -0.0130351633, 0.0659929067, -0.0592242703, 0.0497563966, 0.0482715853, 0.0407434553, 0.0464371629, -0.0476469398, 0.0778349265, -0.0093585085, -0.0753160343, 0.0425506309, -0.0549782552, 0.0456708595, 0.0765751824, 0.0697883368, 0.0007783335, -0.0538160019, 0.0751704201, -0.0280042086, 0.0379791744, -0.0732747391, 0.0433102585, 0.0338533856, 0.0169424452, 0.0410886742, 0.0427397974, 0.0341156609, 0.0736959130, -0.0116341822, -0.0744900703, 0.0773351192, 0.0109476298, 0.0738883987, -0.0640697554, 0.0613863766, -0.0542496331, -0.0248563439, -0.0730461106, -0.0683718324, 0.0576496944, 0.0574601404, 0.0254977848, 0.0418481939, 0.0820359588, 0.0012702183, -0.0245613530, 0.0312138833, 0.0634628758, 0.0050299414, -0.0545036979, -0.0600791536, 0.0034754102, 0.0759156868, -0.0799694434, 0.0549714901, 0.0458823442, 0.0605013743, -0.0319921970, 0.0533831231, -0.0304765180, -0.0355839059, 0.0488842875, 0.0668045357, 0.0090022143, 0.0276529007, -0.0664163008, -0.0454112515, 0.0583836138, 0.0555170886, 0.0284181312, -0.0010005385, -0.0570076816, -0.0332405679, 0.0348419398, -0.0598105118, 0.0237746444, 0.0808255076, 0.0330572687, -0.0357604139, 0.0712124109, -0.0132585699, 0.0104300957, 0.0805326775, 0.0353612229, 0.0434182324, 0.0686586276, 0.0102126086, 0.0437459052, 0.0030085889, 0.0131916339, -0.0716717467, 0.0263502076, 0.0355779342, 0.0177279618, 0.0689636022, -0.0033429496, -0.0597030446, 0.0472610705, -0.0442185402, -0.0444048122, -0.0328761190, -0.0332217440, 0.0065257922, 0.0118095195, -0.0285480674, -0.0408238806, -0.0578354783, -0.0343636051, -0.0519832447, 0.0243449192, 0.0733199343, 0.0643068776, 0.0659798607, -0.0644417331, 0.0643274710, 0.0365608521, 0.0375658907, -0.0159567092, -0.0247725490, -0.0554803796, -0.0581123903, -0.0070057758, -0.0777851343, 0.0228617452, -0.0163209420, 0.0749240518, 0.0233328175, 0.0501246862, 0.0554512255, -0.0572587587, -0.0422112010, 0.0723821744, 0.0545134917, 0.0297511816, -0.0535652041, -0.0651521906, -0.0795704648, -0.0365437455, -0.0516799428, 0.0760873035, 0.0528398119, 0.0759810507, 0.0682716966, 0.0596699119, -0.0629610866, 0.0002577888, 0.0779650435, 0.0563371927, -0.0636296794, -0.0428514108, 0.0562942177, -0.0582250245, 0.0045310031, -0.0795418769, 0.0316680968, 0.0436791889, -0.0826803595, 0.0456024334, 0.0085175009, 0.0356697962, 0.0584633499, 0.0712842941, -0.0350644141, 0.0756303594, 0.0735418871, -0.0153664574, 0.0072421269, 0.0036940889, -0.0510377511, 0.0475317352, -0.0542390421, -0.0549212322, -0.0490908064, -0.0644263625, 0.0084521156, -0.0218796432, -0.0408058725, 0.0211741459, 0.0737347454, 0.0378414802, -0.0449461304, 0.0831242800, 0.0193777215, -0.0080956509, 0.0830434263, 0.0474565327, -0.0335035250, -0.0791415721, -0.0160792768, -0.0828903168, -0.0160801113, 0.0656848699, 0.0471913256, -0.0033198530, -0.0289618112, 0.0449396744, 0.0473346226, 0.0070058056, -0.0753303692, -0.0366358645, 0.0784992650, 0.0015346331, 0.0591169260, 0.0357270539, -0.0304249395, 0.0782556981, -0.0251098424, 0.0138795776, -0.0223601237, -0.0180708561, -0.0135905761, 0.0537461750, 0.0536432192, -0.0193177294, 0.0443668514, 0.0159797166, 0.0094916048, 0.0803836286, -0.0285623837, -0.0590350293, -0.0414815173, -0.0489267148, 0.0599731691, 0.0820559263, -0.0788461119, 0.0655722618, -0.0683161393, 0.0451509096, 0.0503542870, -0.0175829455, -0.0591029674, -0.0195140876, 0.0422412045, -0.0780133530, 0.0305244699, 0.0244111884, -0.0432501473, -0.0304503310, 0.0374521241, 0.0607148930, -0.0767663270, -0.0218281746, -0.0365365706, 0.0077030375, -0.0531007387, 0.0767068788, 0.0107986089, -0.0448407605, 0.0701002181, 0.0423920043, 0.0232380666, -0.0251563322, -0.0523826964, 0.0021250141, -0.0828820020, -0.0076876692, 0.0190258771, 0.0632100552, 0.0199607704, -0.0297713988, -0.0349376053, -0.0832724199, 0.0582541525, -0.0697587803, 0.0038532123, 0.0774191767, -0.0492302217, -0.0512155518, 0.0756942853, 0.0440960936, 0.0603626743, 0.0204675272, -0.0537154786, -0.0009182745, 0.0276756696, -0.0635638237, 0.0351289362, 0.0265176464, 0.0732590035, 0.0832047462, 0.0468808748, 0.0564068034, -0.0518845394, -0.0668595210, -0.0665801540, 0.0359139144, -0.0237730946, 0.0605812930, -0.0124423280, -0.0057203681, -0.0347684063, -0.0762919113, 0.0488651432, 0.0655465946, -0.0259931572, -0.0575383641, -0.0117397616, 0.0683808103, 0.0272320341, -0.0185870789, -0.0514918081, -0.0637765601, 0.0662498698, -0.0478736386, 0.0468217768, 0.0523852482, -0.0454057083, -0.0475994051, 0.0595695786, 0.0640109479, -0.0634585992, 0.0698161349, -0.0679850653, 0.0461150184, -0.0105129750, -0.0153328907, 0.0444396585, -0.0200070534, -0.0315128416, -0.0338444449, 0.0269391090, 0.0104700699, -0.0754085556, -0.0713307559, 0.0033477675, 0.0256064255, -0.0418573841, 0.0358858705, 0.0255661421, -0.0151066920, -0.0668495968, -0.0179613139, -0.0067961076, 0.0100605087, -0.0140073998, -0.0491527542, -0.0535148084, 0.0721567795, 0.0721336827, 0.0696083382, -0.0589089952, 0.0678023696, 0.0098267207, -0.0587726980, -0.0205444675, -0.0750036612, 0.0410182625, -0.0045249434, 0.0324612819, -0.0556028374, 0.0539439283, -0.0117412321, 0.0749418139, 0.0249721166, -0.0002838657, -0.0039041047, 0.0010675933, 0.0350902341, -0.0556430630, 0.0788779482, -0.0594532788, 0.0300330501, 0.0765282288, -0.0267523080, 0.0153857497, -0.0473991334, 0.0744213760, -0.0180345774, -0.0168516506, 0.0644800588, 0.0225745700, 0.0055689136, -0.0372745618, 0.0697101131, -0.0087597826, -0.0014386105, -0.0482246839, -0.0394836590, 0.0330964476, -0.0469619595, 0.0001764189, 0.0076860203, -0.0151152750, -0.0084170084, 0.0051031257, 0.0343413427, -0.0096891839, 0.0225892030, 0.0298849046, 0.0121233063, 0.0118123395, 0.0627674237, -0.0723408535, 0.0283861142, -0.0430481285, 0.0236794557, -0.0277074594, -0.0407937802, 0.0138912201, 0.0731747299, -0.0477337167, 0.0073030223, -0.0134993913, 0.0164216440, 0.0045210491, 0.0748322606, -0.0075030448, 0.0157748275, -0.0566216260, 0.0800424069, 0.0016231157, -0.0006565221, -0.0342956074, 0.0146392053, 0.0052229799, -0.0309280008, 0.0814856365, -0.0403185189, -0.0014220207, 0.0132159824, 0.0796957985, 0.0670699254, 0.0207303911, -0.0630962029, 0.0697492063, 0.0077811289, -0.0425939448, -0.0608287081, -0.0659697205, 0.0572692379, 0.0510470383, 0.0782529190, 0.0652941316, 0.0560402758, 0.0327349678, -0.0404695272, -0.0578181446, 0.0226308759, 0.0100668864, -0.0344146490, 0.0092874207, 0.0208982285, -0.0283072870, 0.0242124591, 0.0194781050, 0.0620136149, 0.0213078801, -0.0620213561, -0.0276875123, -0.0486500934, -0.0007462762, 0.0522283316, 0.0819024742, 0.0244496930, 0.0440336056, 0.0481370166, -0.0492564067, 0.0137981884, -0.0326357633, -0.0686102584, -0.0732088014, 0.0754704103, 0.0481359437, 0.0050911251, 0.0707857311, 0.0376887210, -0.0329695605, 0.0701356456, 0.0684008896, 0.0413745157, -0.0440800004, -0.0236323588, 0.0784146562, 0.0281943455, 0.0207228418, 0.0652363747, -0.0466947295, 0.0270643663, 0.0549137741, -0.0040387809, 0.0321493447, -0.0368551463, 0.0774364993, -0.0604379848, -0.0582735240, -0.0179508924, 0.0454777516, 0.0151128517, -0.0691910684, -0.0449187905, 0.0479265675, 0.0781858116, -0.0706966519, 0.0608992800, 0.0147153800, -0.0344597697, -0.0601209961, 0.0447559021, -0.0342335179, -0.0790572539, -0.0677772760, -0.0157944486, -0.0767760575, 0.0437902398, 0.0797136202, -0.0668783262, -0.0365220979, -0.0343834236, 0.0347292386, 0.0765475109, -0.0368188210, -0.0038435266, 0.0206113532, 0.0820143595, 0.0197993331, 0.0022737866, -0.0132223004, -0.0423673280, 0.0534879267, -0.0237635281, 0.0483903959, -0.0548140034, 0.0479107127, -0.0038567688, -0.0532441363, 0.0741195977, -0.0115795359, -0.0760819092, 0.0015825948, 0.0785389766, -0.0330359191, -0.0693481639, 0.0422635265, -0.0560247600, -0.0336617157, -0.0806613266, -0.0314691290, -0.0241416190, 0.0793270245, -0.0534400344, 0.0106052030, -0.0733023509, 0.0795250610, -0.0812751055, 0.0031991738, 0.0063205445, 0.0659480840, 0.0517582893, -0.0760122463, -0.0750909522, 0.0543707870, 0.0716446191, -0.0106777912, 0.0037909655, -0.0401015356, 0.0823882818, -0.0459832139, 0.0643243119, -0.0729925781, -0.0640203133, -0.0531148277, 0.0539573506, 0.0063014608, 0.0025236581, -0.0688614547, -0.0433910117, -0.0619588308, -0.0715160817, 0.0200892277, 0.0830560327, 0.0648148283, 0.0266858395, -0.0126301311, -0.0153410770, 0.0712664872, 0.0008645611, 0.0063705724, -0.0169614796, 0.0480540060, -0.0041129189, -0.0385118686, 0.0186524950, 0.0612957701, -0.0767085105, 0.0081135221, -0.0063126269, -0.0149682909, -0.0426218174, -0.0178184919, 0.0416831188, -0.0696576536, 0.0564211756, -0.0541506000, 0.0087688230, 0.0265054982, -0.0635648072, 0.0473911464, -0.0201375578, 0.0133656291, -0.0209696256, -0.0184667576, 0.0216456167, -0.0629688278, 0.0043185540, -0.0055298232, -0.0671971068, -0.0765727535, 0.0059037213, -0.0176157281, -0.0565665737, 0.0155293075, 0.0655091628, -0.0766696185, 0.0021366272, 0.0714178309, 0.0395332389, 0.0116851442, -0.0130178872, 0.0482606366, 0.0351627916, 0.0151672494, 0.0427892841, -0.0300686155, 0.0285195876, -0.0000030696, 0.0783619955, 0.0491893515, 0.0812885165, 0.0111882631, 0.0263239220, -0.0725758821, 0.0404775143, 0.0320129395, -0.0787688568, 0.0086304918, -0.0416850969, 0.0816869214, -0.0712602586, 0.0074083833, 0.0520433374, 0.0781607181, -0.0131864287, -0.0792624876, -0.0607310273, 0.0097174067, 0.0104268473, 0.0198683552, -0.0543327294, 0.0780363008, -0.0774440095, 0.0572427027, 0.0636916533, -0.0267237779, 0.0197597165, -0.0295991115, 0.0758000091, -0.0297026243, 0.0571031980, -0.0509459637, -0.0083221281, 0.0708876178, -0.0014905160, -0.0157430191, 0.0394555368, 0.0398826785, -0.0690933019, 0.0184107311, 0.0428441092, -0.0645437837, -0.0645538941, -0.0643664673, 0.0749453753, 0.0766121373, -0.0378683321, 0.0657440424, -0.0398754068, -0.0704465508, 0.0701902434, -0.0740496665, -0.0422660783, -0.0526656359, -0.0496674888, 0.0519430712, -0.0796473771, 0.0419566259, 0.0547812618, -0.0299144294, -0.0771904439, 0.0746503547, 0.0421670265, 0.0048445025, -0.0669784099, 0.0826675817, -0.0144262686, 0.0782366768, 0.0614892431, -0.0666643903, 0.0800394416, -0.0648757145, 0.0584144443, 0.0527472645, 0.0492737219, 0.0036709225, -0.0329742096, -0.0589904748, -0.0645195916, -0.0427974500, 0.0583218336, 0.0074362881, -0.0256050248, -0.0451579504, -0.0773471519, 0.0656107813, -0.0215637907, -0.0819520280, -0.0392101817, 0.0366361402, 0.0768599510, 0.0246387199, -0.0300304480, -0.0127510382, 0.0796537697, 0.0110422326, -0.0247941669, 0.0636891127, 0.0283863731, 0.0429659039, -0.0340666845, 0.0101423748, -0.0599202476, 0.0214462206, 0.0535854809, 0.0595279932, 0.0521013141, -0.0746174529, -0.0608135797, -0.0479306504, -0.0697123408, -0.0178428590, -0.0511787944, 0.0230093151, -0.0169946887, 0.0246225074, -0.0330543779, 0.0799219161, -0.0497277789, -0.0645073056, -0.0680554658, 0.0557214804, -0.0773121715, 0.0264261439, 0.0037454576, -0.0021062191, -0.0399608500, -0.0193422865, -0.0434087850, 0.0525941588, 0.0822570845, -0.0205621999, -0.0453303978, 0.0784407184, -0.0132366857, -0.0283600464, -0.0032825305, -0.0695609748, -0.0608940348, 0.0582722425, 0.0142919701, 0.0030785447, 0.0074032471, 0.0169111956, -0.0415275395, -0.0297947638, 0.0306519940, -0.0795770064, 0.0128844036, -0.0237896442, 0.0761615112, -0.0631068498, 0.0086186305, -0.0026636587, 0.0008470970, 0.0150839034, -0.0782593414, -0.0529103838, -0.0781498328, 0.0310523361, -0.0064808205, -0.0803182274, 0.0678483248, 0.0672936514, -0.0596224479, -0.0314295329, 0.0648901388, 0.0476890020, -0.0260807760, -0.0752568841, 0.0583638027, 0.0285899993, 0.0236755423, -0.0704255104, -0.0502851568, -0.0681361258, -0.0373775698, 0.0044757901, 0.0672613829, -0.0077040605, 0.0475201719, -0.0698571429, 0.0174100418, 0.0832836330, -0.0315264687, -0.0214591045, -0.0544217899, 0.0320503302, -0.0330263935, 0.0394034423, -0.0190707501, 0.0205545500, 0.0419088118, -0.0060037370, -0.0596687905, 0.0761379078, -0.0817910731, 0.0454495288, 0.0515932664, 0.0122512961, 0.0202461481, 0.0464060605, -0.0546877421, 0.0810508728, -0.0727833435, -0.0727897957, -0.0207832307, 0.0006689396, -0.0697711483, 0.0348133706, 0.0635258481, -0.0576494969, -0.0193772446, 0.0369988531, 0.0353753977, -0.0268065985, -0.0757075548, 0.0248926338, 0.0296781175, 0.0160949230, 0.0096722655, 0.0365217812, 0.0795872957, 0.0392651297, -0.0023404243, -0.0485233441, 0.0528775193, -0.0242703054, 0.0022090762, -0.0510651208, 0.0194908418, -0.0104933558, 0.0384219736, 0.0369596928, -0.0701287761, -0.0602502897, 0.0346575342, -0.0694670752, -0.0578119345, 0.0745350271, 0.0085116401, -0.0794061348, 0.0718415901, -0.0248158425, -0.0739115551, 0.0759512261, -0.0344624110, -0.0155552840, -0.0010990645, -0.0698020160, 0.0530359782, -0.0294242725, 0.0615561716, -0.0600471087, -0.0129090603, -0.0760712922, -0.0810414553, -0.0464716442, 0.0421278551, -0.0373249389, 0.0146575728, 0.0197622683, 0.0223017111, -0.0070016137, 0.0195767991, 0.0045210393, 0.0174210202, 0.0630225018, 0.0043039308, 0.0347334296, 0.0784831867, 0.0297421329, 0.0462140143, 0.0645272955, -0.0431695208, -0.0284548774, -0.0602622405, -0.0431558341, -0.0752271712, -0.0767492279, 0.0400984660, 0.0562810749, -0.0757214949, -0.0131056756, -0.0524753183, 0.0262691956, 0.0154222371, 0.0218998883, -0.0128818015, -0.0602293275, -0.0252973773, 0.0362676457, -0.0339565575, -0.0300697479, 0.0293773636, 0.0260856543, -0.0277417395, 0.0128703369, -0.0059795976, -0.0495947711, 0.0401770063, 0.0382449813, -0.0693545863, -0.0157987997, 0.0539339595, 0.0243150275, 0.0529395603, -0.0560776703, -0.0799240246, 0.0831348896, -0.0647752136, -0.0779036507, 0.0760467350, 0.0563868061, 0.0073612262, 0.0585661381, 0.0075254659, -0.0066207717, -0.0766423568, -0.0719610974, 0.0337224044, -0.0251034945, 0.0219175015, -0.0197699480, -0.0648563951, -0.0830139145, 0.0348059572, 0.0596061572, -0.0413708389, 0.0147254532, -0.0324658416, 0.0363193639, -0.0602867492, 0.0649984628, -0.0432009920, -0.0043450575, -0.0265616551, -0.0457877405, 0.0481640361, -0.0121283429, -0.0532557480, -0.0002332020, 0.0108844889, -0.0715807304, 0.0013685158, 0.0471720956, -0.0262806192, 0.0650035292, -0.0782630518, 0.0759561583, 0.0492151827, 0.0118418541, -0.0332976095, 0.0606055334, -0.0510212816, 0.0830006823, -0.0608526692, -0.0810250044, -0.0761145428, -0.0385680757, 0.0236299634, 0.0392065980, -0.0773629993, 0.0506371930, -0.0666578189, -0.0810535103, -0.0236614458, -0.0317972302, -0.0144075733, 0.0140460227, 0.0633169189, 0.0202270448, -0.0672236010, 0.0163769107, 0.0597401261, -0.0025193468, 0.0650638863, -0.0785546079, 0.0200268030, 0.0655922219, -0.0803436488, 0.0228078831, -0.0217826273, 0.0256071109, 0.0401873365, 0.0135169644, 0.0342899561, 0.0407295078, -0.0757509544, 0.0069346973, 0.0746422410, -0.0438638143, 0.0358682796, -0.0392899141, 0.0528244227, 0.0534743890, -0.0419104919, -0.0744665638, 0.0304655693, -0.0659635067, 0.0467424840, -0.0710134208, 0.0643041804, 0.0671003237, -0.0271530990, -0.0593503118, -0.0600374900, -0.0724425539, 0.0239081588, -0.0395288207, 0.0022406070, 0.0069065746, -0.0290541984, -0.0372298397, 0.0409814455, 0.0761353672, 0.0384386256, 0.0701491609, -0.0497565567, -0.0076700170, 0.0245560575, -0.0503262654, -0.0751657486, 0.0151506113, 0.0430641510, 0.0779375732, 0.0608639643, -0.0687549114, -0.0363693722, -0.0802200586, -0.0576743782, -0.0456346013, 0.0092602205, -0.0606160425, 0.0824970603, 0.0615693331, 0.0822424069, 0.0117282085, -0.0695394501, 0.0413354561, -0.0403636992, 0.0593312904, 0.0262414590, -0.0750897303, 0.0488381237, 0.0701121762, 0.0272223987, 0.0365900472, 0.0623211637, -0.0702021718, 0.0301135965, 0.0655891523, -0.0786726400, 0.0150793036, -0.0262093842, -0.0092645120, 0.0163847283, 0.0009815446, 0.0293907654, -0.0064956718, -0.0151294312, -0.0447618328, 0.0118179917, -0.0087276762, 0.0735384747, 0.0586495139, -0.0343826711, 0.0828362703, -0.0154133467, 0.0574084260, 0.0109810382, 0.0722188875, 0.0241183918, -0.0553071424, -0.0234993231, -0.0447722636, -0.0487699732, 0.0346636623, -0.0017608614, 0.0032842590, -0.0413726568, 0.0226995815, 0.0636273399, 0.0753969625, 0.0578991361, 0.0007366501, -0.0160786901, -0.0790524632, 0.0485275276, 0.0815827176, -0.0561966076, 0.0074421791, -0.0515543744, 0.0807307735, -0.0730109885, 0.0435055420, 0.0664809495, 0.0647222698, -0.0540076979, -0.0213741101, 0.0654736683, -0.0105303992, -0.0776332244, -0.0372282192, 0.0415630154, 0.0433535725, -0.0797405392, -0.0644127354, 0.0701790825, -0.0478863940, 0.0801711977, -0.0777489766, -0.0035111629, -0.0602792092, 0.0098644998, 0.0382945240, -0.0664729401, -0.0602236055, 0.0686589554, 0.0451657698, 0.0253078267, 0.0060253139, 0.0689658821, -0.0222364645, 0.0499534309, 0.0486220606, 0.0452521183, 0.0395641141, -0.0278223753, -0.0478676781, 0.0646691099, -0.0259867907, 0.0116594145, -0.0080899401, -0.0362654701, -0.0395644046, 0.0610449649, 0.0219310224, 0.0729510859, -0.0527519248, 0.0716081560, 0.0530722700, -0.0023650608, 0.0349180438, -0.0060370462, 0.0740159601, 0.0724768788, 0.0373516716, -0.0629673377, -0.0781169981, 0.0442339890, 0.0502305478, 0.0758989975, -0.0240485258, -0.0022437263, -0.0347106010, 0.0172190014, -0.0179866161, 0.0104545532, 0.0219002366, -0.0729970187, 0.0183714014, 0.0092766713, 0.0217211265, -0.0554676242, -0.0405019000, -0.0497302413, -0.0317370296, 0.0561213978, 0.0240423065, 0.0706506297, 0.0092230672, -0.0202906206, 0.0501261465, -0.0663733408, -0.0214596614, -0.0579447150, -0.0222331472, -0.0314276367, -0.0485907868, 0.0304887071, -0.0721628293, 0.0199153312, 0.0660092831, -0.0185952261, 0.0798316970, 0.0431441292, 0.0038696136, 0.0710930824, 0.0673806742, -0.0398213044, 0.0394914262, -0.0268413480, 0.0291897692, -0.0512170307, -0.0123910680, -0.0261639059, -0.0161398258, -0.0070862318, 0.0596438162, 0.0694896057, -0.0152186882, -0.0077300183, 0.0319031663, -0.0725350231, -0.0473496616, -0.0276543908, -0.0616015010, -0.0152424313, 0.0134611158, -0.0716106594, 0.0197269525, -0.0333722755, -0.0287610944, -0.0479448140, -0.0377508514, 0.0023745478, 0.0343069918, 0.0350864492, 0.0145953270, -0.0097505366, 0.0173064787, 0.0622415990, 0.0719953999, -0.0504038110, 0.0187773965, 0.0115000624, -0.0473830104, -0.0242536850, 0.0572834834, 0.0750809982, -0.0643035546, 0.0192785189, -0.0219626129, -0.0516608171, 0.0803070962, 0.0150534259, -0.0740807354, 0.0669394508, 0.0329594091, -0.0423821285, -0.0674047098, -0.0078708734, -0.0101070795, -0.0702499077, 0.0619148426, -0.0509117022, -0.0062028454, 0.0296081807, -0.0018131245, 0.0768669099, 0.0390513688, -0.0346778892, -0.0278089549, 0.0466780998, -0.0182041414, 0.0151265105, -0.0692038164, -0.0326132625, -0.0588070787, 0.0099935923, -0.0806614012, -0.0177887790, -0.0559265204, 0.0272600781, -0.0383289419, -0.0582266450, 0.0514627807, 0.0090605756, 0.0093648070, -0.0280426741, -0.0825137869, -0.0637769103, -0.0366044119, 0.0632063597, -0.0554618724, 0.0149152335, 0.0300033782, -0.0575322323, -0.0055135316, 0.0792992562, 0.0724875554, -0.0397870168, -0.0156067824, 0.0187387131, 0.0118315220, 0.0649295375, -0.0282327719, -0.0483207591, 0.0360004231, -0.0580930896, -0.0760004595, 0.0082431026, 0.0694000646, 0.0306478608, 0.0010243305, 0.0213460568, -0.0440680385, -0.0787184685, 0.0095839519, -0.0727353320, -0.0316008963, -0.0512875430, -0.0656459630, -0.0819384828, 0.0313789174, 0.0257306211, 0.0514227375, -0.0056822714, 0.0066746040, 0.0402543843, 0.0799295381, 0.0679680854, -0.0283179265, -0.0712358281, 0.0642268136, -0.0250082463, 0.0793181509, 0.0477129743, -0.0774788111, 0.0555022657, -0.0826211497, 0.0601652823, -0.0349401981, 0.0697569028, -0.0600321777, -0.0140283601, -0.0415056050, 0.0514630713, 0.0097605400, 0.0721076056, 0.0120632248, -0.0284666885, 0.0533792190, -0.0234580766, 0.0159200337, 0.0079738600, -0.0322727263, 0.0288694147, -0.0648065060, -0.0034532077, 0.0141567774, -0.0356074199, 0.0648697242, -0.0127388109, -0.0196569767, -0.0772807300, 0.0264427233, -0.0126429070, -0.0800191611, 0.0242678411, 0.0200783610, -0.0592696369, -0.0662674755, -0.0798759013, 0.0588733107, -0.0656846687, -0.0719052479, -0.0800871626, 0.0351904593, -0.0338159017, 0.0491924211, 0.0537127256, -0.0428076722, -0.0551155135, 0.0609930083, -0.0750458688, 0.0427361093, -0.0396461822, -0.0667071864, 0.0548030660, -0.0056993579, 0.0111000380, 0.0159077551, 0.0694375336, -0.0005779535, 0.0271969680, 0.0691931322, 0.0668062046, 0.0429388434, -0.0440984257, 0.0822113380, 0.0002794947, -0.0476543829, 0.0403927155, 0.0238131396, -0.0138546135, -0.0158482585, 0.0441531353, 0.0113595063, 0.0247418340, 0.0172208790, -0.0301292129, -0.0805662349, 0.0640712902, 0.0800670236, -0.0720469356, 0.0356482267, -0.0490732715, -0.0162316449, 0.0734729096, 0.0697415248, -0.0388256684, 0.0118799610, 0.0377695970, 0.0753163770, -0.0786089674, 0.0427241512, 0.0211260952, 0.0225869883, 0.0196635537, -0.0421669856, -0.0830488503, 0.0667524412, 0.0082436390, -0.0517686978, 0.0203484874, 0.0671757236, -0.0067072771, -0.0044613956, 0.0691276789, 0.0781788006, -0.0124716042, 0.0250913259, 0.0131978234, -0.0068040849, 0.0305435136, 0.0558699481, -0.0477954559, -0.0100147817, 0.0109961377, -0.0154987006, -0.0745777041, -0.0761060119, 0.0719558224, -0.0460514426, -0.0802957788, 0.0696548745, -0.0510924794, 0.0371611342, 0.0228490494, 0.0222845562, -0.0406172909, -0.0321400873, 0.0486261137, -0.0644988641, 0.0739244893, -0.0402546227, 0.0675670654, 0.0213851165, -0.0572348349, -0.0503467768, -0.0027954539, 0.0583676174, -0.0212068893, -0.0743998736, -0.0662368760, -0.0447209440, 0.0745790750, 0.0594643652, -0.0599295869, 0.0306297801, -0.0746683329, 0.0687536001, 0.0609981641, -0.0756230950, -0.0650557280, -0.0185255185, 0.0216489453, 0.0795060322, -0.0059092939, -0.0803273767, -0.0757828057, 0.0223668702, -0.0492377318, -0.0602424107, -0.0459262729, 0.0105676716, -0.0348314978, -0.0769887194, 0.0773240477, -0.0303510893, 0.0616650470, 0.0763009489, -0.0665783361, -0.0106632384, 0.0017246121, 0.0037700546, -0.0485869832, 0.0409155339, -0.0551412143, 0.0234829802, -0.0296052601, 0.0259980448, -0.0386960059, -0.0660720319, 0.0105957557, 0.0062573343, -0.0432390906, -0.0168864690, 0.0008508720, -0.0526880361, -0.0424741581, 0.0049360846, 0.0513705537, -0.0738028362, -0.0140871201, 0.0567465387, 0.0392429940, -0.0716749877, -0.0802038759, 0.0367895849, -0.0654612407, -0.0725989491, 0.0426693149, 0.0046346751, -0.0740996674, -0.0448543988, 0.0293882508, 0.0618927591, -0.0423892513, -0.0468315147, 0.0534955375, -0.0225137230, -0.0791477114, 0.0223010760, -0.0127385426, 0.0426539965, -0.0588562228, -0.0555006266, -0.0463481136, 0.0103159538, -0.0564409345, -0.0293814763, -0.0210594777, 0.0149037596, 0.0264761522, -0.0040721591, 0.0425306521, 0.0151879126, -0.0747122541, -0.0548374206, 0.0391159095, 0.0508903041, 0.0334787406, -0.0370631739, -0.0359788463, 0.0504884496, 0.0818468630, 0.0228002723, 0.0461814590, 0.0264456253, 0.0437033959, -0.0367357805, 0.0777191743, 0.0141913584, -0.0780162513, -0.0097356653, 0.0202973168, -0.0744809508, 0.0023541034, 0.0134734642, -0.0453577153, 0.0261633880, -0.0382323079, -0.0620368011, -0.0462600179, 0.0211489238, 0.0744664147, 0.0351773053, -0.0598807931, 0.0393490307, -0.0712010786, -0.0618506782, 0.0735968426, -0.0780403465, 0.0409894921, -0.0701014400, -0.0404656231, -0.0382346697, 0.0636090338, 0.0114668328, -0.0444662534, 0.0014853304, 0.0476255417, -0.0518233255, 0.0151532730, -0.0671504959, -0.0569305159, 0.0049623703, -0.0070108622, -0.0487017110, -0.0205332711, 0.0207788497, -0.0328509882, -0.0490746945, 0.0793570206, 0.0099212239, 0.0624504462, 0.0362162851, 0.0729158595, -0.0012177466, 0.0661164522, 0.0252695717, 0.0149867376, 0.0817677975, -0.0398328491, -0.0546862260, -0.0796664432, 0.0165982004, -0.0312332641, 0.0438086987, -0.0579922684, 0.0240861271, -0.0233223271, -0.0682620555, -0.0036246497, 0.0275995247, -0.0128799537, -0.0069460422, 0.0619277060, -0.0195738096, 0.0276381783, 0.0728549138, -0.0717272684, 0.0236980431, 0.0222894922, 0.0341421738, 0.0615163632, -0.0646019205, -0.0193379056, -0.0148695465, -0.0656054765, 0.0614954121, -0.0048417803, 0.0127974013, 0.0784105137, 0.0775628984, 0.0085698040, -0.0443043374, -0.0791182145, -0.0094049303, 0.0433941707, -0.0429981500, -0.0105202962, -0.0481063202, 0.0289002694, -0.0560738146, 0.0053061084, 0.0283244736, 0.0131484503, 0.0129504548, -0.0017963062, -0.0592618808, -0.0678111613, 0.0758640543, 0.0721087754, 0.0268826634, 0.0561898910, 0.0475259423, 0.0441973321, -0.0107169012, -0.0492191240, 0.0823053196, -0.0048130015, -0.0088036619, 0.0462067798, -0.0172600690, 0.0598598830, -0.0764787123, -0.0577300377, 0.0698887035, -0.0769699365, -0.0109804226, 0.0429299325, 0.0613689162, 0.0116827497, 0.0023369077, 0.0143207787, 0.0772518218, 0.0695167705, 0.0449679270, -0.0535701923, -0.0722749978, -0.0068514105, 0.0815812349, 0.0148919178, -0.0688044801, -0.0185149275, 0.0036212422, -0.0126696099, -0.0158625245, -0.0323400684, 0.0601078346, -0.0055437703, 0.0127599193, 0.0534824133, 0.0172487348, -0.0264209583, 0.0525190085, -0.0402140804, -0.0653546154, 0.0770235211, -0.0531672798, -0.0753429458, 0.0018409697, -0.0657407939, 0.0797600150, -0.0434589535, -0.0149191469, -0.0179302301, 0.0453361683, -0.0762074068, 0.0535660796, -0.0171370059, 0.0126583241, -0.0171115436, 0.0542464033, 0.0043892544, 0.0305733941, -0.0012662646, -0.0210147854, 0.0420591719, 0.0055336677, -0.0779311061, -0.0561777726, -0.0009067411, -0.0785300285, -0.0580061078, 0.0057699988, -0.0193791613, 0.0454796590, 0.0761169270, 0.0330841504, -0.0426216908, 0.0003211482, 0.0589300059, 0.0323147476, -0.0254599489, -0.0201235507, -0.0015638989, -0.0784589723, 0.0521547683, 0.0513859726, 0.0605977140, -0.0249305218, 0.0095427558, 0.0520749874, -0.0244915057, -0.0434819497, 0.0106866127, 0.0002625572, 0.0399644263, 0.0046449867, -0.0171559397, 0.0653907657, 0.0629170612, -0.0644868836, 0.0465153903, -0.0624864362, 0.0650257915, -0.0506215952, -0.0072785355, 0.0254547130, 0.0538466685, -0.0468063690, 0.0108634690, -0.0057255537, 0.0708610117, 0.0436152630, -0.0494645871, 0.0475642979, 0.0326157659, 0.0135084810, -0.0638193861, 0.0387025438, 0.0725897774, 0.0255789272, -0.0475305915, 0.0159750972, 0.0305711795, -0.0757380724, 0.0387248062, -0.0232242383, 0.0327579640, -0.0329479352, -0.0432792045, 0.0530088805, 0.0704243705, 0.0248233024, 0.0262976065, -0.0764112100, 0.0274560768, -0.0157184917, -0.0796936154, 0.0457689837, -0.0457492881, -0.0462932959, 0.0460829437, 0.0369948074, 0.0609601960, 0.0340719819, 0.0799033493, -0.0709547326, 0.0154494969, 0.0099133160, -0.0200201869, 0.0369350947, 0.0324845985, -0.0786844119, -0.0027156437, -0.0014952546, 0.0458931513};

#endif

#endif
