//Numpy array shape [3, 3, 3, 16]
//Min -0.191064327955
//Max 0.192159190774
//Number of zeros 0

#ifndef W2_H_
#define W2_H_

#ifndef __SYNTHESIS__
stem_0_weight_t w2[432];
#else
stem_0_weight_t w2[432] = {-0.0642761737, -0.1170871258, 0.0831318796, 0.0509426259, 0.0220020544, -0.1377107352, 0.0860364214, -0.0979852974, 0.0695075914, 0.1315291971, -0.1011344790, -0.0782470107, -0.0613704659, -0.0719190016, -0.0145463152, -0.1238165572, -0.1333858222, 0.1698760092, -0.0376195386, -0.1826489866, 0.0225747470, 0.1511549652, -0.0128929513, 0.0619351529, -0.0693883896, -0.1572303474, 0.1811947674, -0.1664532423, -0.1194996983, -0.0589229055, 0.0854755193, -0.0653585643, -0.1228046566, 0.1776134670, 0.1588864177, -0.0735148787, -0.1551472843, -0.1471745074, -0.1799014807, 0.0686338842, -0.1019402370, -0.0615077242, -0.0521798283, 0.0012476856, 0.1752123684, -0.1343436837, 0.1144536436, 0.0300539099, 0.1358482689, -0.1668140739, -0.1400043517, -0.0894822702, -0.1469636261, -0.1651853621, -0.0034616769, 0.0432030745, 0.1687711328, -0.1103396416, 0.0423793532, 0.0454059392, -0.0597290993, 0.0747295022, 0.1256897300, 0.1384618133, 0.0840240195, -0.0043300437, -0.1147892624, -0.0446268842, -0.1098970994, -0.1795742810, -0.0251118261, -0.1462913156, -0.0604329072, -0.1079436764, -0.0876536518, 0.0817765296, 0.0562206879, 0.1875229478, 0.0460145362, 0.0986075476, 0.0018583025, -0.0300354194, 0.0430767573, 0.0286408141, 0.0089812493, -0.0716943070, -0.0913488343, -0.1230178326, 0.1360642612, -0.1490128785, 0.0204579830, -0.1422403306, -0.0090466784, -0.0952558070, -0.0778185353, -0.1348574013, -0.0490728058, 0.1260436922, -0.0989241228, -0.1747845262, -0.0780630261, -0.1224489510, -0.0020974472, -0.0045199781, 0.0340243429, -0.0835130364, -0.0318495817, -0.1583175063, -0.0735993013, 0.0575182997, 0.1307651103, 0.0853346139, 0.1237853989, -0.1094337851, 0.0464125760, 0.1775147915, -0.0245819204, -0.0731342956, -0.0973645449, 0.1409820169, -0.0568900406, -0.1384199411, 0.0003490354, -0.1121888384, 0.1460709721, 0.1274914294, -0.1873031408, 0.0740215182, -0.0215136930, -0.1101830229, -0.1301446557, -0.0846637711, -0.1032024771, 0.0200238582, -0.0494164042, 0.1533156037, 0.1581496894, 0.1133185551, -0.0471155569, -0.1301610321, -0.1836362630, 0.0578720793, 0.1308593005, 0.1497567147, -0.0032235188, -0.1400753707, -0.1073982641, -0.1908907145, -0.0296813603, -0.1213551313, -0.0349978991, -0.1332997233, 0.0311629139, -0.0629968494, -0.1048327610, 0.1677656025, -0.0772826374, 0.1629491150, -0.1214121655, 0.0394565091, 0.1695102453, 0.1307795048, 0.0847490877, -0.0895807371, -0.1032655910, -0.0477358773, 0.1248617321, -0.0481542423, -0.1303039193, -0.0558140725, -0.1898551285, 0.1661172956, -0.0947589055, -0.0572967939, -0.0239185132, 0.0640993863, -0.0450880565, 0.0369243138, 0.1399877667, -0.0355594195, -0.1040278226, 0.0506368801, -0.0521674380, -0.1605458409, 0.0219981074, 0.0973990709, 0.1263163090, 0.1306154877, -0.0153758638, 0.0976633057, 0.1624668539, -0.0750057921, 0.1743184775, 0.0367316976, -0.0741060302, -0.1669027209, -0.0310993642, 0.1205490977, -0.0182659253, 0.0854489058, -0.1677766144, -0.0054901838, 0.1437830329, 0.1670388579, -0.0106302770, -0.1354794055, 0.1874472797, 0.1893441677, -0.0532388389, -0.1562895179, -0.0804712400, 0.1617834121, -0.0969795287, -0.1795911938, -0.0420558490, -0.1855867356, 0.0429691598, 0.1036264077, -0.1565296948, 0.0166691355, -0.1089497879, -0.0967552289, 0.1638575643, -0.0935074612, -0.1352434605, 0.1603820324, -0.1807612032, 0.1769634038, -0.1697514653, -0.0915962309, 0.1697451472, 0.0001615556, -0.1371086687, 0.0776468813, 0.1163374111, 0.1094322726, -0.0613494962, -0.0237119682, 0.1260847896, -0.0007991979, 0.0932043716, -0.0841241330, 0.0768489018, -0.0855353326, 0.1547798216, 0.1831837147, 0.0857659578, -0.0077372110, -0.0543990731, -0.1388823092, 0.1606296003, -0.1564885229, -0.0064451103, 0.0839052498, -0.0545394085, 0.0271536410, -0.1809398085, 0.0135231363, 0.0017153526, 0.0591232553, -0.0819292814, 0.1817615926, 0.0248230603, 0.1452079117, 0.0543114096, -0.1219621971, 0.0164356586, -0.0883593634, 0.0264223050, 0.0074234828, -0.0701506957, 0.0738597736, 0.0741264969, -0.1106558740, 0.0395809673, -0.0003335038, 0.1062691212, -0.0913431868, -0.0648242012, -0.0836607590, 0.0145908911, 0.1442430466, 0.0454297997, 0.1456775367, -0.0408115610, -0.1330996901, 0.1498128623, -0.1556218117, 0.1148772910, -0.1206790209, -0.1465556175, -0.1833764315, 0.0315121338, -0.1103476062, -0.1861504465, -0.1309792995, -0.1821773648, 0.0073004239, 0.0116563914, -0.1084853783, -0.0914054736, 0.1921591908, -0.1910643280, 0.0264859460, 0.0584440380, -0.0849760547, 0.1035659835, 0.0492173396, -0.1745876074, -0.1681786329, 0.0330211706, 0.1589275748, 0.1346480995, -0.1348792166, 0.1249026135, -0.1094027683, -0.0862123147, 0.0699018687, -0.0275122430, -0.1800693274, 0.1811278611, 0.0510909669, -0.0194594692, -0.1282351464, -0.1527375877, -0.0831419080, -0.0463330150, 0.1235366836, 0.0245838463, 0.0736289397, -0.1570607871, -0.1126670763, -0.0239716712, 0.0525679290, -0.1322616786, 0.0407347716, 0.1823536307, -0.0346116945, -0.1407451630, -0.1654840559, 0.0927541927, -0.0819719955, -0.0611821376, -0.0372306556, -0.1699053049, -0.0816363990, 0.1470483094, -0.0428162292, -0.0734828934, 0.0961201563, 0.0243434403, 0.1507912874, 0.0422848761, 0.0079569928, -0.0941993818, 0.1709230095, 0.1680893600, -0.0570192896, -0.0750501826, 0.0257707592, -0.0983726010, -0.1833703071, 0.0057282960, 0.1035387963, 0.1279662997, 0.1500232965, 0.0192750394, -0.0443313010, -0.1792031825, 0.0970925912, -0.1308588386, 0.0073238239, -0.0043587438, -0.0358564220, -0.0769738853, 0.1724318117, -0.1344273239, -0.1112655029, 0.0741236508, -0.0385842398, 0.0193834398, 0.1462793946, 0.0450045504, -0.0344062336, 0.0056236819, -0.0959914923, 0.1030089632, 0.0415774249, -0.0156902578, -0.0221160054, 0.0036732682, 0.0285758208, 0.1780449599, -0.1590829492, 0.1065496206, 0.0295929424, -0.1371555179, 0.0090623014, 0.0126279276, 0.1347811371, -0.0130541623, 0.1280231178, 0.0202803910, 0.1176993921, 0.0730979294, -0.0095290747, -0.1537075937, -0.1257683039, -0.1894150525, 0.1814175546, -0.0735136122, 0.1652353555, 0.1386312097, -0.0647085607, 0.0933644176, -0.0785184130, 0.0056066820, 0.0248534810, 0.0213115308, 0.0976544023, 0.0779367536, -0.1414896995, -0.1061854735, 0.1586592346, 0.0882299021, -0.1703579724, -0.1488206238, -0.1007189378, 0.0326139070, -0.1007348374, -0.1232354343, 0.0945718586};

#endif

#endif
