//Numpy array shape [16, 10]
//Min -0.240508735180
//Max 0.249382287264
//Number of zeros 0

#ifndef W21_H_
#define W21_H_

#ifndef __SYNTHESIS__
classifier_weight_t w21[160];
#else
classifier_weight_t w21[160] = {0.1222874820, -0.2033077478, -0.1453977525, -0.1773349345, 0.2080399394, 0.1435604692, -0.1667482555, 0.1197327077, -0.0083622932, -0.1173457205, -0.2274931371, 0.2281934023, 0.0830279589, 0.2110702395, 0.1843948662, -0.0467340946, 0.1356351674, 0.0862776041, 0.0390760005, -0.0772759616, 0.2197149992, 0.1972405016, -0.1035508811, -0.0776906908, -0.1732505858, -0.1888270676, 0.2329642177, 0.1500596404, -0.1161344945, 0.1492937803, 0.1994201243, -0.0634832382, 0.0164054632, -0.1455810666, 0.1383330524, -0.0053710639, 0.1624563038, -0.0078297257, -0.2354111969, 0.0596936941, -0.1599234343, 0.1452060342, -0.0684904754, -0.1203410923, -0.0714946091, -0.1738495529, 0.0982038677, -0.0792177022, -0.1958945096, -0.1885172725, 0.0294378698, 0.1984547675, 0.0656969845, 0.2367694378, 0.1568579972, -0.2100879550, -0.2405087352, 0.1700295806, -0.2087121010, -0.0630103350, -0.1549532413, 0.1906717420, 0.2009251714, 0.1698871851, -0.1859363317, -0.1296038926, 0.0379434228, -0.2007426918, -0.0387051702, -0.0282131433, -0.1176529825, 0.0047234893, -0.2014087439, -0.0426018834, 0.1131708324, -0.2049227357, -0.0436891019, -0.1686393321, -0.1223302484, 0.2274845541, 0.1780538559, -0.1067135632, 0.0594715476, 0.0340301991, 0.0572810471, -0.1413787603, -0.0062980354, -0.0814310312, 0.0742696524, -0.1960214078, 0.1786737442, 0.1772867143, -0.0309775472, -0.1936260164, -0.2365403175, -0.1930683255, 0.0520228744, -0.1652751863, 0.2296854556, 0.0359251797, 0.1989938915, 0.0654416978, -0.0916211009, 0.0717414320, -0.1535154581, 0.2458652854, 0.0813383758, 0.0892448425, 0.1371320784, 0.0359482467, 0.0974656343, 0.1364320517, -0.0635678768, -0.0437497199, -0.1210840940, -0.1048374474, 0.0099498630, 0.1054061651, -0.1920281649, -0.0141152143, -0.0700924397, 0.0312835276, -0.2176130116, -0.1940374970, -0.1611603796, -0.2230364084, -0.1307702065, 0.0232441127, -0.0642868876, 0.0424504876, 0.0202630460, 0.0765968263, 0.0917960703, -0.1446171701, -0.0785717964, 0.0849125981, 0.2493822873, -0.0106059909, 0.1469090581, 0.0941804349, -0.1376766264, -0.2300609946, -0.0974623859, 0.0061741173, 0.0553375483, -0.0004015267, -0.1217522919, -0.0022077560, 0.0475671291, 0.2209533155, -0.1130258143, 0.0822345614, 0.0921118259, 0.1844572425, 0.1119352281, 0.1387886703, 0.0631785989, -0.0148199499, -0.2035243511, 0.1829746962};

#endif

#endif
