//Numpy array shape [3, 3, 16, 16]
//Min -0.083323076367
//Max 0.083046644926
//Number of zeros 0

#ifndef W5_H_
#define W5_H_

#ifndef __SYNTHESIS__
cell_edges_1_op_1_weight_t w5[2304];
#else
cell_edges_1_op_1_weight_t w5[2304] = {0.0481440611, -0.0378918163, 0.0228519402, -0.0148261441, 0.0386908203, 0.0809563398, -0.0414699316, 0.0235740468, 0.0556168668, -0.0708392188, 0.0275677759, -0.0119633880, -0.0788503140, 0.0717150867, 0.0599409603, -0.0581051484, -0.0750638247, -0.0004146873, -0.0157965943, -0.0349452235, 0.0609645769, -0.0306927022, -0.0286790300, 0.0220346842, 0.0548369512, -0.0143569391, 0.0445104204, 0.0127288960, -0.0812858865, -0.0137796011, -0.0228421055, -0.0549851581, 0.0755950883, 0.0666816458, 0.0534555726, -0.0534178317, -0.0650343746, -0.0800437331, -0.0485117920, -0.0736323521, -0.0020704761, -0.0406049937, -0.0658075437, 0.0181819089, 0.0597396716, 0.0029668263, 0.0593919866, -0.0485533066, 0.0346758030, 0.0235436186, 0.0417967066, 0.0793159828, 0.0252136327, 0.0102091720, -0.0116804549, -0.0406479873, -0.0141584463, 0.0199648924, 0.0303576253, 0.0389350206, -0.0551182255, -0.0386067294, 0.0219129417, -0.0238189399, -0.0741868988, -0.0204811674, 0.0605860911, -0.0082721505, -0.0192344915, -0.0816444755, 0.0623102561, 0.0111831073, -0.0437702946, -0.0061221314, 0.0106901396, -0.0260741897, 0.0293622334, 0.0320965648, 0.0434328057, -0.0138828652, -0.0538395047, 0.0029433125, -0.0392740183, -0.0521319211, -0.0614984743, -0.0168587137, -0.0721609741, 0.0477163792, 0.0417644083, 0.0137658622, 0.0394901671, 0.0216570515, -0.0684731156, -0.0189645439, 0.0444404855, -0.0141038485, 0.0628689528, -0.0091951629, 0.0101412227, 0.0377942622, 0.0399419256, -0.0362994932, -0.0437102206, -0.0249860827, 0.0004301050, 0.0116391098, -0.0644637868, 0.0421157368, 0.0001265599, 0.0378834493, -0.0428291112, -0.0148505028, -0.0357100181, -0.0224470086, -0.0021364186, -0.0453591868, 0.0806554258, -0.0604030266, -0.0238475613, 0.0386789702, -0.0800657645, -0.0572850332, 0.0324816257, -0.0432512686, -0.0459315069, 0.0197208133, -0.0516740493, -0.0073499414, 0.0460653082, 0.0781524852, 0.0782520026, 0.0684675574, -0.0052976743, -0.0663162917, -0.0456716232, -0.0164878257, -0.0644608811, 0.0522260256, -0.0059135659, -0.0727576166, 0.0668138713, 0.0480577722, -0.0355025940, 0.0148789939, 0.0368337557, -0.0751917586, 0.0331641063, 0.0489139594, 0.0256080944, -0.0539797135, -0.0644919798, -0.0436501913, 0.0274013598, -0.0088697625, 0.0153192710, -0.0398148671, -0.0583935156, -0.0654394180, 0.0125893122, -0.0479245298, -0.0480210558, -0.0808110982, -0.0034393696, 0.0027868310, 0.0425307527, 0.0693889856, -0.0334087424, 0.0187324844, -0.0469999276, 0.0359367542, 0.0586402565, -0.0350599550, 0.0309611801, 0.0710795671, -0.0630747378, -0.0670838133, 0.0522599518, 0.0181446355, -0.0275170617, -0.0211016778, 0.0630907714, 0.0119578242, 0.0591867566, -0.0515814759, 0.0425118878, 0.0332762338, -0.0303374995, 0.0065324381, 0.0113323955, -0.0615036078, -0.0062960666, 0.0572010018, -0.0318494923, 0.0513163432, 0.0285347961, -0.0123695917, -0.0607530400, -0.0025120452, 0.0016330300, 0.0617157407, -0.0632810965, 0.0011476420, 0.0036989860, 0.0175786335, -0.0104180053, 0.0088185826, 0.0130672697, 0.0213677529, -0.0152619220, -0.0578425229, 0.0188899487, -0.0284361821, -0.0517782867, -0.0135883307, 0.0061780903, 0.0057536773, -0.0519391298, 0.0439721458, -0.0255829301, 0.0466969572, 0.0158257093, -0.0211319961, -0.0381288119, -0.0426051579, -0.0114214448, -0.0556599610, -0.0754964724, 0.0091645857, 0.0480863117, 0.0640781522, -0.0429151878, 0.0778747723, 0.0048723575, 0.0075016441, 0.0457199030, 0.0343919992, 0.0552829243, -0.0656120628, -0.0463115573, 0.0829256624, 0.0372997075, 0.0493746139, -0.0310081095, 0.0143394750, -0.0641042367, 0.0686897039, 0.0130464882, 0.0132327415, 0.0151096424, -0.0258029122, 0.0243055020, -0.0252035186, 0.0645085573, 0.0465597473, -0.0368386246, 0.0475097895, -0.0112276319, 0.0424335487, 0.0014451670, -0.0681957081, -0.0134493932, 0.0520608127, -0.0787443668, -0.0488695540, -0.0232232455, -0.0126888324, 0.0793155506, 0.0475270450, -0.0026588903, -0.0464270599, -0.0585726164, 0.0418073237, 0.0365495272, -0.0644337833, 0.0203174520, -0.0768268108, 0.0347246379, -0.0691304505, -0.0306805447, -0.0770623311, -0.0790241510, 0.0016096353, 0.0659631640, 0.0359324627, 0.0019706590, 0.0679895952, -0.0820904896, -0.0544301756, -0.0449011177, 0.0691060796, -0.0529729165, -0.0693441629, 0.0037184372, -0.0553693809, -0.0497921593, 0.0522468574, -0.0390279144, 0.0788355544, -0.0356733128, 0.0518052764, 0.0403229967, 0.0512595996, -0.0745304897, -0.0424546674, 0.0184206739, -0.0386163145, -0.0611924268, 0.0195248257, 0.0466645695, 0.0575262830, -0.0657005608, -0.0423087738, 0.0161203444, 0.0478040799, 0.0585890561, -0.0142974043, -0.0732649937, 0.0558824837, 0.0797585547, -0.0823168084, 0.0618054271, -0.0299591105, 0.0737105981, 0.0145161720, -0.0624484979, 0.0098724766, 0.0613215603, 0.0093957605, -0.0417590961, 0.0336274914, -0.0007388555, -0.0448435806, 0.0575590953, -0.0246867612, 0.0663994029, -0.0726588145, 0.0421913043, -0.0303462222, 0.0191923603, 0.0319922678, -0.0279137101, 0.0532259569, 0.0698037967, 0.0296655595, -0.0212000944, -0.0472373515, 0.0652372092, 0.0293473136, -0.0622803643, 0.0190823823, 0.0564256981, 0.0188028365, -0.0573808663, -0.0230987016, -0.0573706962, -0.0578532107, 0.0776657984, 0.0423513837, -0.0131219365, -0.0775288865, -0.0294310078, 0.0496135950, -0.0153365564, 0.0441343598, -0.0227985643, -0.0660052449, -0.0217589065, 0.0505388156, 0.0639185607, 0.0455807485, -0.0656802282, -0.0062706559, -0.0504817143, 0.0341049023, -0.0523347929, -0.0237344503, -0.0428353287, -0.0319195278, -0.0409687199, -0.0388808027, -0.0727086216, 0.0133885471, 0.0486597084, -0.0129062887, -0.0618186891, 0.0575598516, -0.0713512003, 0.0032304465, 0.0668856129, -0.0245499182, 0.0273989160, 0.0253089499, 0.0479154103, 0.0149655491, -0.0558879264, -0.0683270469, -0.0511895642, -0.0613072366, 0.0313248970, 0.0088659180, 0.0424947999, 0.0029172653, 0.0449489802, -0.0533141792, 0.0023355964, -0.0376643129, -0.0161623154, -0.0500523262, -0.0201756451, 0.0465940796, -0.0288178287, 0.0101145403, -0.0498481281, -0.0081189862, -0.0429510511, -0.0639921501, -0.0673402473, 0.0538038537, -0.0697246119, -0.0169902090, -0.0267877337, 0.0829491615, 0.0361134484, -0.0756768882, -0.0774715170, -0.0161841400, 0.0091783842, 0.0218688939, 0.0076250252, -0.0715557337, 0.0246984623, -0.0296400487, -0.0199771114, 0.0518098958, 0.0568515211, -0.0014812177, -0.0643740371, 0.0333859362, 0.0062386380, -0.0016225396, 0.0298000388, 0.0682641864, -0.0004198928, 0.0583722293, 0.0764476433, -0.0406808406, -0.0131114768, 0.0116898231, -0.0599714406, -0.0282684155, 0.0256451480, -0.0034061004, -0.0674543008, 0.0144332321, -0.0711410344, -0.0442203395, 0.0711848736, -0.0351870805, 0.0672189742, 0.0432661921, 0.0209153555, 0.0537659936, -0.0812451914, 0.0721377134, -0.0344464853, -0.0348626710, 0.0577266403, -0.0020276802, 0.0144917341, -0.0698970854, 0.0667713135, -0.0466768779, 0.0583846569, -0.0625788569, -0.0757094398, 0.0190260559, -0.0075407149, -0.0126954578, -0.0651214048, -0.0506393090, -0.0122002447, -0.0065057450, 0.0029343816, 0.0371924564, -0.0805218518, 0.0037496001, -0.0680408925, -0.0002363114, 0.0629225820, 0.0748821795, 0.0531649031, -0.0678493083, -0.0242579170, 0.0415153429, 0.0577549115, -0.0223083869, 0.0168059226, -0.0097514009, 0.0020991559, 0.0055602612, -0.0721985772, 0.0386926383, -0.0130809294, -0.0653541237, -0.0043005035, 0.0608501658, -0.0225666724, 0.0128283957, -0.0442802161, -0.0272336341, 0.0316368453, -0.0680071786, -0.0091073457, -0.0076359925, 0.0292009860, -0.0232812185, -0.0410482846, -0.0427591279, -0.0753448233, 0.0739118606, 0.0670645759, 0.0041909902, -0.0636211410, -0.0507321507, -0.0502215140, 0.0252764747, 0.0284779631, -0.0757668912, -0.0159764383, 0.0381205380, 0.0429080762, 0.0229769200, 0.0815229788, 0.0229274482, -0.0822624341, -0.0377600603, 0.0722052604, -0.0006259450, 0.0254243053, 0.0120132761, 0.0217150170, 0.0299066417, -0.0797660798, 0.0022157221, 0.0478426218, -0.0569533035, 0.0513620712, 0.0747349560, -0.0311523117, -0.0152187981, -0.0699183568, -0.0126890801, 0.0633279756, 0.0537679419, 0.0101194177, 0.0063697877, -0.0438857190, -0.0465325974, 0.0410243720, -0.0434687361, -0.0815316662, 0.0686302483, -0.0469012819, -0.0760571957, 0.0766165331, -0.0156313200, -0.0525369383, -0.0095535144, -0.0256179590, -0.0214057975, -0.0133679239, 0.0777300000, -0.0093970820, 0.0358666405, -0.0647411048, -0.0454986319, -0.0702577457, -0.0258082170, 0.0654603243, -0.0292550847, -0.0509557799, -0.0581330955, 0.0160668492, -0.0228819698, 0.0809895247, 0.0750621855, 0.0445206836, -0.0203739777, 0.0617408864, 0.0827084780, -0.0001499347, -0.0389658883, -0.0751106590, 0.0066765114, 0.0491137728, -0.0347846001, 0.0222256463, -0.0455923714, -0.0237241797, -0.0179494023, -0.0658966899, -0.0235714447, -0.0423430987, 0.0466515571, -0.0302054975, 0.0261434019, 0.0759618953, 0.0507510267, -0.0595227480, 0.0325938314, -0.0747926012, -0.0752550587, -0.0232473165, 0.0223086551, 0.0378435738, -0.0739536658, -0.0105204452, 0.0645985231, -0.0393078066, -0.0455460474, 0.0360467844, 0.0510520749, 0.0790285841, 0.0314549357, 0.0736103579, 0.0540091954, 0.0323668085, 0.0704867542, -0.0615901165, -0.0429951698, 0.0082920669, 0.0089100553, 0.0816656351, -0.0016892269, -0.0373441316, -0.0631370917, 0.0477026105, -0.0226554442, 0.0501524322, 0.0678194910, 0.0426025763, 0.0064393659, -0.0306924433, 0.0207435247, 0.0631337315, -0.0790006295, -0.0637524724, 0.0259220302, 0.0297134127, -0.0832172185, -0.0627580881, -0.0616055243, -0.0505227409, -0.0697370693, 0.0556687713, -0.0108412858, 0.0665201694, 0.0460383371, 0.0669473484, -0.0749345496, 0.0779232308, -0.0682029575, -0.0532651246, 0.0608774163, -0.0489344038, -0.0699164197, -0.0763208047, -0.0206952356, 0.0508839861, -0.0376370251, 0.0619182885, 0.0674201101, 0.0342916027, -0.0609329864, 0.0696195289, 0.0091828350, -0.0816211030, 0.0091523472, 0.0056514260, 0.0316839032, -0.0770023391, -0.0262226555, -0.0125924610, 0.0705534816, -0.0523014255, 0.0685719997, -0.0278369393, -0.0233632252, -0.0446858071, -0.0705187097, -0.0168265272, 0.0003488245, 0.0205705147, 0.0179824531, 0.0752133057, -0.0331143662, -0.0391905829, 0.0216806047, 0.0204587448, -0.0308793541, 0.0578318723, 0.0326389745, 0.0526614636, -0.0127035147, -0.0803324729, 0.0118917432, -0.0306603275, -0.0061871298, -0.0345003903, -0.0634603575, -0.0526869260, -0.0225737263, -0.0011429929, -0.0450088531, -0.0591663718, 0.0451472737, -0.0439881086, -0.0777813643, -0.0380140953, -0.0558072329, -0.0262892526, -0.0121859591, 0.0290788449, 0.0755544305, 0.0599055775, 0.0585890263, -0.0183309708, 0.0196558852, -0.0003724974, 0.0285475720, 0.0626315027, 0.0538228080, -0.0215687267, 0.0060889521, 0.0653888732, -0.0606806614, 0.0571541116, 0.0240272079, 0.0732072219, 0.0030727531, -0.0281646531, 0.0177481472, -0.0768112391, -0.0707057938, 0.0078628175, -0.0381645858, 0.0113147525, 0.0688085854, 0.0568069480, 0.0415433273, 0.0625578016, -0.0129469978, 0.0279912353, -0.0744337216, 0.0582776442, -0.0321667604, 0.0139423013, -0.0664627180, 0.0401887298, 0.0142341536, 0.0235263724, -0.0028018614, 0.0375236422, -0.0678745881, 0.0501094759, 0.0012464958, 0.0056610121, 0.0612765774, 0.0368216112, -0.0588613488, -0.0522910841, 0.0794347972, 0.0392605476, 0.0467965268, 0.0697825328, 0.0719380006, -0.0688471049, 0.0234878790, -0.0236079711, -0.0705910325, -0.0509421080, 0.0383445285, -0.0657900795, 0.0412538610, 0.0336024985, 0.0181400273, 0.0503498986, 0.0701462626, -0.0449367538, -0.0728371665, -0.0064021326, 0.0277958214, 0.0646577775, -0.0300936680, 0.0693193302, 0.0196027961, -0.0833137780, 0.0335219540, -0.0135597605, 0.0363988541, -0.0605862699, -0.0341043472, -0.0272778999, 0.0369497091, 0.0054936931, -0.0600077696, 0.0812449753, -0.0115952017, -0.0133211836, -0.0062912884, 0.0350592099, -0.0762742460, -0.0124710975, -0.0222157128, -0.0805247426, 0.0338820517, 0.0121758478, -0.0570784137, 0.0694958344, -0.0082757361, -0.0525737256, -0.0332144909, -0.0261547156, -0.0367782190, 0.0659337491, 0.0439485312, 0.0288577024, 0.0134039447, 0.0766979977, -0.0432303473, -0.0615513325, -0.0402726308, 0.0383233503, 0.0510442592, 0.0119182272, 0.0655185208, 0.0757366940, -0.0585732721, 0.0547755398, -0.0720634386, 0.0572453663, -0.0692329630, 0.0517470017, 0.0552688092, 0.0066959723, 0.0775837526, -0.0829830915, 0.0072884397, 0.0729143843, 0.0052233478, 0.0429506227, -0.0436131842, 0.0458508916, -0.0394382216, -0.0579863675, 0.0719695240, -0.0738404244, -0.0331107117, 0.0612138845, -0.0761504099, -0.0633267462, -0.0714493096, -0.0141349128, 0.0473770015, -0.0125835305, -0.0100389812, 0.0451959483, -0.0225926507, 0.0520620830, 0.0089074522, -0.0726248175, -0.0815190300, 0.0738200620, -0.0706438944, -0.0622347742, 0.0389625095, -0.0456838720, -0.0525720678, 0.0134171173, 0.0496694446, 0.0033709239, -0.0036858534, -0.0333860554, 0.0632074028, -0.0825824067, 0.0064558364, -0.0657746717, 0.0465804189, -0.0176298246, -0.0831151158, 0.0824030414, 0.0447094105, -0.0442053862, 0.0782597512, -0.0185049046, 0.0308651570, 0.0686321035, -0.0574500374, 0.0006888276, -0.0673135370, -0.0574561097, -0.0232573170, 0.0531080402, 0.0229214076, 0.0714176297, 0.0308188051, -0.0446900576, 0.0406942107, 0.0638791695, -0.0604063161, -0.0720363110, -0.0688874796, -0.0792914480, 0.0727351382, 0.0280681755, -0.0417851508, 0.0199579783, -0.0755617246, 0.0811441317, -0.0587368272, -0.0641200542, 0.0237579551, -0.0069423267, 0.0077945599, 0.0251614787, -0.0776369274, -0.0433705598, -0.0683281422, 0.0153098833, -0.0413505547, 0.0673162565, -0.0708302408, -0.0636336505, 0.0138620334, 0.0284601804, -0.0664380938, 0.0498187728, 0.0098942826, -0.0818975940, -0.0200618394, 0.0803820565, 0.0104645668, -0.0832994133, -0.0063749035, -0.0665627047, -0.0479758494, 0.0602106042, 0.0104994653, -0.0545618013, -0.0748541728, -0.0582653582, -0.0160159077, 0.0576918125, 0.0013122990, -0.0491281599, -0.0170891434, 0.0489760563, -0.0613094419, -0.0248049255, -0.0738472939, 0.0724906698, 0.0351121090, 0.0717067719, -0.0578625202, 0.0203112829, -0.0781569108, 0.0749458671, 0.0534601212, 0.0533263609, 0.0055214292, -0.0425230451, 0.0018186281, 0.0153514864, 0.0724658445, -0.0733734891, -0.0641928911, 0.0157976970, 0.0654720888, -0.0402919240, 0.0243556481, 0.0431521460, 0.0222533830, 0.0529715158, -0.0000829295, -0.0306444541, 0.0705262423, -0.0775533915, 0.0122136557, 0.0702791288, -0.0341119058, -0.0502637289, -0.0255584028, 0.0297793653, -0.0005636684, 0.0119868424, -0.0118074631, -0.0030265995, 0.0034002890, -0.0336120464, 0.0442527719, -0.0774833560, -0.0223998316, 0.0466595851, -0.0712716281, 0.0772033483, 0.0601463877, 0.0005513204, 0.0054678046, 0.0488745123, -0.0567827784, 0.0268266462, -0.0620039701, -0.0811709687, 0.0551438257, -0.0623628944, 0.0174149200, -0.0579474941, -0.0006205111, -0.0356557667, 0.0554552078, -0.0173959564, 0.0689505190, 0.0725725442, -0.0331545100, -0.0103181489, -0.0289948825, 0.0037438085, 0.0777206719, 0.0045237713, -0.0567395240, -0.0781391189, -0.0479308963, 0.0165906306, -0.0356668755, -0.0733756498, -0.0209870785, 0.0518803298, -0.0744623020, -0.0135213351, -0.0742021352, -0.0551597401, -0.0564599298, 0.0812434033, -0.0414144695, -0.0472167470, -0.0094600944, 0.0036194243, -0.0174343307, 0.0000833467, -0.0693602338, -0.0027927221, 0.0553896278, 0.0388359874, -0.0147040850, -0.0630071238, 0.0444295481, 0.0470344760, -0.0162742417, -0.0223117061, -0.0404944904, -0.0454224274, -0.0817370340, 0.0436742902, -0.0219977293, -0.0740966201, -0.0611259975, 0.0223482139, 0.0474581942, 0.0411304496, 0.0139285922, 0.0259016752, 0.0522656627, 0.0243155751, 0.0352699123, 0.0349142216, 0.0825944990, 0.0344747193, -0.0231274813, 0.0153779807, 0.0828490779, -0.0388936363, -0.0826367736, 0.0457315259, 0.0175261423, -0.0010572720, -0.0746345669, 0.0676585287, -0.0626598075, -0.0132669145, 0.0593554080, -0.0770735964, 0.0181675050, 0.0341188982, 0.0521749556, 0.0785240903, 0.0387163311, 0.0609326698, 0.0356936753, -0.0578605123, 0.0050799991, -0.0349235795, -0.0695288256, 0.0598600022, -0.0714631677, 0.0510404520, 0.0651230142, -0.0290807635, 0.0622284189, -0.0468119122, 0.0125688380, -0.0016776439, 0.0234448835, -0.0777647346, -0.0524005890, -0.0377624929, -0.0568370782, 0.0306141544, 0.0160093904, 0.0238847546, 0.0625134259, -0.0630198792, 0.0383066423, 0.0782625005, -0.0376450531, 0.0596437864, -0.0210991837, 0.0583121181, 0.0637520328, -0.0369542688, -0.0816033110, 0.0479980670, 0.0010593977, -0.0301184151, -0.0449165963, -0.0297630336, -0.0807223618, -0.0245092083, -0.0244032908, -0.0169974510, -0.0526176728, 0.0279908869, -0.0551772565, -0.0084768701, -0.0443280488, -0.0782605782, -0.0118182404, 0.0632528588, -0.0639917180, 0.0127650155, -0.0429303683, -0.0784122497, -0.0150709199, -0.0603353456, 0.0131700570, 0.0115920724, 0.0276125390, 0.0018126378, -0.0321801491, -0.0679647401, 0.0245471857, 0.0743511170, 0.0733288154, -0.0090651456, -0.0048266309, -0.0589904524, -0.0127294725, 0.0295629632, -0.0715692341, -0.0382850952, -0.0609040409, 0.0739606991, 0.0256851818, 0.0474118590, -0.0666561276, -0.0041889241, 0.0277534127, -0.0186287630, -0.0446962081, 0.0216870625, 0.0612977892, -0.0148329288, -0.0434958972, 0.0388134867, -0.0585984848, 0.0749171749, -0.0127941621, 0.0116399936, 0.0594361350, -0.0685850456, 0.0250028912, -0.0460071564, -0.0116763422, -0.0330647603, 0.0302707739, 0.0670814663, 0.0577084199, 0.0359914228, 0.0087894863, 0.0252128579, 0.0645968914, 0.0527079850, 0.0478308201, -0.0404495187, -0.0479444861, -0.0323397219, -0.0112786526, -0.0824354962, 0.0366217084, -0.0569725670, 0.0765775144, -0.0342577994, -0.0760085061, -0.0212495066, -0.0102573819, 0.0587112643, -0.0734625980, -0.0394143797, -0.0602346137, 0.0046295887, 0.0741603225, 0.0739897788, -0.0658298284, 0.0150117222, 0.0538944416, -0.0264165476, -0.0099948440, -0.0662899241, 0.0393139459, 0.0586328171, 0.0783789828, -0.0484525748, -0.0107607301, 0.0614129305, 0.0179095864, -0.0693228841, -0.0173762366, 0.0688001513, 0.0407145955, -0.0423842333, -0.0497767329, -0.0628540069, 0.0589624606, -0.0116334772, 0.0164152067, -0.0343135893, 0.0047514699, -0.0122118276, -0.0668529794, 0.0308799297, 0.0285723377, 0.0752988756, 0.0519956425, -0.0570582971, -0.0704796314, -0.0358119905, -0.0220370088, -0.0813337490, -0.0243502054, -0.0504546911, -0.0740840435, 0.0539972745, -0.0614919662, -0.0633717179, 0.0571001507, -0.0206863731, 0.0712625533, 0.0186500624, -0.0573913269, 0.0197824147, -0.0607964620, -0.0504454039, -0.0067557353, -0.0337309651, 0.0126519967, 0.0251611304, -0.0451588854, -0.0548322648, 0.0261016674, 0.0493390709, 0.0690221190, -0.0369930901, -0.0701539144, 0.0289241523, 0.0611993596, 0.0384742171, 0.0175237488, 0.0003752491, 0.0695444867, 0.0652124584, 0.0158645716, -0.0740758255, 0.0309397820, -0.0038853688, -0.0105716949, -0.0469992608, 0.0435281396, -0.0627284646, -0.0661939681, 0.0599786825, -0.0748968720, 0.0638907179, -0.0352249406, 0.0216631107, 0.0320732184, -0.0203811098, 0.0355794542, 0.0443899296, -0.0205193926, -0.0778019428, 0.0096313870, 0.0828222483, 0.0774780959, 0.0702931657, 0.0447750241, 0.0154965045, 0.0313403644, 0.0439313240, 0.0803074613, 0.0618826449, 0.0609784946, -0.0322980396, -0.0189342648, 0.0385274738, -0.0399108827, -0.0476118736, -0.0401951075, -0.0812027231, 0.0124658821, 0.0547930934, -0.0459089763, -0.0556356497, 0.0429270007, -0.0552457795, -0.0054569468, -0.0282340329, 0.0139056742, 0.0056896424, 0.0689772367, -0.0245501176, 0.0526185967, -0.0472535603, -0.0803434104, -0.0632796586, -0.0187674928, 0.0276144259, 0.0072423154, -0.0584347099, -0.0346021801, 0.0155847883, -0.0090542873, 0.0268491860, -0.0681655183, -0.0458747819, 0.0009106452, 0.0105852950, -0.0608132817, -0.0225837100, 0.0465741009, -0.0607215501, 0.0534763262, -0.0318046995, -0.0575078055, 0.0195287801, -0.0369084403, 0.0100596249, -0.0542392619, 0.0562788323, 0.0068684672, 0.0050120600, -0.0767969787, -0.0012413600, 0.0682117790, -0.0503715239, 0.0093857478, -0.0439079218, 0.0256694071, -0.0830196962, -0.0314783007, 0.0520061925, -0.0104201809, -0.0061738584, 0.0575577728, -0.0830607563, -0.0278697014, 0.0752249137, -0.0278878510, -0.0807312727, 0.0016768392, 0.0253317486, 0.0644841418, 0.0784748048, 0.0435297601, -0.0648303851, 0.0710254237, 0.0536578521, -0.0112561816, -0.0647475272, -0.0255877394, 0.0215261299, 0.0609465986, -0.0815108195, -0.0604398437, -0.0162124708, -0.0553587303, -0.0241984613, -0.0830984712, -0.0764175579, -0.0001757732, -0.0265965443, 0.0237136595, -0.0053287479, -0.0414488725, 0.0605285428, 0.0779201686, -0.0417170040, 0.0253941547, 0.0694154128, -0.0375659987, 0.0502272397, -0.0457765646, 0.0556389503, 0.0712809861, -0.0024561561, -0.0278179646, 0.0225350913, -0.0040257475, 0.0470813662, -0.0408378281, 0.0804927200, -0.0776363909, 0.0167412329, 0.0783964843, -0.0182751399, -0.0199199710, 0.0280943401, 0.0036786015, 0.0436708145, -0.0351909548, 0.0106256278, -0.0427800789, -0.0033948154, -0.0750637129, 0.0254330076, -0.0427904055, 0.0795849040, 0.0801169723, -0.0577816367, -0.0368217789, -0.0442232378, -0.0795768052, -0.0302127879, 0.0340832360, 0.0821778774, -0.0494721867, 0.0695114657, -0.0813362300, -0.0115287127, -0.0316487066, -0.0467027277, 0.0289177932, 0.0025958288, -0.0553619303, -0.0095330598, -0.0072748298, -0.0272089187, 0.0249373857, -0.0430002846, 0.0626181066, 0.0164563842, -0.0613685288, -0.0230414122, -0.0128209153, -0.0088705672, 0.0781799033, -0.0248217639, 0.0304748677, -0.0475050621, -0.0768594369, -0.0752518177, 0.0460739620, -0.0509567223, 0.0616644733, 0.0525639020, 0.0001669717, -0.0833230764, -0.0796103030, 0.0106947590, 0.0669742450, -0.0604020022, 0.0661641285, -0.0798005536, -0.0615261607, -0.0024944816, 0.0739640072, 0.0658446774, 0.0805486813, -0.0083778780, -0.0531083606, -0.0061494801, 0.0675322264, 0.0327862874, -0.0618983023, 0.0570914857, -0.0811500177, -0.0613631457, -0.0758875310, -0.0310267750, -0.0602289811, -0.0393006615, -0.0778513700, -0.0801885277, 0.0529763959, -0.0631905943, 0.0075862724, 0.0043329778, -0.0254401397, 0.0005980303, 0.0660836697, -0.0417861044, 0.0041214819, -0.0207234975, 0.0555671267, -0.0752266645, -0.0631008819, -0.0261563957, -0.0657552108, 0.0127927717, -0.0221910663, -0.0188138429, -0.0290144924, -0.0742786601, 0.0257864315, 0.0795209929, -0.0231652204, -0.0007787507, 0.0690843165, -0.0247030929, -0.0664480105, -0.0135106565, 0.0056093456, 0.0313012637, 0.0468099155, -0.0120073548, -0.0658090711, -0.0788000152, -0.0159689784, -0.0369723961, -0.0148600992, -0.0512930080, -0.0242287312, -0.0792370364, 0.0648105741, -0.0255092103, 0.0445551649, 0.0771563277, -0.0744919479, -0.0140181584, -0.0569436178, -0.0606066659, 0.0816474035, 0.0725760013, -0.0639450550, -0.0011466983, 0.0419017896, -0.0796202123, -0.0329770818, -0.0817450210, 0.0326847285, -0.0495264344, 0.0721746311, -0.0807651877, 0.0350647531, 0.0022947972, -0.0706788525, -0.0451953225, 0.0126704443, -0.0427300707, -0.0204942599, 0.0574054532, 0.0452917442, 0.0436525829, -0.0512464270, 0.0527642630, -0.0179637372, 0.0552701280, 0.0642758384, 0.0466859192, 0.0797586888, 0.0286559816, -0.0802788287, 0.0356564038, 0.0495110862, -0.0384205841, 0.0036590116, 0.0051576640, 0.0365225151, -0.0556907840, -0.0433651954, -0.0732207373, 0.0021856716, 0.0389913768, -0.0733714029, 0.0463200696, -0.0094691338, -0.0436553955, 0.0770383701, 0.0617740043, -0.0623514615, -0.0571604408, -0.0324274749, -0.0674084947, -0.0672123656, -0.0162710436, -0.0668571815, -0.0587660819, 0.0066388119, -0.0158181284, -0.0556216650, 0.0776727498, -0.0096686892, -0.0558949895, 0.0552477092, 0.0002763655, -0.0413673520, 0.0532569289, -0.0445661023, 0.0184354652, -0.0005804669, 0.0295633003, -0.0302959364, 0.0235937666, 0.0207346734, -0.0131758293, 0.0713977441, -0.0139655964, -0.0394249000, 0.0628142431, 0.0223154500, -0.0383355096, -0.0548883528, -0.0586903244, 0.0066164699, -0.0721070096, -0.0127197374, -0.0343261138, 0.0043948176, 0.0813405886, -0.0499595106, 0.0764321685, 0.0718124434, -0.0551858284, 0.0614051335, -0.0210368466, -0.0593641326, -0.0041267271, 0.0422206409, 0.0361579619, 0.0288280416, 0.0004917856, -0.0608387925, 0.0611670539, -0.0665286928, 0.0759723186, -0.0487419814, -0.0273474082, -0.0498182662, 0.0562503189, 0.0246407054, 0.0550474450, 0.0441847742, -0.0083358567, 0.0164607149, -0.0439793169, 0.0259884186, 0.0811326206, -0.0131495530, 0.0643455312, 0.0332579724, 0.0725701600, 0.0118407011, 0.0690442771, -0.0254235491, -0.0643391013, -0.0047349893, 0.0350149609, -0.0585801564, 0.0389875025, -0.0584021211, 0.0393802635, 0.0611961223, -0.0098412838, 0.0457961038, 0.0511652566, -0.0821154937, -0.0468909480, -0.0343204439, 0.0044164937, 0.0645210445, 0.0305305198, -0.0608984157, -0.0519732833, -0.0626453757, 0.0736977756, 0.0814823881, -0.0429236516, 0.0491322502, -0.0481933244, 0.0054335524, 0.0030760712, -0.0505928360, 0.0706247911, 0.0162423830, 0.0755829215, 0.0237031095, 0.0765059069, 0.0803966224, 0.0640045702, -0.0590125285, 0.0248599406, -0.0566765629, 0.0557542257, -0.0002194930, -0.0789472088, -0.0230414011, -0.0684776902, 0.0181892905, -0.0186162759, 0.0753045082, -0.0537300706, -0.0218574498, 0.0393616371, -0.0220847521, -0.0355231166, 0.0615362115, 0.0437150598, -0.0488040075, -0.0254965443, 0.0418188982, -0.0754432604, 0.0503210500, -0.0075155119, -0.0043879529, 0.0830466449, -0.0586205088, 0.0562135726, 0.0049129678, 0.0104233101, -0.0342683792, 0.0746526495, 0.0323090069, 0.0052667493, 0.0404912308, 0.0402022898, 0.0520782061, -0.0109083103, 0.0655447990, -0.0229023546, -0.0124233933, -0.0164722577, 0.0397908725, 0.0049614660, 0.0059821010, 0.0088094138, 0.0473330244, -0.0036492068, -0.0811076462, 0.0467040092, -0.0182166584, -0.0305419434, 0.0781040713, 0.0261810906, -0.0515256859, 0.0187455975, 0.0289086942, 0.0823785141, -0.0582996495, 0.0075694839, -0.0543344989, 0.0154102072, -0.0531340986, -0.0226628538, -0.0629126728, -0.0632261485, -0.0797178447, -0.0624325350, -0.0261609945, -0.0153459636, 0.0491547212, 0.0828121006, 0.0440534465, 0.0600049682, -0.0147243403, -0.0152492058, -0.0004977956, -0.0134031996, -0.0690337121, -0.0737564340, -0.0678954795, 0.0271701049, -0.0784580186, 0.0366749056, -0.0194011666, -0.0475654602, -0.0712376088, 0.0423306413, -0.0111308936, -0.0613958426, -0.0662662238, 0.0341379344, -0.0560825355, -0.0272970628, 0.0057535679, 0.0028398591, -0.0617484041, 0.0324787050, -0.0452479050, -0.0393098332, -0.0460688062, 0.0250773281, 0.0325611085, -0.0401378572, 0.0305762459, -0.0802237764, 0.0139782727, 0.0593035445, -0.0749015957, 0.0580039918, 0.0638931319, 0.0597854257, 0.0741928071, 0.0079494910, -0.0309258457, -0.0410981029, -0.0830299258, 0.0170765165, 0.0458575264, -0.0014683333, -0.0512111522, -0.0627372265, 0.0150058614, -0.0710874945, 0.0165291410, 0.0651340336, 0.0531716309, 0.0475558750, -0.0680092648, -0.0521294363, -0.0419378206, 0.0411703549, 0.0732060224, -0.0155850863, 0.0781125724, -0.0653362870, 0.0371487178, 0.0783889219, 0.0575980581, 0.0611708201, 0.0408767909, 0.0072463886, 0.0474139154, -0.0010952498, 0.0646261200, -0.0191704854, -0.0430097431, -0.0420121849, 0.0630459636, 0.0699846968, 0.0575848334, 0.0496664941, 0.0200081263, -0.0314477831, 0.0775725693, 0.0615332536, 0.0703405961, -0.0119852927, 0.0770956725, -0.0234179217, -0.0601255074, 0.0677340701, -0.0817957222, -0.0352346562, 0.0765888095, -0.0544549488, -0.0152672762, -0.0555080660, 0.0247721523, 0.0325773619, -0.0630096495, 0.0326021761, 0.0379299112, 0.0278337393, 0.0413353555, 0.0109723462, -0.0764954463, -0.0057168617, -0.0402429290, -0.0024197875, 0.0466969050, -0.0701111183, 0.0199642070, 0.0286406837, 0.0648549348, -0.0428218283, 0.0472395271, -0.0522946119, 0.0680735856, -0.0768113285, -0.0538338423, -0.0769755989, -0.0424192138, -0.0173838269, -0.0100552738, 0.0730821341, -0.0508746170, 0.0037095658, 0.0162187405, 0.0074638254, -0.0173114967, 0.0516901948, -0.0162310582, 0.0344787724, -0.0284532085, 0.0441745520, -0.0669042245, 0.0759078190, -0.0188521594, -0.0146619743, 0.0619241782, 0.0569030493, -0.0394045226, 0.0819290876, -0.0361630581, 0.0049016629, 0.0125177177, -0.0612026080, -0.0188977662, -0.0168336891, 0.0151030859, -0.0114793601, 0.0041955998, 0.0190831777, 0.0469752289, -0.0506518148, 0.0747713447, 0.0045175026, 0.0069473237, 0.0533072650, -0.0259064734, 0.0533119142, -0.0330766104, -0.0303084236, -0.0516746752, -0.0736509487, 0.0564327501, 0.0361785777, 0.0734397918, -0.0484917127, 0.0527578555, -0.0000394382, 0.0542870536, -0.0029605578, -0.0277580228, 0.0357702672, -0.0496507697, -0.0472709239, 0.0784347430, -0.0308440086, -0.0121698873, 0.0325477086, 0.0532094464, 0.0636105761, 0.0023454311, 0.0747990087, -0.0001726440, 0.0657404959, 0.0815901533, 0.0372820944, -0.0265239049, 0.0818318129, -0.0708777606, 0.0740600079, 0.0679982901, 0.0544893518, -0.0041184518, -0.0565050803, -0.0206565615, 0.0436840467, -0.0030255863, -0.0709552914, 0.0329106599, 0.0308020953, -0.0141763873, 0.0662972555, -0.0605826750, -0.0733631402, -0.0109277619, 0.0578611791, -0.0621589385, -0.0079293447, 0.0187229775, 0.0318718851, 0.0093876850, -0.0189534668, 0.0747443810, 0.0532599203, -0.0382709019, -0.0434425808, -0.0766200200, -0.0190792028, -0.0669911057, 0.0445912145, -0.0385018848, -0.0174020063, -0.0438765883, -0.0393005721, 0.0541265793, 0.0122612696, 0.0725099295, -0.0088873859, -0.0455315150, -0.0203409065, -0.0496511050, 0.0282683354, 0.0741804913, 0.0025692454, -0.0103886202, 0.0163833089, -0.0342020094, 0.0345986150, -0.0604239888, -0.0632276908, -0.0046596695, -0.0655784532, 0.0001027976, 0.0114171533, -0.0483907945, 0.0028086761, 0.0766023621, -0.0358419530, 0.0263729375, -0.0722998902, 0.0821455494, -0.0619995594, 0.0639432147, 0.0699041858, -0.0152661139, -0.0632166564, 0.0344266593, 0.0177218821, 0.0201521218, -0.0365173779, -0.0306053832, 0.0734076649, 0.0051175696, -0.0112298969, 0.0459119454, -0.0753644109, 0.0094111487, 0.0221572109, 0.0726492181, -0.0004395820, 0.0199527629, 0.0331076235, 0.0258615799, 0.0422217138, 0.0363702849, 0.0461307839, 0.0787831619, 0.0777913556, 0.0411155969, -0.0641895235, 0.0642424151, 0.0823252723, 0.0048952154, 0.0177065935, -0.0389190167, -0.0713516623, -0.0220115185, 0.0565738156, -0.0688487142, -0.0599214993, 0.0682597160, -0.0772145614, 0.0787390098, 0.0306042302, -0.0288305338, 0.0588260554, -0.0189385861, 0.0261556208, 0.0306016672, 0.0292414650, 0.0340211168, -0.0358196013, -0.0386487395, 0.0180058479, 0.0753503963, 0.0044637201, 0.0070253457, -0.0163516887, 0.0330496095, 0.0598626956, 0.0568593517, -0.0664610937, -0.0272435080, -0.0524239019, -0.0169685725, -0.0067345463, 0.0533175580, 0.0401822403, 0.0364074782, 0.0513565578, 0.0191538185, 0.0394738130, 0.0678924471, 0.0807356909, 0.0201260243, -0.0349203981, -0.0184113570, 0.0178089254, -0.0027356606, -0.0078047421, 0.0346227251, -0.0657768548, -0.0709946901, 0.0827048272, 0.0307402555, -0.0477129631, 0.0296780877, -0.0064792805, -0.0026909178, 0.0151159409, -0.0814603195, 0.0232984554, -0.0487069152, 0.0403828211, -0.0822710022, -0.0728787556, -0.0192003585, 0.0818727836, 0.0802661926, -0.0123395603, 0.0826148018, 0.0076124188, -0.0571920797, -0.0626586154, 0.0448187552, -0.0769812465, -0.0731455758, -0.0305448938, 0.0112116477, 0.0046673086, 0.0344261229, 0.0525742434, 0.0489019975, -0.0456467383, -0.0351713039, -0.0024502056, -0.0768801197, -0.0421408080, -0.0656117350, 0.0542149618, 0.0040532546, -0.0703954324, -0.0754666850, -0.0761932135, -0.0788408667, -0.0605575219, 0.0611559376, -0.0662085265, -0.0031116549, 0.0600923188, 0.0471159481, -0.0485938564, -0.0063838838, -0.0579598024, -0.0361471660, -0.0416513607, 0.0118734045, 0.0633877292, -0.0830552205, -0.0015133942, -0.0794765130, 0.0220179055, 0.0717684776, -0.0149493665, -0.0255004484, -0.0454989299, -0.0542017482, 0.0555993803, -0.0754681230, -0.0516616218, -0.0193712842, -0.0297255218, -0.0244346038, -0.0431786701, 0.0254635848, 0.0394658558, -0.0279862583, 0.0199773610, 0.0347187966, -0.0511010997, 0.0068324665, -0.0339954272, -0.0827205107, 0.0478447191, 0.0406264216, 0.0074747032, 0.0209592544, -0.0466737784, 0.0245004371, 0.0293372106, -0.0119000971, -0.0704341009, -0.0625897646, 0.0329504982, -0.0768608004, 0.0438520499, 0.0010318407, -0.0438812487, 0.0515266880, 0.0222721882, 0.0515509769, 0.0611657426, 0.0176748447, -0.0567547455, -0.0827977583, -0.0622566417, -0.0457288437, 0.0234473068, -0.0210835375, 0.0009875448, -0.0245418120, -0.0289755203, 0.0372763015, -0.0383776277, -0.0512368120, 0.0792172626, -0.0626730621, -0.0430074260, -0.0302656982, 0.0642441213, -0.0682204440, -0.0526379794, 0.0639160797, 0.0210715570, -0.0463899449, 0.0027406875, 0.0408904701, -0.0168384667, -0.0724858195, -0.0497232489, -0.0817421153, 0.0773042068, 0.0559201352, 0.0733783990, -0.0047136606, -0.0192515291, 0.0500060916, -0.0179653578, 0.0403047688, -0.0796886235, -0.0700057521, -0.0153422887, -0.0660597384, 0.0708321184, -0.0794515833, -0.0206541866, 0.0456172936, 0.0749784410, 0.0241660271, -0.0099020507, 0.0313307084, 0.0280162487, -0.0271429755, 0.0070672776, -0.0044340668, 0.0290133208, 0.0485714749, 0.0812115967, -0.0125313671, -0.0155798215, -0.0100233648, 0.0153196584, 0.0637239516, 0.0601171814, 0.0749201924, 0.0197463538, -0.0287127253, 0.0733369365, -0.0279606786, -0.0454479866, -0.0725849122, -0.0678803176, 0.0303506218, -0.0437243097, 0.0656119585, -0.0037920682, 0.0152830016, 0.0279712081, -0.0638218224, 0.0278798640, -0.0806278884, 0.0348509103, 0.0781786591};

#endif

#endif
