//Numpy array shape [1, 1, 16, 16]
//Min -0.249716818333
//Max 0.249959230423
//Number of zeros 0

#ifndef W8_H_
#define W8_H_

#ifndef __SYNTHESIS__
cell_edges_3_op_1_weight_t w8[256];
#else
cell_edges_3_op_1_weight_t w8[256] = {0.0570938103, -0.1832235456, 0.1039838046, 0.2197240293, -0.0961579010, -0.1219660491, -0.2069514096, 0.2230763882, 0.1447497755, 0.0323833078, -0.1300469339, 0.2128935456, 0.1990242153, -0.1634922773, 0.2176983505, -0.1482527256, -0.0376439281, 0.0946513712, -0.2497168183, -0.0668981299, -0.1142025217, -0.1683840007, 0.0022738164, -0.0667461976, 0.1001634374, 0.1683557481, 0.0331548564, 0.1315471828, 0.1320390999, 0.0711221695, 0.1272061616, -0.0231346525, -0.1923186034, 0.0363393091, 0.2141755223, 0.2044233233, 0.0215136223, 0.0664915666, 0.0670131668, -0.1229572073, 0.1437911689, -0.1083905026, 0.0737957805, -0.0362721048, -0.0398733392, 0.0611990616, 0.0958963633, 0.0871817842, 0.0411824323, 0.0553665683, -0.2240699679, 0.2452203333, -0.1928108484, 0.0421883129, -0.0366041921, 0.2240386456, -0.1095198244, -0.0877285674, 0.0543206595, 0.0770640075, 0.1739722490, -0.1867778450, 0.2107366174, -0.0203755070, 0.0376320668, -0.0855697840, -0.1572607011, 0.0179905295, -0.1209816262, -0.2475439757, -0.0123099070, -0.1318705678, -0.2333590090, 0.0041678338, -0.1454016417, 0.0562907606, 0.0175418872, 0.1157236546, 0.2136899531, 0.0102239633, 0.1344173998, 0.0092829000, 0.1143203303, 0.1500985026, -0.0534074903, -0.0004711128, 0.1611422598, 0.2282045037, 0.1808495075, -0.0735415444, 0.0176667888, -0.1243298054, -0.2269132733, 0.1173976138, 0.0560506769, -0.1361679137, 0.0417892337, -0.1988464445, 0.0351800658, -0.1134011745, 0.2364089638, -0.1333727092, -0.0144646931, -0.0913867280, 0.2464427799, -0.2071042359, -0.1002205387, 0.1942603141, -0.1735422313, -0.0511707775, 0.0038341093, 0.0769054294, 0.1619795263, 0.1440379620, -0.0602725409, 0.1538759470, -0.1695290655, -0.2320196629, -0.0130374376, -0.1332242340, -0.1550819278, 0.1874241084, -0.0154663445, -0.1422762871, 0.0437577851, -0.1326338798, -0.0445214957, 0.2272196114, -0.2447381020, -0.0895217657, -0.1920799464, 0.1256344020, 0.1655857861, 0.0859462470, -0.0646778122, -0.1960754395, 0.0708682537, -0.0394286625, 0.2499592304, -0.2137833834, 0.2068870366, 0.0515977554, -0.0468396880, -0.0178669691, -0.2071716785, -0.1229598299, 0.0931249633, -0.1111326590, -0.0123432260, 0.2420291752, 0.2139213383, 0.1569186300, 0.0866595358, -0.1700851470, 0.1499449015, 0.0382883139, 0.0238823295, 0.0242167991, 0.2468685657, -0.0303226076, -0.0776838362, -0.1562394500, 0.0372072384, 0.0983693451, -0.0161840394, -0.2432784140, -0.1066239476, 0.2368133366, -0.2351778895, -0.0606684312, -0.0256623831, -0.2458896190, 0.2444626093, -0.0570824258, 0.1192713976, -0.1949812472, 0.0883568302, -0.0775449276, 0.1488305628, 0.1774161458, -0.0060362811, 0.2178220004, 0.1565366536, 0.2155743837, -0.1630477756, 0.1070437729, 0.0494908579, 0.0845673010, -0.1031243429, -0.0127617670, -0.1867835969, 0.0531029440, -0.0450613014, -0.0932793096, -0.2218485326, -0.2138166130, -0.1342311054, -0.0330946892, -0.0887609422, 0.0156161897, -0.1801439077, 0.1612359583, -0.0278857742, 0.1817226261, 0.0172270574, -0.1527938992, -0.0439065285, -0.1166738123, -0.0276928060, 0.0167996045, 0.1795757711, -0.1547244191, -0.1781350374, 0.0722296461, -0.1977775991, -0.1641051322, -0.1553010941, 0.0994110480, -0.2066739053, 0.1479365826, -0.0812753811, 0.0691998675, 0.0370725319, 0.1573547870, 0.0130165163, -0.0833608210, 0.0531121828, -0.1438209116, -0.1530133039, -0.2289737016, -0.2360220104, -0.0212362241, 0.0901746675, -0.0385510474, -0.0462369397, 0.1270327419, -0.0229432620, -0.2335363030, 0.2000646740, -0.2385031879, 0.2108379155, -0.0119301081, -0.2272727489, -0.1435582340, 0.0642798319, 0.2311290801, 0.0097944541, -0.0632347614, 0.0041309390, 0.1748443395, -0.0867670625, -0.1114098206, 0.0554250106, 0.1480157375, 0.1997840554, 0.1022203788};

#endif

#endif
