//Numpy array shape [3, 3, 16, 16]
//Min -0.083305254579
//Max 0.083255708218
//Number of zeros 0

#ifndef W15_H_
#define W15_H_

#ifndef __SYNTHESIS__
cell_edges_2_op_1_weight_t w15[2304];
#else
cell_edges_2_op_1_weight_t w15[2304] = {0.0617189109, 0.0235701036, -0.0392830297, 0.0264162589, 0.0729762539, 0.0361805521, 0.0391813554, -0.0687985271, -0.0584047511, -0.0103428438, 0.0820657238, 0.0031040851, -0.0335209779, 0.0389380828, -0.0012344259, 0.0811212063, 0.0690765381, -0.0387068950, -0.0801261812, 0.0265682414, -0.0308110174, 0.0663462356, 0.0470066629, -0.0382349677, 0.0408239998, 0.0305400062, 0.0109220194, -0.0712169334, 0.0759132504, 0.0224889591, 0.0387211293, -0.0139224827, -0.0204677153, 0.0661781281, 0.0156645197, -0.0822821856, -0.0376076289, -0.0207211133, 0.0083842156, -0.0323245935, -0.0497223139, 0.0764021650, 0.0405652374, 0.0126934610, -0.0265855175, -0.0125041483, 0.0320752747, 0.0717149377, 0.0042365976, -0.0598575585, 0.0180239081, 0.0228179451, -0.0527387112, 0.0597745590, 0.0495707989, 0.0666228086, 0.0274919197, 0.0541721247, -0.0181133132, 0.0102788890, -0.0204363540, 0.0717561767, 0.0354525149, -0.0331176147, -0.0550460741, 0.0434395410, 0.0661679506, -0.0508938208, 0.0260191150, 0.0264889169, -0.0216366071, -0.0484751835, 0.0224177316, 0.0495322458, -0.0327548757, -0.0616586804, -0.0072562331, -0.0660047382, 0.0052605406, 0.0509498380, -0.0582116917, -0.0094634024, -0.0055631916, 0.0706704259, -0.0194689073, -0.0615761690, 0.0198301878, 0.0550950617, 0.0633867010, -0.0667042211, 0.0627594069, 0.0017492188, -0.0324514881, 0.0746127665, -0.0247321390, -0.0588128716, 0.0020426707, -0.0402750447, 0.0335184559, 0.0718682855, 0.0433107354, 0.0408881344, -0.0614466257, 0.0015769820, 0.0429804847, 0.0502067618, -0.0411039554, 0.0566358641, 0.0327943042, 0.0480928905, 0.0278851595, 0.0437676795, 0.0832425356, -0.0165712107, -0.0519920290, -0.0086801313, 0.0489587523, 0.0017705372, -0.0438674688, -0.0558306575, -0.0202740524, 0.0164485648, 0.0181813333, -0.0256943423, 0.0274680480, 0.0764301419, -0.0203347281, -0.0741507858, -0.0534847379, 0.0616320372, 0.0784564540, -0.0693999156, -0.0044796243, 0.0402261913, 0.0731802359, 0.0533009283, -0.0827616155, -0.0362663642, 0.0747657269, -0.0038796670, 0.0181834586, 0.0270425715, -0.0399338193, 0.0458820164, 0.0722973794, -0.0509449020, -0.0263767522, -0.0651254207, -0.0510663018, -0.0541527458, -0.0576144978, 0.0780438781, -0.0121514890, 0.0783896372, 0.0736661553, 0.0361731909, 0.0120988283, 0.0541885868, -0.0379266255, 0.0512778200, 0.0081524141, -0.0618637614, 0.0781192034, -0.0276571531, -0.0282086805, -0.0286636110, -0.0323645771, 0.0510083772, 0.0174726080, -0.0549866781, 0.0140988417, -0.0703287646, -0.0355318785, 0.0730148926, -0.0571407303, 0.0596917570, -0.0355901420, 0.0080544455, 0.0391114280, -0.0429675803, -0.0284658130, -0.0200131238, -0.0141709838, -0.0138712032, 0.0317434669, 0.0303237606, -0.0512222461, 0.0313657559, -0.0389452651, -0.0314336866, 0.0754971579, 0.0551673323, 0.0028929070, 0.0083433567, 0.0814679265, -0.0801605359, 0.0477420017, -0.0640016124, -0.0033030345, 0.0794588178, -0.0803254396, -0.0627149343, 0.0022846346, 0.0821844712, 0.0283747986, -0.0342619903, 0.0091057960, 0.0817136541, 0.0631916597, -0.0274144635, -0.0282268710, -0.0115709128, -0.0283492394, 0.0277384520, -0.0174472257, -0.0799240917, 0.0609152243, 0.0780864805, 0.0483281799, 0.0687832087, 0.0516061299, 0.0049211634, -0.0728089586, 0.0158781409, 0.0151268085, 0.0151769454, 0.0366697982, 0.0666321442, -0.0628394559, 0.0005569927, -0.0231461171, 0.0194254257, 0.0792564899, 0.0138967438, -0.0595346987, 0.0761849508, -0.0318429656, -0.0782604665, -0.0735415146, 0.0626036003, 0.0795304403, 0.0047725104, -0.0171768907, 0.0443037227, -0.0234032199, 0.0531590842, -0.0228595193, -0.0300099049, -0.0400553346, 0.0374482125, -0.0498930514, -0.0045458945, -0.0171166304, 0.0168175455, -0.0752518177, 0.0196007602, 0.0059232912, 0.0649382621, 0.0177926626, 0.0701768324, 0.0629707351, 0.0450219251, -0.0158921275, -0.0142425476, 0.0070783142, -0.0462646782, 0.0351258069, 0.0458045378, -0.0638288856, -0.0443229750, -0.0387418121, 0.0245667957, -0.0608005859, -0.0584479719, 0.0779750869, 0.0541559123, -0.0762925446, 0.0628831834, 0.0749995708, -0.0589131378, 0.0145967379, 0.0035289051, -0.0078316536, 0.0137785878, 0.0184597839, 0.0567953549, -0.0490882844, -0.0034024746, -0.0827473402, -0.0772971958, 0.0745215565, -0.0719276220, 0.0102535477, -0.0158185065, -0.0761306658, 0.0438703895, -0.0795205459, 0.0702619553, -0.0587303489, 0.0034312732, -0.0591113418, -0.0229166597, 0.0484451838, -0.0261764619, -0.0823430344, -0.0250709113, 0.0769040734, 0.0192023944, -0.0343140364, -0.0538236797, -0.0126423407, 0.0338470563, -0.0106580723, -0.0256333165, -0.0167847741, 0.0501241386, -0.0725472718, 0.0321647413, 0.0526900440, 0.0454071388, -0.0370647758, 0.0196689386, 0.0610402450, -0.0091573140, -0.0545727797, 0.0497173481, -0.0169133414, -0.0257613081, -0.0103845373, 0.0533156916, 0.0429677218, 0.0717115253, 0.0418250673, 0.0789183304, 0.0333791599, -0.0144900354, -0.0004174887, 0.0626395717, -0.0736747086, 0.0237456374, 0.0515271053, 0.0315810964, -0.0500780530, -0.0559628196, -0.0102364607, -0.0170079414, -0.0105614336, 0.0089085251, 0.0827923864, 0.0751052946, 0.0109145790, -0.0820459202, 0.0208854526, -0.0346216001, 0.0240577739, -0.0264726952, -0.0744358599, -0.0625751317, 0.0713862181, -0.0482603200, 0.0059437258, 0.0674949661, -0.0764337704, 0.0270776581, 0.0602933727, 0.0817995742, -0.0679690987, 0.0561085232, 0.0680429339, -0.0484729968, 0.0028727408, 0.0348006934, -0.0651322752, 0.0502308160, -0.0455512442, -0.0070159486, -0.0595948622, 0.0303941239, -0.0356403291, -0.0435550399, -0.0383319408, 0.0631286576, -0.0782615095, 0.0754869059, -0.0303030498, 0.0166911539, 0.0402539372, -0.0306549035, -0.0246828273, -0.0221147444, 0.0085013676, -0.0777506977, -0.0806506947, 0.0287008453, 0.0563579574, -0.0659633279, 0.0487242304, -0.0729421526, -0.0727050528, 0.0192863178, 0.0702871010, 0.0397974476, -0.0725790933, -0.0549045727, 0.0424539633, 0.0243614409, 0.0786852166, -0.0695948675, 0.0702989325, 0.0473730564, 0.0178302135, 0.0543774739, 0.0773933232, -0.0168275591, 0.0405141488, 0.0497331135, 0.0076655066, -0.0049842843, 0.0466470160, 0.0272260047, -0.0249878913, -0.0624048486, -0.0118879480, 0.0504686311, -0.0245555602, -0.0322041921, 0.0400690325, -0.0327521041, -0.0559086911, 0.0214552898, 0.0181606691, 0.0454967432, -0.0079490244, -0.0624221712, 0.0403832495, 0.0338929184, -0.0514676310, 0.0729548708, 0.0469706208, 0.0347616524, 0.0438910723, 0.0081868861, -0.0806519836, -0.0636630356, -0.0405984670, 0.0114311213, -0.0575496480, 0.0427413359, 0.0718928874, -0.0076915734, 0.0099980924, -0.0278042462, -0.0595708601, -0.0350834280, -0.0570413098, 0.0396249704, -0.0781459287, 0.0138735175, -0.0814660192, 0.0376327336, -0.0256761219, -0.0617543869, 0.0375284292, -0.0373705178, -0.0305913463, 0.0709218383, 0.0314072706, 0.0427793041, -0.0686369389, -0.0309122056, 0.0073907110, 0.0242835674, -0.0356962085, 0.0530788936, 0.0083251577, 0.0566956550, 0.0799473673, 0.0523058660, 0.0763520077, 0.0293161105, 0.0818252265, -0.0664491802, 0.0655360743, 0.0582500100, -0.0457797348, 0.0790634304, -0.0121932710, -0.0055045211, 0.0655157715, 0.0564421266, 0.0017964850, 0.0413824432, -0.0589046031, -0.0541600958, 0.0402017832, -0.0391915254, -0.0461340733, -0.0807041004, -0.0422208682, -0.0569836535, 0.0823343918, -0.0778365284, -0.0720825419, -0.0441949554, -0.0730296746, 0.0513061099, 0.0053012702, 0.0621544980, -0.0732378736, 0.0388006940, -0.0443215147, 0.0629433766, 0.0090283696, 0.0789908841, 0.0107547995, 0.0713982135, -0.0035653035, -0.0075162970, 0.0790664405, -0.0750555471, -0.0810918957, 0.0019313298, -0.0315634459, 0.0809591264, -0.0473744683, -0.0489012823, -0.0343176611, 0.0252766833, 0.0419744961, -0.0214304943, 0.0401379056, -0.0760212839, 0.0422791913, 0.0333880521, -0.0606118999, -0.0218886435, 0.0210659038, 0.0255782716, 0.0747761503, 0.0018483904, 0.0461135693, -0.0389637128, 0.0743486881, 0.0613526851, 0.0000055730, 0.0638569891, -0.0235063452, -0.0017420463, -0.0809836164, -0.0275637135, 0.0743152648, 0.0534292161, 0.0690110326, 0.0064372499, 0.0641683936, 0.0789348707, 0.0113976235, -0.0077278526, 0.0530449189, -0.0574059710, -0.0003125155, -0.0329184309, -0.0372236818, -0.0229283608, 0.0404659808, 0.0281356052, 0.0202529524, 0.0797182396, 0.0072259940, 0.0304440521, 0.0378917269, 0.0325173102, 0.0419292450, 0.0514418706, -0.0391987488, -0.0247877091, -0.0747344643, -0.0607310683, 0.0016519544, 0.0594475679, -0.0293310508, 0.0455221049, -0.0438241661, 0.0380274355, -0.0614527762, 0.0497082956, 0.0720603094, 0.0338396952, -0.0258856211, -0.0244447552, -0.0533864498, -0.0590039752, -0.0183818135, -0.0256298296, -0.0827843770, 0.0136335315, 0.0450213961, -0.0317714326, 0.0389938913, 0.0738711208, 0.0013067260, -0.0373531505, -0.0718783587, 0.0450311042, 0.0218221042, 0.0708726496, 0.0330155157, 0.0084379194, 0.0104518216, 0.0064601577, 0.0167936943, -0.0299297385, -0.0682846606, -0.0418216884, 0.0226161238, -0.0150190433, -0.0245725587, 0.0815029815, 0.0498514287, -0.0722958818, -0.0224910155, 0.0320002846, 0.0266438778, -0.0712863803, -0.0305177532, -0.0800898671, 0.0691080391, 0.0768412501, 0.0002569643, -0.0299849603, -0.0709701031, -0.0789644793, 0.0618263371, 0.0050981287, -0.0556325726, 0.0328306109, -0.0465675630, 0.0792957097, -0.0100746946, -0.0404218212, 0.0529131144, -0.0024968460, -0.0724481270, 0.0338559449, 0.0711162239, 0.0119408472, -0.0543168448, -0.0088741835, 0.0396635458, -0.0235577449, -0.0628121272, -0.0210826434, -0.0428713188, -0.0195653457, -0.0556971841, -0.0229780413, -0.0168843232, -0.0565151721, -0.0392081365, -0.0241613369, 0.0009510767, 0.0339910276, -0.0431890637, -0.0001185034, 0.0564157143, 0.0319552533, -0.0210753717, 0.0826544687, 0.0128848711, 0.0006167560, -0.0657957196, 0.0504842065, 0.0065609585, 0.0305213798, -0.0083780466, 0.0110610574, 0.0808362216, 0.0065789092, 0.0068219760, -0.0211148299, -0.0520734787, -0.0738953426, 0.0521289110, 0.0645267069, -0.0559760518, -0.0130633358, -0.0718163848, -0.0432342812, -0.0153956534, 0.0503884815, -0.0170502402, -0.0007190569, 0.0295573603, 0.0215510540, 0.0374166220, 0.0390723273, 0.0532482378, -0.0251636542, 0.0576238558, -0.0390076414, -0.0053774645, -0.0078255245, 0.0332724564, 0.0152302515, -0.0249133259, 0.0308146831, 0.0272356216, -0.0713235587, -0.0514313914, -0.0115969796, 0.0004486717, 0.0236542225, -0.0364205614, 0.0807216913, -0.0487593636, -0.0713377520, 0.0583195984, -0.0219833646, -0.0401940234, 0.0202378817, -0.0515766069, -0.0378671996, -0.0547594354, 0.0803629309, 0.0573174767, 0.0217617974, 0.0341389254, 0.0225971807, -0.0268446170, 0.0561500490, -0.0663900748, -0.0278887153, -0.0722358972, -0.0198518839, -0.0354782157, -0.0608374625, -0.0695143864, 0.0443118960, 0.0130428718, -0.0483185016, -0.0286792982, 0.0147717455, 0.0341131091, -0.0007412694, 0.0274972245, -0.0504798256, -0.0259109531, 0.0716100931, -0.0336162969, 0.0062036999, -0.0579298735, 0.0217434093, -0.0050617503, 0.0539869033, -0.0282817073, -0.0797465444, 0.0239272229, 0.0729298666, 0.0302988179, -0.0554942489, 0.0341256857, -0.0815387890, 0.0030750777, -0.0161200371, 0.0065541836, 0.0114525873, 0.0195499770, -0.0501342118, 0.0151496474, 0.0832557082, -0.0154870972, 0.0312652439, 0.0078439321, 0.0452896096, 0.0518125482, 0.0366667993, -0.0822842941, -0.0481331721, 0.0489421636, 0.0234937891, 0.0016271390, 0.0228895582, 0.0306740180, 0.0106580919, -0.0199410710, 0.0757337213, 0.0361179672, 0.0096897203, 0.0367446803, 0.0323742591, -0.0710130930, -0.0231346134, 0.0459617376, -0.0239978526, -0.0217810478, 0.0263474062, 0.0225123521, -0.0832683742, -0.0722454265, -0.0232912432, 0.0439768732, -0.0739481524, -0.0299646650, 0.0581526235, 0.0375318676, -0.0610136129, 0.0556250028, 0.0644270778, -0.0157806799, 0.0023977139, 0.0113671953, -0.0809938759, 0.0078586750, 0.0092658931, -0.0573884062, 0.0531166829, 0.0579335578, 0.0007911086, 0.0369747430, -0.0064601083, 0.0539806075, -0.0370632932, 0.0214196369, 0.0211769473, -0.0437606871, 0.0055184686, -0.0499043651, -0.0691677108, -0.0801699534, 0.0301536415, 0.0618339293, 0.0679785609, -0.0650532544, -0.0568660162, -0.0133055877, 0.0106615992, -0.0123153711, -0.0573806576, 0.0780337378, -0.0312240645, -0.0373352021, 0.0583654419, 0.0663838238, 0.0211657323, 0.0561614633, -0.0252523553, -0.0805102587, -0.0068081082, -0.0619658343, -0.0826242715, -0.0606287494, 0.0092452802, 0.0794417337, -0.0365421735, 0.0729875118, -0.0301126819, 0.0061370721, 0.0275994260, -0.0606973805, 0.0597688481, -0.0802817494, 0.0314920098, -0.0044530905, -0.0628796518, 0.0655042082, -0.0697329640, 0.0657368228, 0.0378824659, 0.0223044232, -0.0359803140, 0.0211801864, -0.0638356134, 0.0167425536, -0.0399410017, -0.0069971234, -0.0769284368, 0.0447892211, -0.0695238486, 0.0518648699, -0.0636971518, -0.0759083331, -0.0005770595, 0.0550551154, 0.0327227265, -0.0101580610, 0.0057569453, -0.0824703649, -0.0052500307, 0.0823006704, -0.0492679998, 0.0723265782, 0.0563268438, -0.0689845532, 0.0309978966, -0.0480395742, 0.0026587513, -0.0801951662, 0.0414875075, -0.0688651055, -0.0792831331, 0.0208741780, 0.0208839327, -0.0003867329, -0.0824619606, 0.0153349275, -0.0514935590, 0.0521833003, -0.0450543687, 0.0356885120, 0.0460432470, 0.0619714670, 0.0037265036, -0.0193982050, -0.0790719166, -0.0683232397, 0.0762854517, -0.0555035174, -0.0131060034, 0.0828751177, 0.0577813163, -0.0139444070, 0.0070833908, -0.0446202233, 0.0243467782, -0.0198226180, 0.0826755315, 0.0594891831, 0.0003018762, 0.0396897309, 0.0018738514, 0.0584339835, 0.0607962236, 0.0676471740, -0.0730602518, -0.0091830930, 0.0508263670, 0.0755147561, 0.0064768568, 0.0501300395, 0.0290010609, 0.0682495385, 0.0281140879, 0.0234164316, -0.0512813367, 0.0111824814, 0.0098021934, -0.0587964691, -0.0533871464, -0.0381782763, -0.0782726780, -0.0455228426, -0.0523911007, 0.0669009909, -0.0043432596, -0.0646084771, 0.0503225997, -0.0815922022, -0.0076507051, -0.0155832684, -0.0359822512, -0.0828779489, 0.0311481692, -0.0369564444, 0.0807536915, 0.0215701088, -0.0077998247, -0.0110114664, 0.0168127771, 0.0279062185, -0.0475205295, -0.0037714650, 0.0324248821, 0.0374381281, 0.0679987073, -0.0482374318, -0.0786878914, -0.0000833964, -0.0091430889, 0.0327124745, 0.0207232889, -0.0471981317, -0.0552729405, -0.0484511741, -0.0327738672, 0.0719021112, 0.0475486033, -0.0501200147, -0.0396373086, -0.0079715056, 0.0454765484, 0.0272069816, 0.0295420215, -0.0833052546, 0.0713520646, -0.0188690275, -0.0166654252, 0.0350052267, -0.0772199482, 0.0132621862, 0.0625257567, -0.0737504512, 0.0092803277, -0.0548726469, 0.0150610851, -0.0716076195, 0.0007400575, 0.0763394758, 0.0389880911, -0.0094982116, -0.0110647334, 0.0748923272, -0.0525465347, 0.0814655721, -0.0663627312, -0.0507113487, 0.0656825900, -0.0812097490, -0.0304904953, -0.0636729375, 0.0499508269, 0.0466405191, 0.0541924201, -0.0667849407, 0.0590026043, 0.0485397838, -0.0477426648, 0.0016251622, 0.0010755506, -0.0313108899, -0.0243464001, -0.0188248213, 0.0213622488, -0.0572075583, 0.0752946436, -0.0314963199, 0.0501262248, -0.0703309700, -0.0175183732, -0.0631969944, -0.0204067994, -0.0241039284, -0.0073502888, 0.0421266332, -0.0572518446, -0.0519138463, -0.0801699013, 0.0380727537, 0.0015695513, -0.0723895282, 0.0662009642, 0.0114610912, 0.0774787590, -0.0335443057, 0.0310256723, -0.0671339184, 0.0134250745, -0.0637020469, -0.0739662722, 0.0807767808, -0.0494463593, -0.0208280645, -0.0564360470, -0.0709026605, 0.0495491140, -0.0063342834, -0.0357296094, -0.0518913344, -0.0483685508, -0.0434838571, -0.0448930524, -0.0398545153, -0.0582913756, 0.0718127340, -0.0537522733, 0.0670829341, 0.0562682003, 0.0518369265, 0.0772099942, 0.0811681226, 0.0301259253, 0.0083926199, 0.0109720575, -0.0507999808, -0.0667304173, -0.0075262408, -0.0207362324, -0.0637559369, -0.0516042523, 0.0480814055, 0.0010451722, -0.0005174353, 0.0633193552, -0.0137952678, 0.0725613385, 0.0806155652, 0.0289653689, -0.0246194862, 0.0516937487, 0.0159584284, 0.0364413746, 0.0306493212, 0.0263680499, 0.0750466287, 0.0131940385, -0.0146162575, -0.0131858820, -0.0029902807, 0.0500279963, -0.0011740369, 0.0658482313, 0.0636759698, -0.0589846112, -0.0818460956, -0.0687913150, -0.0344489813, -0.0807060078, 0.0038641400, -0.0594263785, -0.0823547542, 0.0267437752, 0.0382978804, -0.0243453663, 0.0185044482, -0.0057822973, 0.0076355850, -0.0103797000, -0.0049641882, -0.0799191892, 0.0379972048, -0.0675088689, 0.0006191700, 0.0315323919, 0.0418970510, 0.0114343399, -0.0465870164, -0.0170567371, -0.0268125590, -0.0057306201, -0.0433949083, 0.0218786299, -0.0180794485, 0.0421474762, 0.0627189428, -0.0608392097, 0.0390288606, -0.0368345417, -0.0278381612, 0.0454333462, -0.0320331641, 0.0287637170, -0.0070519294, -0.0306600705, -0.0799488500, 0.0475624613, 0.0118915346, -0.0368120447, -0.0492748357, -0.0175838899, 0.0618773587, -0.0412141941, 0.0694035217, -0.0347471572, 0.0111434199, -0.0326226726, 0.0741782188, -0.0391277187, -0.0701278225, -0.0221725293, 0.0318389237, 0.0256037619, 0.0611578077, 0.0732996017, 0.0090114130, 0.0366396680, 0.0283463672, -0.0373537689, -0.0093583893, -0.0724029168, 0.0608344823, -0.0669685230, -0.0146299070, -0.0121469097, 0.0273048412, -0.0323821157, -0.0315895826, -0.0729712322, 0.0363791063, -0.0422183461, 0.0474766716, 0.0271829795, -0.0737726167, 0.0081079397, -0.0295760930, 0.0517404564, -0.0633537397, -0.0673718303, 0.0421593264, 0.0222995467, 0.0545715168, -0.0631646365, 0.0203131009, -0.0759341493, 0.0256106462, 0.0148720797, -0.0476069748, 0.0118711693, -0.0261202846, -0.0051436168, -0.0528652407, 0.0362757333, 0.0025666824, 0.0294304211, -0.0134128556, 0.0145468982, -0.0770152360, 0.0704692304, 0.0522276834, -0.0381406955, 0.0404697843, 0.0653001219, 0.0543211773, 0.0481291190, 0.0419715568, 0.0818403661, 0.0542861409, -0.0450496487, 0.0641324893, 0.0054205386, -0.0827868134, -0.0380284898, -0.0722413883, -0.0270349924, 0.0297609773, 0.0410049707, 0.0067077740, -0.0681817085, -0.0477829501, 0.0165534690, 0.0099134846, 0.0751434639, -0.0333317257, 0.0388131104, 0.0283648446, -0.0388292037, 0.0159883890, 0.0062029548, 0.0757691786, -0.0503126457, -0.0211472046, 0.0814418569, -0.0451312698, 0.0240866225, 0.0154388370, 0.0642810091, 0.0232016090, 0.0124426065, 0.0709047765, -0.0050864662, 0.0408853032, -0.0518066175, 0.0361732133, 0.0123557728, -0.0516250171, -0.0566139594, 0.0377149396, -0.0821230784, 0.0210148059, 0.0062823775, -0.0061796596, -0.0465541333, 0.0148705095, -0.0378153212, 0.0206373110, 0.0538619384, 0.0139418542, 0.0057066693, 0.0816563368, -0.0783420131, -0.0514124446, 0.0334747545, -0.0540546067, -0.0603208914, 0.0049739829, 0.0097329337, -0.0206629299, 0.0604022630, 0.0336978845, 0.0683016554, 0.0585860871, 0.0774893165, 0.0279445350, -0.0502256230, 0.0279159844, 0.0390044898, 0.0761434659, 0.0465679318, 0.0532207191, -0.0393119268, -0.0757392943, 0.0250170883, 0.0673557445, -0.0754030645, -0.0532890856, -0.0419643335, -0.0128078712, -0.0754576027, 0.0593852028, 0.0030416199, 0.0780398846, -0.0292611644, 0.0550123192, 0.0738327652, 0.0639756545, 0.0715939254, -0.0653421506, -0.0257197134, 0.0629217997, 0.0105237430, 0.0674600825, -0.0053159529, 0.0521815717, 0.0481940396, -0.0178842247, -0.0288613681, -0.0047496222, -0.0066438583, 0.0649334118, -0.0738752633, -0.0548533350, 0.0060848887, 0.0773227066, -0.0153288972, 0.0501222424, 0.0262793470, 0.0444656685, 0.0276909284, -0.0513930544, -0.0375897698, 0.0271820258, 0.0072825588, 0.0803909674, -0.0099810157, -0.0743912235, 0.0578994639, 0.0322358310, 0.0720640346, 0.0397244804, -0.0171595756, 0.0582114831, 0.0687404051, -0.0807669163, 0.0496733896, 0.0639099851, 0.0092967087, 0.0653040707, 0.0738556236, -0.0508279949, -0.0179855134, 0.0032299797, -0.0178572144, -0.0249488410, -0.0290935189, -0.0267795175, -0.0181922708, 0.0018530693, 0.0068800901, -0.0824064612, -0.0571190640, -0.0207697004, -0.0569813363, 0.0416897535, -0.0316397734, 0.0261388905, 0.0269141756, -0.0454152860, -0.0103543876, -0.0230151266, -0.0692918897, 0.0193303954, -0.0124958130, -0.0252646934, -0.0383818112, -0.0486887284, 0.0812930763, 0.0233545732, 0.0239942875, -0.0132921273, -0.0790803507, 0.0718739182, 0.0425632559, 0.0125376256, 0.0715829059, -0.0364037640, -0.0425080024, -0.0099078026, 0.0077019646, -0.0692774132, 0.0615393631, 0.0348805450, 0.0791678056, 0.0334051959, 0.0120967226, -0.0783231184, -0.0740748942, -0.0023075226, 0.0679288805, -0.0441860147, 0.0060479240, 0.0350243896, 0.0334531777, -0.0509754159, 0.0420419760, 0.0235355720, 0.0088616759, 0.0367685035, 0.0308091585, -0.0640289113, 0.0382998101, -0.0080032153, -0.0262724534, 0.0224347003, 0.0060427682, 0.0252030324, 0.0645200089, -0.0496453457, -0.0570839457, 0.0048930896, -0.0725892112, 0.0665547401, -0.0765637755, -0.0198860783, -0.0045284699, 0.0062638507, 0.0213666204, -0.0092422301, 0.0247046016, 0.0423492379, 0.0152256023, -0.0445464030, 0.0129243191, 0.0531183444, 0.0449520499, -0.0430292822, -0.0315884203, 0.0338403918, -0.0237267911, 0.0295064282, -0.0084019583, 0.0268015023, -0.0603390299, -0.0461513996, -0.0057159676, -0.0467988588, 0.0560356379, 0.0425816737, 0.0731354803, 0.0529466309, 0.0342097357, 0.0212621335, 0.0117552690, -0.0651658922, 0.0557057150, -0.0537964106, 0.0789097622, 0.0687197447, 0.0186431073, 0.0355410986, -0.0672839209, 0.0261064861, 0.0751722381, -0.0185464583, 0.0030911909, 0.0829788446, -0.0258902404, -0.0769558996, 0.0490608066, 0.0376784503, 0.0581547394, 0.0351294428, -0.0760842040, -0.0401900597, -0.0671548918, 0.0347799212, -0.0642246008, -0.0275072083, 0.0751262605, 0.0474101305, 0.0677995160, -0.0404290631, 0.0298517551, -0.0791304260, 0.0402753428, -0.0671386495, 0.0453132503, 0.0576371588, 0.0490014292, -0.0236070380, 0.0316275544, 0.0477970764, 0.0314757749, 0.0660169050, -0.0459192879, -0.0746561885, -0.0083542848, -0.0640365258, -0.0403864868, 0.0288594104, 0.0649136156, -0.0715949237, 0.0146870082, 0.0633568168, 0.0650852248, 0.0649183318, 0.0104975281, -0.0110415369, 0.0643615052, 0.0396461003, -0.0588858165, -0.0013717146, -0.0461270697, 0.0439361632, 0.0387372226, 0.0031296157, 0.0639146194, 0.0707883760, 0.0212023687, 0.0400139093, 0.0682182088, 0.0694334581, -0.0350151993, 0.0170778483, -0.0631036758, -0.0767018348, -0.0133550791, -0.0212851595, -0.0445140861, -0.0763083398, -0.0171209909, -0.0710463077, 0.0431068167, 0.0288143028, -0.0329129361, -0.0479380004, -0.0138269076, -0.0452925600, -0.0801136196, -0.0140135689, 0.0240628105, 0.0142506640, -0.0804783553, 0.0350397192, 0.0337105915, -0.0033867985, -0.0185251702, 0.0052434839, -0.0806332231, 0.0828227326, 0.0065343156, 0.0747452080, 0.0728269070, 0.0032095748, -0.0606604256, -0.0359690599, 0.0090493802, 0.0044251261, -0.0785963088, -0.0065383092, 0.0416008644, 0.0335370637, 0.0754837468, 0.0819063708, 0.0613960437, 0.0396597795, -0.0384987444, -0.0653902739, -0.0541104153, -0.0478030965, 0.0019283695, -0.0575834922, 0.0069503933, 0.0803562850, -0.0238870196, 0.0052536866, 0.0018264857, 0.0005406213, -0.0232807323, -0.0181047413, -0.0626642257, -0.0457088761, 0.0756433606, -0.0023067775, -0.0495848656, 0.0284968875, 0.0647250414, -0.0645774975, -0.0106324917, 0.0184926055, -0.0391693525, 0.0103408573, 0.0496483259, 0.0794046745, 0.0686915517, 0.0206581112, 0.0725910142, 0.0381255746, 0.0242056046, -0.0541168340, 0.0684166923, 0.0691650584, 0.0189514514, -0.0329933017, 0.0334646031, 0.0447080992, 0.0300387628, -0.0705740079, 0.0039834478, -0.0503770262, 0.0020071764, 0.0322531648, 0.0199784730, -0.0516603403, 0.0364194587, -0.0042164116, -0.0189541131, 0.0490681678, 0.0029195102, -0.0100629823, -0.0328289047, 0.0539787002, 0.0474758744, 0.0228630770, 0.0564329699, -0.0117376363, 0.0519500673, -0.0449192300, -0.0435337611, -0.0572051331, -0.0540974401, -0.0806409270, 0.0762850344, -0.0151837207, 0.0575423166, -0.0518207550, 0.0467301644, -0.0319484659, -0.0815829113, 0.0336713009, -0.0377587080, -0.0099657374, 0.0613987446, 0.0032113432, -0.0408483483, 0.0771996230, -0.0158064980, -0.0159537289, 0.0002110987, 0.0361517444, -0.0458276644, -0.0327574164, -0.0478175804, 0.0060853758, 0.0538030267, -0.0679374486, 0.0437984057, -0.0220957901, -0.0153652551, -0.0560478270, 0.0390026532, -0.0807341412, 0.0100214276, -0.0371757187, 0.0102220168, -0.0542242788, 0.0573529527, 0.0584475845, 0.0141994944, -0.0393281616, -0.0040097833, 0.0448952764, -0.0346537381, -0.0790937468, -0.0445729271, 0.0696063116, 0.0549944676, 0.0021424287, -0.0314602703, -0.0022229939, -0.0763150454, -0.0183925312, -0.0269719101, 0.0768650472, -0.0649271458, -0.0675879344, 0.0323992446, 0.0627625883, 0.0629435480, 0.0493358225, -0.0030700015, -0.0221693106, -0.0689572394, -0.0424557216, 0.0828295872, -0.0140299397, 0.0583613589, 0.0640321448, -0.0673816353, -0.0699560642, 0.0111639239, 0.0801620558, 0.0142805660, 0.0031281356, 0.0163299218, 0.0409502126, 0.0150161330, -0.0790176615, 0.0205023754, 0.0662955195, 0.0305630136, -0.0210908595, 0.0164402910, 0.0320910215, -0.0135102887, 0.0248257462, -0.0234782118, -0.0008336363, -0.0533412918, -0.0179629922, 0.0401088484, -0.0564566515, 0.0501659103, 0.0481044911, -0.0295103118, 0.0448517650, 0.0323814228, 0.0214445814, -0.0195451286, -0.0073397388, -0.0517241545, 0.0446954742, -0.0823887810, 0.0653685778, -0.0276450925, -0.0017229829, 0.0554535799, -0.0481339879, 0.0681718960, -0.0397318117, -0.0581104532, -0.0111787459, 0.0170740820, -0.0317625999, -0.0626959056, -0.0239587724, 0.0744463503, 0.0534031987, 0.0271026529, -0.0342265964, 0.0282987040, 0.0380707085, -0.0339614935, -0.0173875522, -0.0309296492, -0.0542718843, -0.0442295969, 0.0098245945, 0.0248122662, -0.0654409826, -0.0237246864, -0.0025208567, 0.0115221459, -0.0648327172, -0.0593159199, -0.0372249819, -0.0413463227, -0.0397769623, 0.0419277474, -0.0229599029, 0.0056451675, 0.0524563044, -0.0531402491, -0.0367638357, -0.0617639422, -0.0638352856, -0.0132383741, 0.0713239461, -0.0633554459, -0.0215010159, -0.0685374141, -0.0068299929, 0.0326343626, 0.0787869170, 0.0784478933, 0.0207281373, 0.0668669194, -0.0177679770, -0.0048816758, 0.0142394779, 0.0376896858, 0.0575865321, -0.0260408707, 0.0133095905, -0.0286601651, -0.0309213847, -0.0187567938, -0.0543111637, 0.0523696728, 0.0538146496, -0.0478235297, 0.0379230082, 0.0684961826, 0.0134972651, 0.0803051889, -0.0529465340, -0.0731048509, -0.0236703455, -0.0172796398, -0.0590883233, -0.0047609969, -0.0798647404, 0.0002072344, -0.0210717265, 0.0645383671, -0.0122370310, 0.0760265812, -0.0279537737, -0.0089602526, 0.0137940161, 0.0350558907, 0.0456136502, 0.0498766713, 0.0363662504, -0.0483255945, -0.0562260896, -0.0586779676, -0.0231875926, -0.0386707634, 0.0177169442, -0.0482413732, 0.0532043204, 0.0320416503, 0.0565793365, -0.0049809860, 0.0777763352, -0.0622813068, 0.0237503052, -0.0624443144, 0.0704979524, 0.0098682651, 0.0777245387, -0.0544945784, 0.0360003226, 0.0064740749, 0.0190514270, 0.0112778572, -0.0236644354, -0.0214647576, -0.0684038103, -0.0801927894, -0.0034509627, -0.0463544615, 0.0570558123, -0.0435674973, 0.0684535354, 0.0066940351, -0.0480483659, -0.0163846593, 0.0122678364, -0.0020356772, 0.0008730249, -0.0668244436, 0.0059521794, 0.0089788092, 0.0140207708, 0.0383853391, 0.0812388286, -0.0164228063, -0.0780391246, 0.0531595796, -0.0489087850, -0.0026465324, 0.0061928122, -0.0254342388, 0.0273074340, 0.0057789893, -0.0067196451, -0.0254033841, -0.0592287481, -0.0748225749, -0.0621048994, 0.0491524190, 0.0015721739, -0.0073799621, 0.0100091491, -0.0784015730, 0.0328994542, -0.0143596213, -0.0565426201, -0.0183654614, 0.0643530488, -0.0130554680, -0.0141843548, -0.0527328886, 0.0260760877, -0.0050789160, 0.0245185755, -0.0082805632, 0.0326281562, 0.0653230250, -0.0447094887, 0.0715615600, -0.0273728594, -0.0706058815, -0.0370023996, -0.0026246875, -0.0813718066, -0.0140210688, 0.0513401851, 0.0508025363, 0.0138347158, -0.0659683198, -0.0400511101, 0.0487721413, -0.0798892155, 0.0547715761, 0.0708114654, -0.0665537789, 0.0209787935, 0.0369080827, 0.0510118045, -0.0664425418, 0.0041862321, -0.0549505986, -0.0811792538, -0.0402176380, -0.0305057038, -0.0606970638, 0.0375012495, 0.0547750033, -0.0207304917, 0.0064563728, -0.0704999641, 0.0597772412, -0.0193153359, 0.0753868744, 0.0558228381, -0.0587238334, 0.0221150517, 0.0009325398, -0.0381035209, 0.0270602144, -0.0206110757, -0.0033350619, -0.0624341518, -0.0109571069, -0.0116961412, 0.0085470648, 0.0788436458, -0.0431479551, 0.0736716539, -0.0688923895, 0.0805166960, -0.0197267141, -0.0098422570, -0.0292925667, 0.0140279932, -0.0271894876, -0.0130030066, 0.0667633638, -0.0550168492, 0.0110042645, -0.0702403486, -0.0509057008, -0.0373072550, -0.0722748712, 0.0493056700, -0.0523938723, 0.0802797079, 0.0461051464, -0.0182197187, 0.0670740232, 0.0592513792, 0.0586403757, 0.0171325356, -0.0458710082, 0.0184707716, 0.0190302581, -0.0248140749, 0.0169464387, -0.0118386745, 0.0503030680, -0.0489648208, -0.0610560328, 0.0285703894, 0.0416995399, -0.0277160797, 0.0111827794, -0.0656200498, 0.0490355827, -0.0161888078, 0.0252489578, -0.0498541407, -0.0702551380, -0.0019891958, 0.0206018258, -0.0086495737, 0.0102414778, -0.0516962521, 0.0071760160, 0.0756577253, -0.0395587198, 0.0348880254, -0.0071815690, 0.0354821384, -0.0245334674, -0.0350125693, -0.0417448394, -0.0796892196, -0.0016058405, 0.0742241740, 0.0318405516, 0.0702100173, 0.0711626038, -0.0045658322, -0.0212542061, 0.0724284127, -0.0634708777, -0.0342132933, 0.0312753171, 0.0246965066, 0.0153667061, 0.0338167772, -0.0781145021, 0.0134565663, 0.0173161160, 0.0097100846, -0.0211335365, -0.0775476396, -0.0154063031, 0.0562587157, -0.0079605775, 0.0509758703, 0.0684293807, 0.0298382938, 0.0652009770, 0.0462658703, -0.0156886503, 0.0415020585, 0.0713412389, -0.0464245863, 0.0491299182, -0.0618405230, 0.0045132409, 0.0077551021, 0.0604271069, 0.0302008875, 0.0298330393, 0.0666347519, 0.0218306985, -0.0445158146, -0.0137847969, -0.0739629641, 0.0324462131, -0.0110043138, -0.0308067147, 0.0212586857, 0.0242734831, -0.0215087160, -0.0828711912, -0.0789787918, -0.0472820513, -0.0677593499, -0.0603753217, 0.0440906286, -0.0419729352, 0.0022822407, -0.0134577975, 0.0730404481, 0.0694256350, 0.0481685661, 0.0040105879, 0.0075158100, 0.0715123042, 0.0059800050, -0.0361306034, -0.0828644484, 0.0121105704, 0.0426919647, 0.0621569715, -0.0632146746, 0.0116741275, -0.0049434952, 0.0084661320, -0.0194254555, 0.0162470527, 0.0557838678, -0.0238643289, 0.0061073694, 0.0620859861, -0.0323667303, -0.0169051643, 0.0126936994, 0.0762333572, -0.0337138996, -0.0776693523, 0.0515580997, -0.0681453198, 0.0029297622, 0.0527724661, 0.0159653630, 0.0665784851, 0.0393443629, 0.0746968538, -0.0777313039, -0.0832422599, -0.0799197555, 0.0068257512, 0.0779373795, -0.0359309837, -0.0574064590, -0.0787994340, -0.0671697184, 0.0603281222, -0.0365662165, 0.0813453868, -0.0435683429, -0.0608015992, -0.0476952717, 0.0099769728, 0.0523046739, -0.0771930218, 0.0754976273, -0.0022743628, -0.0166745242, 0.0226796139, 0.0708113015, 0.0518028513, -0.0546097532, 0.0623656884, 0.0445190929, -0.0053473148, -0.0620522313, -0.0227018762, 0.0832311139, -0.0253566038, 0.0509994067, -0.0077284686, -0.0183673184, -0.0676404759, 0.0292306766, 0.0482771583, -0.0748586357, 0.0831851363, -0.0392297618, 0.0196528751, 0.0209179781, 0.0493277758, -0.0786999986, -0.0185148288, 0.0578390434, -0.0726029053, 0.0034755096, -0.0581495650, -0.0629028827, 0.0540009402, -0.0009863626, -0.0693559349, -0.0094742104, 0.0569879226, -0.0803771168, -0.0349331237, 0.0711382627, 0.0269278642, -0.0757356361, -0.0361704007, -0.0392058305, 0.0578095317, 0.0738203600, 0.0264120270, -0.0252699889, -0.0153970346, 0.0169874579, 0.0347117335, 0.0210748445, 0.0143023310, 0.0233098101, -0.0367242955, -0.0206015781, 0.0678383559, -0.0368952602, -0.0279522631, 0.0440347493, -0.0131756803, 0.0515617840, -0.0397862121, -0.0671612769, -0.0383312665, 0.0094437031, 0.0100004375, -0.0431301743, 0.0245026909, -0.0190074090, -0.0479982868, -0.0818482563, -0.0154978363, -0.0241857655, 0.0697923601, -0.0689753592, -0.0480823591, 0.0320346169, 0.0463582575, -0.0074334964, -0.0603523143, 0.0429666266, -0.0170909800, 0.0350581668, -0.0833028406, -0.0811919272, 0.0058007846, 0.0434253737, -0.0579031892, -0.0093948869, 0.0367684141, 0.0803290084, -0.0472169779, 0.0759214461, 0.0768709183, -0.0379095376, 0.0105367173, 0.0815382302, 0.0462803431, -0.0208026022, -0.0820093229, 0.0170617346, 0.0831963718, -0.0739814118, 0.0422084704, 0.0465373844, 0.0265281070, 0.0097293574, -0.0351100601, 0.0185573772, -0.0762464106, -0.0476977155, -0.0228502322, 0.0446866229, -0.0046938723, -0.0765861943, 0.0330334567, 0.0104713617, -0.0437830202, -0.0478472710, 0.0396789946, -0.0198523607, -0.0393789522, 0.0159916673, -0.0102044726, 0.0160936806, -0.0444931351, -0.0004903948, -0.0421450622, -0.0528314263, -0.0690689981, -0.0032262939, 0.0795695409, 0.0000879661, 0.0237751007, 0.0387728773, -0.0704621747, -0.0191596281, -0.0291184932, -0.0171661619, -0.0121322265, -0.0058565941, 0.0429527201, 0.0691307187, -0.0158729255, -0.0245244280, 0.0000350970, -0.0001666538, -0.0587197691, 0.0157835800, 0.0578127392, 0.0357319824, 0.0143839503, 0.0158440676, 0.0162614863, -0.0709147677, -0.0396428928, -0.0684559196, 0.0622319430, -0.0478924811, 0.0710955486, 0.0369695649, 0.0065248879, 0.0135709466, 0.0389623716, 0.0464410670, 0.0681411326, -0.0614572652, -0.0286337193, 0.0284842514, 0.0144895092, 0.0528500825, -0.0192581452};

#endif

#endif
