//Numpy array shape [3, 3, 16, 16]
//Min -0.083145402372
//Max 0.083258509636
//Number of zeros 0

#ifndef W18_H_
#define W18_H_

#ifndef __SYNTHESIS__
cell_edges_4_op_1_weight_t w18[2304];
#else
cell_edges_4_op_1_weight_t w18[2304] = {0.0799610987, -0.0669267625, 0.0179587808, 0.0370899290, -0.0785548910, 0.0731339902, -0.0554658063, -0.0540077873, -0.0793556347, 0.0455693826, -0.0669099167, -0.0437826626, -0.0057864003, -0.0053875078, -0.0033115281, 0.0258485880, 0.0481204875, 0.0544425510, -0.0071787178, -0.0436156578, -0.0765928924, -0.0189109892, 0.0468170978, -0.0570370890, 0.0689064413, -0.0442048609, -0.0263679698, -0.0322373807, -0.0431176946, 0.0618896671, 0.0507659689, 0.0684364438, 0.0185879841, -0.0148185939, 0.0332841203, -0.0389331244, -0.0066007045, -0.0524541624, 0.0583170056, 0.0594252348, -0.0240074489, -0.0354560614, -0.0365690365, -0.0591854565, -0.0001393947, -0.0299520474, -0.0399691053, 0.0131170889, 0.0797357708, -0.0805913210, -0.0700287148, -0.0230895523, -0.0613944530, -0.0446083806, -0.0117310593, 0.0776113421, -0.0329883657, 0.0175428111, -0.0605604425, -0.0342801511, 0.0260959454, 0.0088373180, 0.0609827563, -0.0304454342, -0.0762301683, -0.0023821872, 0.0000183780, -0.0295915902, -0.0658009648, -0.0587412864, -0.0727469698, -0.0298340432, 0.0799026787, -0.0763772354, -0.0178433862, 0.0730186775, -0.0189329144, -0.0809960961, 0.0438400395, 0.0377098322, -0.0614139549, 0.0452758297, 0.0631835237, 0.0382987373, 0.0821426138, -0.0522571579, 0.0352619328, -0.0566451102, 0.0221737698, -0.0359359682, 0.0150318881, 0.0169629492, 0.0034919505, -0.0760230497, 0.0139733749, 0.0732813925, 0.0697936192, -0.0352255255, 0.0608701855, 0.0005749933, -0.0616569109, -0.0092292363, 0.0739203990, -0.0020525751, 0.0612986907, -0.0401042998, 0.0622441135, 0.0566314831, 0.0287884232, -0.0211662780, -0.0126632713, 0.0611357614, -0.0101603856, -0.0760347545, 0.0242908578, -0.0036929266, -0.0216891281, 0.0298570301, 0.0015363914, -0.0816027522, 0.0547435023, -0.0327631012, -0.0591888539, 0.0114619359, -0.0529095270, 0.0234271418, -0.0263945628, -0.0129374508, 0.0027012094, -0.0378845632, -0.0783658996, 0.0560409613, -0.0678507686, -0.0593757927, 0.0397212021, -0.0549878515, 0.0163629726, -0.0700988472, -0.0209432691, -0.0425797068, 0.0519367456, 0.0788448378, 0.0416177809, 0.0070907418, 0.0472248644, -0.0340713337, -0.0190808326, -0.0336514227, 0.0311480686, 0.0545950122, 0.0228965320, 0.0215953700, -0.0235292930, -0.0070332531, -0.0331881158, 0.0658520088, -0.0425925925, 0.0624511912, 0.0328445397, 0.0751748607, 0.0666291341, 0.0829806849, -0.0760750249, 0.0569483750, -0.0555522442, -0.0091053685, 0.0175336320, -0.0609662868, -0.0031112675, 0.0506237820, 0.0208765529, -0.0417223684, 0.0198006537, 0.0260916054, -0.0137610640, -0.0238117874, 0.0668149441, 0.0731950849, -0.0764510632, 0.0554249324, 0.0592953674, -0.0602074638, -0.0201786347, -0.0343351439, -0.0004765467, -0.0420617349, 0.0304951146, 0.0423762761, 0.0768050402, -0.0225386582, -0.0016484774, -0.0090967761, 0.0327696577, -0.0539820679, 0.0176259205, 0.0606897511, 0.0510113761, -0.0614448674, 0.0321071558, 0.0656527504, -0.0303657819, 0.0363390520, -0.0249495264, 0.0537038147, 0.0083306711, 0.0383449569, -0.0186072066, 0.0403634384, -0.0355542116, 0.0697208345, 0.0304902866, -0.0298435893, 0.0549451038, 0.0383003764, 0.0509532057, -0.0656414330, -0.0340073407, 0.0825355873, -0.0441244654, 0.0720437318, -0.0511723198, 0.0500060506, 0.0308144446, 0.0390597843, 0.0034758970, 0.0276739225, -0.0681755245, -0.0483293422, -0.0348457135, -0.0623242036, -0.0576538481, 0.0393584408, -0.0124561666, -0.0139720542, -0.0641206577, -0.0110834576, 0.0737491399, -0.0377468951, 0.0527718402, 0.0431872234, -0.0584351979, -0.0083241742, -0.0648149550, -0.0004058261, -0.0665400103, 0.0097455895, -0.0819203854, 0.0692082718, 0.0693830922, 0.0073738326, -0.0539572313, -0.0309031755, 0.0064310706, -0.0093269683, -0.0737862960, 0.0055157566, -0.0494905822, 0.0591162294, 0.0542117245, 0.0820980594, 0.0577507392, 0.0182897840, 0.0373744294, 0.0740139261, -0.0296779685, 0.0695433691, 0.0763526484, -0.0115392925, -0.0673333034, 0.0767679438, 0.0348384716, 0.0021477633, -0.0107236262, -0.0310288910, -0.0510534085, -0.0024808424, 0.0637839362, -0.0315797366, 0.0358551741, 0.0803079158, 0.0127772046, 0.0720494986, -0.0630866438, 0.0349803902, -0.0123200305, -0.0828275532, 0.0351877771, -0.0741007328, 0.0212294590, 0.0677437857, 0.0402280465, 0.0137599315, -0.0171396378, 0.0449384823, -0.0769330189, -0.0258258302, 0.0766479820, -0.0657038018, 0.0042354451, 0.0146100782, -0.0045815678, 0.0424659029, 0.0323309898, 0.0688412264, -0.0705860183, 0.0679776669, 0.0609385222, -0.0008033077, -0.0500307195, 0.0335933678, -0.0798380375, -0.0727283284, 0.0333499722, 0.0195437782, 0.0604562052, 0.0422487631, -0.0529647022, 0.0232693870, 0.0209520217, 0.0151187424, 0.0369787663, 0.0513409786, -0.0266451091, 0.0497444160, 0.0545347817, 0.0522126034, -0.0652244091, -0.0034782912, -0.0526324548, 0.0596278906, 0.0056475913, -0.0100988047, -0.0020158191, -0.0112033626, 0.0548847355, -0.0535601787, 0.0553223714, 0.0107005201, 0.0175951943, 0.0204662848, -0.0708844066, -0.0157931075, -0.0724188834, 0.0540027097, -0.0605666712, -0.0448628925, 0.0186771620, -0.0040196874, -0.0320783369, -0.0469664000, 0.0037941146, -0.0809728950, 0.0045925351, 0.0649760216, -0.0120661249, 0.0017749877, -0.0652366579, 0.0418237559, -0.0397689976, 0.0614276528, 0.0794534236, -0.0102099963, 0.0482628606, 0.0172646381, 0.0382147729, 0.0372369215, -0.0606885403, 0.0049015237, 0.0780722722, -0.0328840464, 0.0242040642, -0.0803617314, 0.0691598356, 0.0269844662, -0.0457221009, -0.0551212654, 0.0490153767, -0.0527554490, 0.0801906362, -0.0763058439, -0.0124569805, 0.0250490457, -0.0659548938, -0.0172884203, 0.0766594037, -0.0375655442, 0.0651052147, -0.0042706514, 0.0571005084, 0.0165708531, -0.0428635627, -0.0344543755, 0.0644269511, 0.0734112635, 0.0831141397, 0.0520417988, -0.0235260054, -0.0138934357, 0.0602371953, 0.0750712827, 0.0027640525, 0.0575778708, 0.0830841213, -0.0593743548, -0.0036220369, 0.0677858740, 0.0326648727, -0.0390264466, -0.0628456920, -0.0361800864, -0.0784636065, 0.0755356774, -0.0584578551, 0.0103919283, 0.0731404275, -0.0193699524, 0.0243343599, 0.0092626642, 0.0112330653, -0.0533396825, -0.0030249306, -0.0452045426, -0.0617849715, 0.0311383344, -0.0208956264, -0.0740367323, -0.0396818742, 0.0418955013, -0.0269325227, 0.0297842920, -0.0777530521, 0.0826670378, 0.0182752293, -0.0270830821, -0.0479270443, 0.0670996830, 0.0503434688, 0.0708780140, 0.0714722276, -0.0467382818, -0.0127371615, -0.0335275941, 0.0432921275, 0.0021044209, -0.0011682949, 0.0580118075, -0.0035772144, 0.0767278820, 0.0822178721, 0.0183656309, 0.0411626734, -0.0644023418, -0.0319680087, -0.0642689392, 0.0616009347, -0.0218398273, 0.0616525523, 0.0388013087, 0.0629521310, -0.0248822216, 0.0714164525, 0.0685723200, -0.0008661306, -0.0613060147, 0.0605975874, 0.0200386047, 0.0202772990, 0.0814186260, 0.0021999271, 0.0362247303, 0.0557988882, 0.0306755677, -0.0443841070, -0.0314042196, -0.0448270813, -0.0627594739, 0.0656430274, -0.0316129662, 0.0109780775, -0.0024541593, 0.0430841297, -0.0054241745, 0.0288501717, 0.0039759874, 0.0766178891, -0.0259146392, -0.0544889048, 0.0744342580, -0.0482052527, 0.0272853114, 0.0731571987, -0.0347269736, -0.0636369810, -0.0765467510, 0.0708671510, -0.0806563795, -0.0520210043, -0.0797216371, -0.0165213421, 0.0155102834, 0.0371793844, 0.0383232199, 0.0067719677, 0.0502738319, 0.0359768085, -0.0679227263, 0.0786527172, 0.0280362070, 0.0808239132, 0.0452626981, 0.0281526037, -0.0098476214, -0.0467341393, -0.0112802414, 0.0187580157, 0.0429849550, 0.0543210469, -0.0034150907, 0.0494575836, -0.0364606641, 0.0176243018, -0.0596171841, 0.0690605342, -0.0181780849, -0.0042491341, -0.0225404166, 0.0123650711, -0.0405160375, 0.0771923512, 0.0495299287, 0.0324810296, -0.0712761730, -0.0796615779, 0.0553232469, 0.0725178793, -0.0748700500, 0.0278339982, 0.0726477429, 0.0480705276, 0.0696069375, 0.0075659873, -0.0323443115, 0.0610298961, -0.0679293647, -0.0486548729, -0.0434814543, -0.0391312055, -0.0273376834, 0.0184382759, 0.0124108968, 0.0552278608, 0.0689962879, 0.0826404393, -0.0189309362, 0.0216843598, 0.0761826113, 0.0452538468, 0.0076589603, -0.0696069822, -0.0721841082, 0.0807125270, -0.0268538259, -0.0454975404, 0.0059522493, 0.0387305282, -0.0074600107, 0.0360823870, 0.0317098610, -0.0239828732, 0.0324841216, -0.0705337524, -0.0353595726, -0.0711671934, 0.0248954836, -0.0452417247, -0.0194892120, -0.0640621483, 0.0759436116, 0.0509392172, 0.0790556595, -0.0146206981, -0.0519759841, -0.0654415712, -0.0332457051, 0.0488987602, -0.0778368637, -0.0721194893, 0.0575402491, -0.0411393084, -0.0313587226, 0.0437203236, 0.0113827912, -0.0516586341, -0.0545916744, 0.0639886186, -0.0466756187, -0.0311025418, 0.0614624210, -0.0320950635, 0.0062004216, 0.0666645095, -0.0803062320, -0.0341109708, -0.0689654723, 0.0463658944, 0.0044887140, -0.0376649797, 0.0534926467, 0.0414398611, -0.0101844557, 0.0813467503, 0.0739112645, 0.0044607199, 0.0665787011, -0.0161255896, 0.0731212646, 0.0623514615, -0.0356879346, -0.0503796600, -0.0138102779, 0.0491796881, 0.0730310827, 0.0507938229, 0.0492694303, -0.0548136570, 0.0116255805, -0.0454341881, 0.0389394015, -0.0722964332, -0.0061814380, -0.0462834835, -0.0020449953, -0.0734647140, -0.0819543600, -0.0509175137, -0.0699173734, -0.0532632582, -0.0010619706, 0.0338875055, 0.0488485917, -0.0177957825, 0.0445826128, -0.0818683282, -0.0169844273, -0.0159608517, 0.0689601451, -0.0558673255, 0.0647542924, 0.0211721007, 0.0536740050, 0.0716535747, -0.0148043288, -0.0596303269, -0.0424192026, -0.0435109288, 0.0176051389, 0.0080082715, 0.0430960879, 0.0413365364, 0.0430568196, 0.0115287919, -0.0632172599, -0.0825646445, -0.0771313533, -0.0665548593, -0.0044946945, -0.0014813170, 0.0290136877, -0.0287752021, -0.0213171672, 0.0244122818, -0.0428455696, -0.0186791085, -0.0501758866, 0.0512074940, 0.0363460071, -0.0506624058, -0.0565480851, -0.0401824005, -0.0446843579, 0.0422434472, 0.0740702599, 0.0779316053, 0.0255493131, -0.0572818853, 0.0439112186, -0.0614524484, -0.0810347497, 0.0440700948, -0.0035727541, 0.0077925632, 0.0142284427, -0.0586322807, 0.0307324976, 0.0650964379, 0.0449722260, 0.0667800382, -0.0389215909, 0.0245326720, -0.0111495992, -0.0495066829, 0.0068077804, -0.0419326723, 0.0676308647, -0.0513135530, -0.0447687358, 0.0643358156, 0.0502103455, 0.0513974540, -0.0481735431, 0.0184047706, -0.0306572188, -0.0642095506, -0.0345686674, 0.0016539908, 0.0500145853, -0.0087240599, -0.0019373797, 0.0658488870, -0.0036646144, 0.0808385164, -0.0104492484, -0.0367971435, 0.0189686771, -0.0407016426, 0.0641708300, -0.0815443620, -0.0455092527, 0.0032942628, -0.0275684316, -0.0371053368, 0.0294909701, -0.0487901792, 0.0062697022, -0.0060766931, 0.0216227695, 0.0115413191, 0.0467543937, -0.0831454024, 0.0255776457, 0.0105196508, 0.0702214763, -0.0767309815, 0.0645270348, 0.0655105561, 0.0076242303, 0.0538732409, -0.0382717736, -0.0061757457, 0.0425668322, -0.0193899795, 0.0346662551, -0.0466871820, -0.0666821525, -0.0000156759, 0.0322995968, 0.0785970464, -0.0560619943, 0.0589384176, -0.0583926030, -0.0679284781, 0.0497821979, -0.0434350222, -0.0487385727, -0.0588999055, -0.0547962934, -0.0396463908, 0.0021826120, 0.0479171500, 0.0265749078, -0.0616129152, -0.0786710307, -0.0358615816, -0.0323573239, 0.0281895883, 0.0819782615, -0.0018676327, -0.0033264093, -0.0387897752, 0.0289702155, 0.0689946264, 0.0386846140, -0.0454642996, 0.0031195227, -0.0265774298, -0.0098327799, -0.0324370228, -0.0318616033, 0.0461879373, 0.0667532459, 0.0576608703, 0.0075000646, -0.0438135378, 0.0120995138, 0.0455429591, 0.0292923078, 0.0657055974, 0.0500449538, -0.0008249937, -0.0636368692, 0.0554510839, 0.0003267709, -0.0379857831, -0.0329600349, 0.0404229835, -0.0707973465, 0.0759077668, 0.0485113040, -0.0760993361, 0.0731941834, -0.0246909223, 0.0774697289, 0.0382436924, -0.0712497979, 0.0752415285, -0.0576020516, 0.0051532132, 0.0136946943, 0.0497563481, 0.0164961107, 0.0726213604, 0.0566765144, -0.0281416252, 0.0216731057, -0.0444867983, 0.0524855703, -0.0030558254, -0.0336090066, 0.0235653948, 0.0324967466, 0.0730929151, -0.0252256729, 0.0404186435, 0.0454486534, 0.0031418842, 0.0043667336, -0.0246851519, 0.0115826745, -0.0622296482, 0.0001782667, -0.0140174525, -0.0799275115, 0.0573903434, -0.0631444156, -0.0437240116, 0.0079134507, -0.0284874495, 0.0225456618, 0.0791250542, 0.0006553498, 0.0643736720, -0.0091061043, -0.0431185514, 0.0424747653, 0.0777445585, -0.0582206137, 0.0612071380, -0.0051783761, -0.0634162351, 0.0009456429, 0.0224885531, -0.0067146285, 0.0534849875, 0.0103590665, -0.0262673963, -0.0128223952, 0.0759348273, 0.0337569043, -0.0020164649, -0.0137802670, 0.0647837371, 0.0576122627, 0.0671839342, -0.0196097698, -0.0169211291, 0.0692575946, -0.0447726510, -0.0072522098, 0.0463570729, -0.0654483065, 0.0238649659, -0.0185999833, -0.0586636998, 0.0696961358, 0.0327096842, 0.0741870403, 0.0098370416, 0.0359687209, 0.0550913848, -0.0464120992, 0.0670064166, 0.0192042328, 0.0143103581, -0.0528266169, 0.0262223184, -0.0539380126, 0.0392896868, 0.0362105556, 0.0561141185, -0.0278516412, -0.0294545908, 0.0705984905, -0.0717122704, 0.0453526489, -0.0739125311, 0.0213323366, 0.0753788576, -0.0108246170, 0.0089469701, -0.0752295032, -0.0334653296, 0.0772386119, -0.0196963754, 0.0637236461, -0.0500083752, -0.0076743774, 0.0274317078, -0.0062782448, -0.0270091239, 0.0293267984, -0.0780860335, -0.0364309512, -0.0718904436, -0.0643855557, -0.0184933208, -0.0651741847, 0.0121829500, 0.0613214821, -0.0583049543, -0.0265663341, 0.0377067439, -0.0699850991, -0.0337389521, -0.0687388778, -0.0671206862, -0.0591452457, 0.0212708060, 0.0312485229, 0.0364789441, -0.0168749448, -0.0605586544, 0.0081396494, 0.0773777217, 0.0719093680, 0.0740314722, -0.0817697421, -0.0436097495, 0.0049780160, 0.0186259616, -0.0020035703, -0.0316722691, 0.0417846069, -0.0630319864, -0.0799736381, 0.0638727546, 0.0338230170, -0.0702620223, 0.0506436303, 0.0529019684, 0.0679514706, 0.0140938554, -0.0437728763, -0.0761429593, 0.0272303652, -0.0795201436, -0.0591777489, -0.0027514163, -0.0715343654, -0.0173313841, -0.0058424380, 0.0630328134, 0.0132118100, -0.0158212185, 0.0304730106, 0.0320553593, 0.0366321467, 0.0724970847, -0.0147142969, -0.0540881641, -0.0045588980, 0.0148555990, -0.0213072542, 0.0720898211, -0.0232523102, 0.0507301949, 0.0340435505, -0.0045769881, 0.0171838440, -0.0675542504, 0.0428691953, -0.0008654651, 0.0398813672, -0.0469827801, -0.0117969625, -0.0311405696, -0.0064534820, 0.0260925889, -0.0637288615, 0.0069947890, -0.0570879988, 0.0567260049, -0.0644017532, 0.0153894546, 0.0513728485, 0.0479952656, 0.0415819399, 0.0038535602, -0.0416513309, 0.0638569072, 0.0832548663, -0.0451717712, -0.0033859045, -0.0629378557, 0.0609575249, -0.0682422966, -0.0311439168, 0.0562430993, -0.0634826645, 0.0367374085, 0.0067908424, 0.0134634208, -0.0382974260, -0.0561887100, 0.0528681614, -0.0254582390, 0.0801227242, -0.0696776733, 0.0449519530, -0.0684834197, 0.0512153134, 0.0162204988, -0.0052970978, 0.0382683761, 0.0292284917, -0.0230037216, 0.0169874765, -0.0259227045, 0.0722678155, 0.0641385093, 0.0173175950, -0.0599925891, -0.0519962311, 0.0733754560, 0.0113607282, 0.0809113532, 0.0811907351, 0.0701388121, -0.0606383756, 0.0417608432, 0.0692309663, 0.0234085247, 0.0338177606, -0.0788994953, 0.0052875811, -0.0530108549, 0.0532797091, 0.0229230765, 0.0283127800, 0.0653452277, 0.0519798100, -0.0306602586, 0.0020188391, -0.0559400804, -0.0729376450, 0.0565585047, 0.0234785397, 0.0209342688, -0.0820419788, -0.0608439781, -0.0564603582, -0.0663558617, -0.0384798422, 0.0411160253, -0.0225172006, 0.0693994537, 0.0261835549, 0.0621067584, 0.0524287000, 0.0627592504, -0.0634151772, -0.0739725605, -0.0133700995, -0.0454384424, 0.0133263301, -0.0687254965, -0.0372769460, 0.0252029933, -0.0228519309, 0.0562351011, 0.0313527919, 0.0596240982, 0.0617953353, 0.0314007029, -0.0508281142, -0.0175122041, -0.0769239888, 0.0386154130, 0.0514647588, -0.0338934734, -0.0140128834, -0.0364313312, 0.0201625321, -0.0552888960, -0.0780966878, 0.0136177558, 0.0159019828, 0.0790743008, 0.0453113541, -0.0416761450, -0.0066078869, 0.0474589765, -0.0479134843, -0.0140592447, 0.0832585096, 0.0542730354, 0.0271271598, 0.0729184002, 0.0642744377, -0.0746955276, -0.0702999160, 0.0081904521, 0.0517038740, -0.0543986522, 0.0471013822, 0.0312415697, -0.0113749038, 0.0771242529, -0.0232603475, 0.0570129976, 0.0800346583, -0.0364288464, 0.0233183037, 0.0818952248, 0.0221298728, 0.0597476959, 0.0110699181, 0.0287288185, -0.0778047144, -0.0247231089, -0.0387854539, 0.0413051471, -0.0627712309, -0.0003270093, -0.0478950739, 0.0065499716, -0.0137994196, 0.0520922542, -0.0778854936, -0.0170960166, -0.0586460084, 0.0469460040, -0.0538167171, -0.0411625840, 0.0566078089, 0.0176959243, -0.0526234359, 0.0722314566, -0.0444804095, 0.0230736472, -0.0496097021, -0.0325838998, -0.0020144682, -0.0593561232, -0.0437168069, -0.0706576183, -0.0344322808, -0.0209010895, -0.0247174371, -0.0659555197, -0.0708769411, -0.0330975913, -0.0419902802, -0.0136844926, 0.0094418945, 0.0346786827, -0.0397008285, 0.0002679911, -0.0309789125, 0.0597627982, 0.0134865167, 0.0349405855, -0.0239718761, 0.0040883217, -0.0433142520, -0.0290378779, 0.0761343166, 0.0573235564, 0.0093981950, -0.0715141743, 0.0769970566, 0.0329936296, -0.0719751120, -0.0408726893, 0.0085617276, 0.0584473647, -0.0679572374, 0.0332492106, -0.0132369539, -0.0160459969, 0.0747310296, 0.0599428378, -0.0454106554, -0.0175690278, 0.0365065411, -0.0715393946, -0.0208778940, 0.0269691795, -0.0304556750, 0.0133522879, 0.0825258791, 0.0438868292, 0.0719749555, 0.0321234055, -0.0576719642, 0.0105702048, 0.0560139529, 0.0056541380, -0.0060337381, -0.0821813568, -0.0299854856, 0.0680135041, -0.0016137977, -0.0007077222, 0.0507760122, 0.0079637961, 0.0643464923, 0.0528605729, -0.0190731045, 0.0470578112, 0.0039567254, 0.0134810340, -0.0348611511, -0.0627469867, -0.0383820795, -0.0333924033, -0.0772362798, -0.0247163344, 0.0184135120, -0.0820036456, -0.0689605474, -0.0352220275, 0.0734863207, -0.0774333403, -0.0709315464, 0.0493607074, -0.0148071107, 0.0601648465, 0.0536483936, 0.0558011644, -0.0339986384, -0.0450551435, -0.0785965174, -0.0248868223, 0.0281945150, -0.0637641549, -0.0593270659, -0.0745788068, 0.0138102882, 0.0098586585, -0.0241295975, -0.0029382659, -0.0526169091, 0.0195734520, -0.0035120668, -0.0293893740, 0.0267671105, -0.0248274356, 0.0610149354, -0.0066100624, 0.0681598559, -0.0746070743, 0.0788963586, 0.0779324472, 0.0191900954, -0.0513781235, -0.0628351420, 0.0375489928, -0.0460195132, 0.0299725216, -0.0713609308, -0.0150197791, 0.0713866577, 0.0510907806, 0.0518888123, -0.0739007294, 0.0259544346, -0.0746031255, -0.0566926152, 0.0128621813, -0.0187072232, -0.0768117905, -0.0504186526, 0.0626356304, -0.0441060960, -0.0038074760, 0.0506465510, -0.0711464435, -0.0406524204, -0.0206452776, 0.0493227169, -0.0295133907, -0.0585775115, 0.0178927481, -0.0426195934, -0.0327656828, 0.0485287569, 0.0477762520, 0.0443041176, 0.0151550910, -0.0792403296, -0.0143592535, -0.0079261763, 0.0231476668, 0.0596640110, -0.0145268217, 0.0360304527, 0.0510069057, -0.0471225716, -0.0308295637, 0.0178852789, 0.0630214810, -0.0473463833, -0.0069828779, -0.0028066994, -0.0341479667, -0.0061923354, -0.0007070565, -0.0297618713, -0.0285857376, -0.0015334708, 0.0768447071, -0.0619592965, 0.0010157872, -0.0557778887, -0.0251989495, 0.0321682580, 0.0173952300, 0.0114978179, 0.0489700586, 0.0586311072, -0.0672629625, -0.0437182188, 0.0327808522, -0.0830425024, -0.0575370602, 0.0195465889, -0.0536728613, -0.0407853276, -0.0161283109, -0.0600949489, 0.0671943575, 0.0638726279, -0.0701699480, 0.0815444216, -0.0826473236, 0.0142082563, 0.0445161909, -0.0727290884, 0.0062341182, 0.0678188056, 0.0422922634, 0.0044259606, -0.0159795284, -0.0175764188, -0.0534289479, -0.0429277271, -0.0053964984, 0.0074345199, -0.0570589416, 0.0634303913, -0.0262921918, -0.0084132338, 0.0720144734, -0.0810209885, 0.0809064209, 0.0356922559, 0.0063698869, -0.0016577658, 0.0076181409, -0.0224085636, 0.0199878998, 0.0518257804, -0.0240119491, 0.0489259399, -0.0621575564, 0.0282827001, -0.0402098671, -0.0496754535, -0.0153812990, 0.0721030161, -0.0213436726, -0.0368879177, 0.0463122427, -0.0480572470, -0.0346572660, -0.0197008364, -0.0725742429, -0.0078303525, 0.0154961171, 0.0186174288, 0.0646948144, 0.0602473207, -0.0037372522, -0.0173132438, 0.0804094151, -0.0020718074, -0.0214426145, 0.0528422147, 0.0097661717, 0.0753938481, 0.0254835989, -0.0724108890, 0.0832223296, 0.0400192738, -0.0533493981, 0.0751217678, 0.0353394113, -0.0232618172, 0.0227370132, -0.0764279291, 0.0240314193, 0.0206605345, -0.0223012157, 0.0243271086, 0.0272126924, 0.0305473469, 0.0476589613, -0.0807717741, -0.0073059630, -0.0410048030, 0.0007828733, 0.0783990845, -0.0677930787, -0.0764530972, 0.0032214562, -0.0722682029, 0.0471500419, 0.0588810481, 0.0504254960, -0.0414015651, -0.0406269878, 0.0099629657, 0.0648546666, -0.0011743844, -0.0610052794, -0.0333326682, 0.0067528249, 0.0222882703, -0.0391125008, 0.0427174643, -0.0209570788, -0.0242773872, -0.0387667492, 0.0057018613, 0.0272345971, 0.0497421511, 0.0475070588, -0.0325364321, -0.0455773696, -0.0295455772, -0.0808901638, -0.0414185748, 0.0289659146, -0.0213677529, 0.0530371517, -0.0063823243, 0.0530736893, 0.0047894977, 0.0171514694, -0.0300266631, 0.0579743274, 0.0734164566, -0.0784692541, 0.0102620712, 0.0671328679, 0.0318435431, -0.0737852752, 0.0133404266, -0.0424678102, 0.0006568499, 0.0772440284, -0.0513231196, -0.0319644809, -0.0626520067, 0.0531559438, 0.0689163208, 0.0482803173, 0.0672841296, 0.0023183012, 0.0790658221, -0.0201054104, 0.0407960154, 0.0456758849, 0.0003176216, 0.0312472023, -0.0811654851, 0.0587673523, -0.0234628934, -0.0433407165, 0.0015492063, 0.0499779694, 0.0035940825, -0.0508363321, 0.0262102578, -0.0274930224, 0.0686945468, -0.0259538889, 0.0425096042, -0.0759029761, -0.0493725687, -0.0588964075, -0.0771329626, -0.0157567188, -0.0386531614, -0.0340463296, -0.0479454808, 0.0001241658, -0.0260261092, 0.0313987881, -0.0324529670, -0.0089438809, -0.0473853052, -0.0330518335, 0.0674819723, 0.0419512205, -0.0638716742, 0.0809248835, 0.0808020979, -0.0172036029, 0.0131724710, 0.0050289282, 0.0764945522, -0.0562795773, 0.0416611247, 0.0363558196, 0.0384374335, -0.0480584987, -0.0554191619, -0.0721709430, 0.0224765223, -0.0339535065, -0.0643804669, 0.0289178044, 0.0213016700, 0.0161368251, 0.0013446144, -0.0622490495, 0.0080348356, -0.0670383424, 0.0445113331, 0.0744110048, 0.0651907474, 0.0733639970, -0.0426897593, 0.0791027769, 0.0126959151, -0.0262248106, 0.0039133136, -0.0609148182, 0.0177203622, 0.0727834776, 0.0294689666, -0.0440972857, -0.0355258211, 0.0371228494, -0.0404047668, 0.0145204635, -0.0339443758, -0.0597117655, -0.0454043262, -0.0622240677, 0.0074877860, -0.0629199743, 0.0001653027, -0.0392142646, -0.0054155220, 0.0535933375, -0.0153158139, -0.0077364356, -0.0717452765, 0.0190355629, 0.0290114731, 0.0011418505, 0.0232475437, 0.0257604029, 0.0016057610, -0.0339777358, 0.0394626968, 0.0132967569, -0.0147388345, 0.0694329143, 0.0174247641, 0.0245624352, 0.0050707902, -0.0484518968, -0.0823506117, 0.0344309397, 0.0674647614, 0.0396755375, -0.0431056172, -0.0131967701, -0.0798715204, 0.0580220111, -0.0420667119, -0.0543947406, 0.0629942194, -0.0276198909, -0.0143728433, -0.0406396724, -0.0217592344, 0.0234088022, 0.0150264148, -0.0434883982, -0.0435669534, 0.0080165463, -0.0710066482, -0.0630248487, 0.0508315228, 0.0761067048, -0.0101468554, -0.0509149395, -0.0647325367, -0.0014354514, 0.0475454554, 0.0766976997, 0.0119655337, -0.0423037075, 0.0350140594, -0.0534186661, -0.0256854016, 0.0698582157, -0.0406107642, 0.0747495741, -0.0129897045, 0.0661681890, 0.0219428930, 0.0760404542, 0.0349591635, 0.0256105866, -0.0276922807, 0.0488758311, 0.0088185137, 0.0608200952, 0.0098724468, 0.0305370260, -0.0549094714, 0.0387877896, 0.0078478567, -0.0031916439, 0.0081492355, 0.0795942172, 0.0218135212, -0.0749418810, -0.0144353285, 0.0490074009, -0.0180191901, -0.0498079956, -0.0733963177, -0.0476726890, 0.0354388580, -0.0348013379, 0.0832051635, -0.0455595590, 0.0168885551, 0.0805142000, -0.0482333973, 0.0790194198, 0.0171200074, -0.0630236268, 0.0334609561, -0.0600902922, -0.0627859309, 0.0733552948, -0.0010279168, -0.0617374592, 0.0522202924, -0.0179289579, 0.0585042201, -0.0789191946, -0.0703580901, 0.0048855795, 0.0134747550, 0.0725602433, -0.0295703541, 0.0305797327, -0.0511477925, 0.0450021587, -0.0118483407, -0.0499569587, -0.0522338822, -0.0646578744, -0.0778277963, -0.0360880978, 0.0601179563, 0.0414882414, 0.0075019719, -0.0569960587, -0.0374225527, -0.0540848039, -0.0778451562, 0.0394169912, -0.0160346236, -0.0024535831, -0.0032299201, 0.0488020405, -0.0108619491, 0.0306570791, 0.0197007172, -0.0330723785, -0.0726046115, 0.0445997268, -0.0183001552, -0.0464986935, 0.0681166351, -0.0167572256, -0.0083412705, 0.0001294209, 0.0779018030, 0.0014083314, -0.0639572814, 0.0226759575, 0.0668303221, 0.0006027987, 0.0382909589, 0.0544184633, -0.0233323500, 0.0567755364, 0.0398939624, -0.0581259914, 0.0509212762, 0.0762771368, 0.0814694166, 0.0822057351, -0.0768672377, -0.0059171421, 0.0341424830, -0.0310929455, -0.0678033009, 0.0528033935, -0.0640679598, -0.0415134355, 0.0790183768, 0.0822894275, 0.0443803445, 0.0092126168, 0.0657680184, 0.0333476476, 0.0001743626, -0.0754984915, 0.0706078336, -0.0366783701, 0.0058190729, 0.0008590079, -0.0642324910, -0.0365448259, 0.0229622275, -0.0036304016, 0.0540893152, -0.0392445736, -0.0033413898, 0.0360867567, 0.0455860235, -0.0336710624, -0.0195835549, 0.0730859861, 0.0101962574, 0.0532074980, -0.0110746063, -0.0569347478, 0.0114939231, -0.0124222813, -0.0533157587, -0.0050682873, 0.0690432861, 0.0310512632, -0.0721235424, -0.0020747974, -0.0185358990, -0.0298828594, -0.0238242056, 0.0544388480, -0.0783210248, 0.0357578099, -0.0264138654, 0.0635053739, 0.0556358211, 0.0009792597, -0.0696559846, -0.0718131512, 0.0548461415, 0.0640568957, 0.0220856071, 0.0508869067, 0.0581194162, -0.0440339446, -0.0383212343, 0.0326054767, -0.0295651089, 0.0322186463, 0.0141429789, 0.0156567022, -0.0617672615, -0.0467757732, 0.0253951587, 0.0622125342, -0.0517107882, 0.0142240915, 0.0137202051, -0.0342871025, 0.0273483619, -0.0218851361, 0.0105421012, -0.0689963698, 0.0390221626, 0.0393946581, 0.0696522892, 0.0480674580, -0.0145741180, 0.0034124583, 0.0817335844, 0.0390947089, 0.0383224748, 0.0002062807, 0.0349227041, 0.0340174735, 0.0043802443, 0.0807154253, 0.0077758338, 0.0155347502, 0.0693548843, 0.0827155709, 0.0199480839, 0.0145689817, 0.0357639901, -0.0079456372, -0.0397522561, 0.0646567717, 0.0694812909, 0.0578729212, 0.0539448522, -0.0099858735, -0.0488796271, -0.0802669227, 0.0118646231, 0.0474935584, 0.0383812562, 0.0829266757, -0.0466976911, 0.0096838884, -0.0507466942, -0.0092740990, 0.0339333192, -0.0324974135, 0.0510747954, 0.0538506806, 0.0165539272, 0.0544612296, 0.0195993893, -0.0349914692, 0.0501176007, 0.0029574882, 0.0675327331, 0.0245500877, -0.0392829515, 0.0545364805, -0.0828478485, -0.0286711026, -0.0280750897, 0.0578093231, -0.0426117145, 0.0622058585, -0.0772054493, 0.0130833238, 0.0183605142, -0.0112931160, -0.0689650476, 0.0256327596, -0.0117887175, 0.0610092804, 0.0132423081, 0.0328419656, 0.0639491901, 0.0645121858, -0.0712960288, -0.0620783269, -0.0590800978, 0.0625481308, 0.0651420057, -0.0059947572, -0.0026846295, -0.0182305258, 0.0366361998, 0.0660888702, 0.0663856417, -0.0182118006, -0.0366667993, -0.0174541101, 0.0809724703, -0.0749236420, 0.0232994575, -0.0221651476, -0.0644532070, -0.0184499398, 0.0405180156, 0.0605251081, 0.0397822075, -0.0372161306, -0.0073804292, -0.0039287810, 0.0368275829, -0.0335379466, 0.0346994363, 0.0355693400, -0.0024359603, 0.0599086769, 0.0510435514, 0.0804589689, -0.0242626648, -0.0671380088, -0.0481816605, -0.0479036868, -0.0617140643, 0.0199141391, -0.0825563297, -0.0478919260, -0.0285151172, -0.0161105189, 0.0357884169, -0.0440392196, 0.0378042459, -0.0759420469, 0.0665892884, -0.0474935472, 0.0498522818, -0.0275975093, 0.0474007726, -0.0706755817, 0.0269775931, -0.0477768295, -0.0612924919, 0.0708799958, -0.0385027081, 0.0722058192, -0.0581379905, 0.0198984947, -0.0251422059, 0.0563171171, 0.0665704086, -0.0223240927, 0.0111181680, -0.0827347934, -0.0091046831, -0.0066265133, -0.0631368905, 0.0315019116, 0.0212626196, 0.0472806692, -0.0497439094, -0.0114748897, 0.0261861775, 0.0501072109, 0.0379849486, 0.0370991156, 0.0475578122, -0.0699585304, -0.0672662929, -0.0378047414, 0.0670554787, -0.0220306814, -0.0191967022, 0.0052441894, -0.0098367538, 0.0802028552, -0.0752061531, -0.0235726256, -0.0532760918, 0.0733239576, 0.0758355260, 0.0062020808, 0.0308768302, 0.0293503329, -0.0606372915, 0.0014433392, 0.0168930944, 0.0060575204, -0.0311076175, 0.0404583216, 0.0563832186, 0.0544790812, -0.0212291125, -0.0209581703, -0.0234856028, -0.0322079360, 0.0386790894, 0.0215482228, -0.0173107516, 0.0540144704, 0.0130916983, 0.0087169865, -0.0235031862, 0.0565603040, -0.0656645596, 0.0381192975, 0.0605650730, -0.0631351322, -0.0011302474, 0.0397452451, -0.0261183381, -0.0286978949, -0.0619328320, -0.0212028660, 0.0487820543, 0.0128130866, -0.0327296630, 0.0542237423, 0.0645763204, -0.0205853153, 0.0214339811, 0.0248656329, -0.0814222619, -0.0172219612, -0.0644161403, -0.0332319178, 0.0576525368, 0.0302967113, -0.0806380063, 0.0447166413, 0.0268983208, 0.0632972121, 0.0361147188, 0.0811225697, -0.0430841967, 0.0554754548, 0.0446605235, 0.0238725953, -0.0326698795, -0.0653378591, 0.0734752566, 0.0097686257, 0.0575997569, 0.0832370147, -0.0533296280, 0.0161290970, -0.0269871186, -0.0158354435, 0.0746612102, -0.0388712548, 0.0257104151, 0.0825070962, 0.0071091894, -0.0811530054, 0.0746276230, -0.0699861050, -0.0183709953, -0.0807978883, 0.0006441939, -0.0007541440, -0.0709834844, -0.0581776798, 0.0787818357, -0.0440643840, 0.0775097236, -0.0378481336, 0.0353223830, -0.0601115897, 0.0659015328, -0.0503641814, 0.0075763785, 0.0291311592, 0.0469223224, 0.0501846485, -0.0651045591, -0.0661031008, 0.0420256853, 0.0543716140, -0.0766744241, -0.0281374343, 0.0377832465, -0.0639502779, 0.0433807895, -0.0796835199, -0.0785209984, -0.0440655760, 0.0416491926, -0.0090489825, -0.0454438366, -0.0429192707, -0.0040377774, -0.0295098945, 0.0816523135, -0.0518424697, 0.0340207592, 0.0012165844, -0.0568365827, -0.0688164532, 0.0781299695, -0.0435610712, 0.0114801945, 0.0304309092, 0.0627170280, 0.0656338185, 0.0599111803, 0.0063971360, -0.0397341885, 0.0805050582, -0.0011474930, 0.0779127628, 0.0479026139, 0.0648482963, 0.0197518487, -0.0465153493, 0.0637441799, -0.0727222785, -0.0240270384, -0.0802598372, -0.0159878731, -0.0431188270, -0.0260383878, 0.0696823299, -0.0740105957, 0.0167771745, 0.0375814922, 0.0562846512, -0.0456023626, -0.0510075502, -0.0245125163, 0.0173056554, 0.0674385577, -0.0041602342, -0.0556070618, 0.0371649303, 0.0661770403, 0.0261302385, -0.0131399669, -0.0347323865, -0.0375145599, -0.0630534068, -0.0504865311, 0.0121171670, 0.0687759593, 0.0813155398, 0.0490569025, 0.0198355131, 0.0748537034, 0.0641381666, -0.0819464847, -0.0296178870, 0.0124603389, 0.0787338391, 0.0491136238, -0.0479180031, -0.0654061958, 0.0411718823, -0.0242323969, 0.0605405234, 0.0011790734, -0.0269449111, 0.0093825096, -0.0500270724, -0.0618605800, -0.0465140678, -0.0809965730, -0.0429376289, 0.0556171052, -0.0063956757, -0.0353124477, 0.0022458720, -0.0760457814, -0.0632532015, 0.0609695353, 0.0504104942, 0.0717439279, 0.0643161237, -0.0438760333, -0.0093375780, -0.0209842976, 0.0252451431, 0.0779785663, 0.0544000454, -0.0704975948, -0.0047060312, 0.0503490120, -0.0199448466, -0.0423663519, 0.0025524965, 0.0584897548, -0.0804837793, 0.0147205852, -0.0560236685, 0.0539652780, -0.0780438483, -0.0130686108, -0.0660977662, -0.0471616536, 0.0380227081, 0.0103976009, -0.0402027071, -0.0130684022, 0.0340940431, -0.0743993968, -0.0172883123, 0.0518492535, -0.0387216769, -0.0531562716, 0.0589474887, 0.0283947960, 0.0419737324, 0.0760101676, 0.0106218923, -0.0101516629, -0.0504565015, -0.0444223359, -0.0751669183, -0.0078348927, -0.0760975182, -0.0355907902, -0.0014653133, -0.0320754759, 0.0142703932, 0.0077403397, 0.0506959707, -0.0576649383, 0.0295871105, -0.0656041056, 0.0171482209, -0.0445392504, -0.0667610094, -0.0407082103, 0.0267951749, -0.0694574937, 0.0147137800, 0.0043938239, 0.0774260089, -0.0159052406, -0.0349124521, 0.0352679938, 0.0010289797, -0.0460098982, -0.0674486086, -0.0145569714, -0.0147780841, 0.0187691227, -0.0516164526, -0.0156319663, 0.0480058156, -0.0217320435, -0.0340236798, -0.0573276095, -0.0411851555, 0.0452302508, 0.0723876283, 0.0019991596, -0.0123092216, 0.0447055064, 0.0696061775, 0.0310032126, -0.0358621776, 0.0137293451, -0.0458643511, 0.0406035334, 0.0097736130, 0.0366534553, 0.0114671113, -0.0474333577, -0.0436510928, 0.0094258413, -0.0268112179, -0.0380980968, 0.0390311442, -0.0604879148, -0.0310639478, -0.0097135520, 0.0661609173, -0.0487300232, 0.0417139642, -0.0783433691, 0.0195198786, -0.0495310314, -0.0081448443, -0.0627318919, 0.0596549436, 0.0157260019, 0.0348298997, -0.0191190094, 0.0696253255, 0.0825202540, 0.0555294454, -0.0488153324, 0.0128362039, 0.0738480985, 0.0103005758, 0.0033506982, -0.0361739583, -0.0121336868, -0.0151478695, -0.0240586884, -0.0465585850, -0.0816358328, 0.0717945024, 0.0559717119, 0.0252483115, 0.0480266996, -0.0285092052, -0.0530022830};

#endif

#endif
