//Numpy array shape [3, 3, 3, 16]
//Min -0.191898420453
//Max 0.191098213196
//Number of zeros 0

#ifndef W2_H_
#define W2_H_

#ifndef __SYNTHESIS__
stem_0_weight_t w2[432];
#else
stem_0_weight_t w2[432] = {0.1500865966, -0.1598669887, -0.0278050248, -0.0012138466, 0.0448198020, -0.0705865920, 0.1648276150, 0.0631607920, 0.1787976325, 0.1420713216, -0.0577698275, -0.1788473427, -0.0112043023, -0.0388925560, -0.0408943109, 0.0174675304, -0.0222593453, -0.1177906543, -0.0685883239, 0.1885805130, 0.1464172304, -0.0259004030, 0.1367065012, 0.0738779902, 0.1372966021, -0.0493256710, -0.1228429228, 0.1354303062, -0.0539036244, 0.1044311374, 0.0332877971, 0.0955550149, -0.1270141155, -0.1860335767, -0.1740735024, -0.0845555961, 0.0865936056, 0.1828949153, -0.0649846569, 0.1851685494, -0.1462029964, 0.0993033424, 0.0394454263, 0.0497891158, -0.1775062829, 0.1760006696, 0.0964947492, -0.1809710562, -0.1198254451, -0.1675890386, 0.1011209041, 0.0861071497, 0.0744054243, 0.0209184941, -0.1012266651, -0.0578373224, 0.1488817632, -0.1494927555, -0.0586027279, 0.0912547931, 0.1853483915, -0.1276147068, -0.1337469518, -0.0180713106, -0.1772092581, 0.0477480143, -0.1918984205, 0.0181973986, 0.1028351784, -0.0102627967, -0.1359760761, 0.0884337425, 0.0248964280, -0.1260253191, 0.0201459769, 0.1441610456, -0.1468079239, -0.1060079038, 0.1323535591, -0.0219937265, -0.1662837416, -0.0623880215, -0.1362766176, 0.1241733655, 0.0698203146, -0.1251316816, 0.0364044309, -0.1333478987, 0.1301615387, 0.0929073542, -0.1317462027, -0.1704288125, 0.0900113732, 0.1356291920, 0.1751472801, -0.1082682535, 0.0292949975, 0.0539609268, 0.1054582149, 0.0515033230, -0.1409131438, -0.0592270419, 0.0877450705, -0.1844984144, -0.0738725513, 0.0011075346, -0.0747609288, -0.1764423400, 0.0400975682, -0.1181598157, -0.0477588177, -0.0280604828, -0.0051106131, 0.1607345790, 0.1878092736, 0.1561173797, -0.1134847924, -0.1864865720, 0.1898520589, -0.0337199531, -0.1574478745, 0.1121822074, 0.0408350751, 0.1097027585, 0.0852166712, 0.0152252978, 0.1386614442, -0.1076123118, 0.0493753627, -0.1756540835, -0.1322744787, 0.1376713663, 0.0365239121, 0.0472621731, -0.0559135713, -0.1279971302, -0.1845738590, 0.0508952998, -0.0027667719, 0.0945616513, 0.0624183491, 0.1093303263, -0.0201635957, 0.0860825554, -0.0958022773, 0.0420005172, -0.1708235592, 0.1818490177, -0.1609765291, 0.1773916036, -0.1121814102, 0.1828240454, 0.0796275064, 0.0158879235, 0.0701068789, -0.0862146765, 0.1113764048, 0.0141488956, 0.0173136815, 0.1424772739, 0.0523268841, 0.0381032676, 0.0742868409, -0.1179697216, 0.1042322814, 0.0773409307, 0.1614733040, 0.1483149827, 0.0754494071, 0.0675302073, 0.0745035931, 0.0616021976, -0.1904165298, 0.1466281563, 0.1889061928, -0.0923442021, 0.1853552461, 0.1269242167, 0.1709122509, 0.1749059558, -0.1876189113, -0.1555760503, -0.1635687798, 0.1144481152, 0.0652882010, 0.0286840145, 0.1344537139, 0.0562645756, 0.0381461233, 0.1910982132, 0.1697394848, -0.0132720396, 0.0383767076, 0.0396596789, -0.1122208461, -0.0229728315, 0.0151174488, -0.0802842379, 0.1255951524, -0.0113801043, 0.0125265028, -0.0664870366, -0.0024138822, 0.0923893973, 0.0319453627, 0.0333256535, 0.1669057012, -0.0471880063, -0.1207957044, -0.0854178667, -0.0341888815, -0.0078035584, 0.1509517133, 0.0017376291, -0.1642885804, 0.0837284178, 0.1176670268, 0.0831692740, -0.1835586578, 0.0612590164, 0.0728279501, -0.1320868731, -0.1036504284, -0.0346690267, 0.1009211466, 0.0654689595, -0.0663196817, 0.1271854788, 0.1295155436, -0.0061829323, -0.1297298968, 0.0142867751, -0.0973716304, -0.0413285047, -0.0115576275, 0.1609733403, 0.1493560672, -0.0175443850, -0.1598361582, 0.0891958177, 0.0979320481, -0.0794738531, -0.0487883054, -0.1002725214, -0.0570115112, -0.1532976031, -0.1600154489, 0.1637374014, 0.0085949339, -0.0512939095, 0.0712103099, 0.0893715993, -0.1053626612, 0.0139095206, -0.0375229120, 0.1736635119, -0.0531314723, 0.0215987377, 0.0074042804, 0.0679239258, 0.1361003965, -0.1865366995, -0.1076804027, -0.0903093591, -0.0769436955, -0.1508659124, -0.1553241909, -0.1123950556, 0.0093455864, -0.0220514257, -0.1414576918, -0.1597120464, -0.1522012651, 0.0822550729, -0.0481474958, -0.0848130956, 0.0067746220, 0.1231012270, -0.0609970428, -0.1044309139, -0.0326767676, -0.1683397144, -0.0224451739, -0.1868801862, -0.0783106089, 0.0877007693, -0.1478884667, 0.1052990034, 0.1035742164, 0.0031178491, -0.1594432741, -0.0343073532, -0.0984991491, 0.1578180939, 0.0051479624, -0.0863444805, 0.1369807869, -0.0034027395, -0.1342997551, 0.0783108845, 0.1110460609, -0.0541518517, 0.1693080664, 0.0178700425, 0.1696056128, -0.0749610290, -0.1399382800, 0.0280453172, -0.0882729888, 0.0948465466, 0.1497927308, 0.0127203828, -0.1713675410, 0.0031357897, 0.0759544969, -0.1442434788, -0.0547485650, -0.1354830265, -0.1480906606, -0.1551989913, -0.1358009428, -0.1144310459, -0.1444504708, 0.1501016766, -0.1267670393, 0.1240342483, 0.1071677208, 0.0200537052, 0.1659639329, -0.1513749957, 0.1823656708, -0.1148263365, -0.1133944690, 0.1402834803, -0.0905180871, -0.1505192965, -0.1399730593, -0.1074477062, 0.0813412294, -0.1907399893, 0.1253114641, -0.0034780342, -0.0025833526, -0.1385180652, 0.0865788981, 0.1568988860, -0.1691703200, -0.0030988532, 0.1367752552, 0.1881568879, -0.1857893765, 0.1061536744, -0.1440797150, 0.0858078450, -0.1781177819, 0.0979364291, -0.0791752860, -0.0739460364, 0.1008790508, -0.1780980229, -0.0738951266, 0.0110608479, -0.0147494180, -0.1137602329, 0.1534302682, 0.0235141665, 0.1693825126, -0.0177186728, -0.0121837985, -0.0797686428, -0.1675636917, 0.0819833055, -0.0615378246, 0.0804155618, 0.0880824327, -0.0152708143, 0.0843759403, 0.0332791470, 0.0839511380, -0.0097458512, 0.1711588353, -0.0335342847, -0.0141544472, 0.1875217557, 0.1552564651, 0.0474655293, 0.1039602607, 0.1650858521, -0.1173591912, 0.0148215229, -0.0019949663, 0.0455638021, -0.1733499467, -0.1069220826, -0.0015640062, -0.1196125299, 0.1514616460, -0.0959813818, -0.1762810946, -0.0119144861, -0.0529335774, 0.1740527898, -0.1762342155, 0.1752932519, -0.1760306507, 0.1016436294, 0.0928438082, 0.1524931192, 0.1517433971, 0.0262484513, 0.1736285985, 0.0722008124, -0.0081381407, 0.1276206821, -0.1386960000, 0.0126231788, -0.1696785539, -0.1388137192, 0.1415650845, -0.1763294041, 0.0753357336, -0.1663607210, 0.0609282181, -0.0281291213, -0.1332123131, 0.0427035876, 0.1756508946, 0.1415762603, 0.0153048597, -0.1199819744, -0.1601134986, 0.0879808217};

#endif

#endif
