//Numpy array shape [3, 3, 16, 16]
//Min -0.083170488477
//Max 0.083326131105
//Number of zeros 0

#ifndef W22_H_
#define W22_H_

#ifndef __SYNTHESIS__
cell_edges_5_op_1_weight_t w22[2304];
#else
cell_edges_5_op_1_weight_t w22[2304] = {-0.0487572588, -0.0251756832, 0.0717860982, 0.0307374746, 0.0281859618, -0.0203317571, -0.0063026631, -0.0563701056, -0.0171054546, -0.0413126759, -0.0584933199, 0.0630169883, 0.0190900620, -0.0255825538, 0.0110621201, 0.0176555347, -0.0146194166, -0.0612745732, -0.0223246496, -0.0450841896, -0.0678248778, 0.0474877879, 0.0523988679, 0.0360055566, 0.0405672155, 0.0284442082, -0.0416392013, 0.0091778580, 0.0465482622, -0.0779235289, 0.0307675060, -0.0205457378, -0.0674423799, 0.0420214348, 0.0054487414, 0.0023503583, -0.0174512994, -0.0270794965, -0.0509515479, 0.0542359240, -0.0698056817, 0.0286013056, 0.0532877967, -0.0237789266, 0.0327650867, 0.0191371497, -0.0715393275, -0.0494350642, 0.0004773315, 0.0152685381, 0.0534029119, 0.0305351876, -0.0021166496, -0.0175958294, 0.0427970029, -0.0624734238, -0.0030987605, -0.0712352544, -0.0007993440, 0.0648537576, 0.0796107724, 0.0750816166, -0.0412794091, -0.0564789921, -0.0178648047, 0.0810208395, -0.0754819438, -0.0763860643, 0.0380882137, 0.0180742238, -0.0254694745, 0.0760160163, 0.0079745455, -0.0186520293, -0.0196091849, 0.0603422411, 0.0728668794, 0.0008159438, 0.0683493465, 0.0409382619, 0.0681523979, -0.0767393261, -0.0680313855, 0.0182660110, -0.0133204591, 0.0720409304, 0.0507866405, 0.0800260082, -0.0801489949, -0.0167893935, -0.0109728919, 0.0475145802, -0.0721559674, 0.0487747341, -0.0792825967, -0.0104977768, 0.0714728832, 0.0043936749, -0.0356117599, -0.0545304194, -0.0027653042, 0.0127926525, -0.0472224802, 0.0631210878, -0.0640249476, -0.0424314998, 0.0197922196, -0.0563247874, 0.0653190166, -0.0280995350, -0.0520443991, -0.0139373345, -0.0501860492, -0.0678990558, 0.0521524139, 0.0066995583, -0.0016835844, 0.0479621813, -0.0076121110, -0.0418424010, 0.0201299973, -0.0171393100, -0.0411354937, -0.0547089502, 0.0707571954, 0.0496573150, -0.0414312109, 0.0496607237, -0.0748403519, 0.0012717978, -0.0208942555, -0.0352199227, 0.0391845442, -0.0016666766, 0.0159381926, 0.0154165449, 0.0531768166, 0.0557025671, -0.0344141126, -0.0617894344, -0.0236543417, -0.0360607207, 0.0119175818, -0.0173308682, -0.0618260913, -0.0034169485, -0.0403733142, 0.0520404056, 0.0311396550, 0.0792494044, -0.0098790033, -0.0213401150, 0.0555363297, -0.0120401578, -0.0502782315, 0.0521684177, -0.0380265713, 0.0162385385, -0.0075595202, 0.0719439611, 0.0079221725, -0.0811489895, 0.0446226373, 0.0171596557, 0.0236315336, 0.0676381215, -0.0699979663, -0.0599695630, 0.0497675836, -0.0283464473, 0.0166462325, -0.0103402212, -0.0639666542, -0.0232048873, -0.0735831335, -0.0702700391, -0.0406394750, 0.0143565517, 0.0142568434, 0.0285122562, 0.0582171381, -0.0766803175, 0.0421259962, 0.0407086350, 0.0695591867, 0.0083582578, -0.0281013325, 0.0196939316, -0.0341992080, -0.0051520611, -0.0612513348, 0.0068137306, -0.0399839059, 0.0320789106, 0.0117054395, 0.0124809416, -0.0683369711, 0.0298929513, -0.0197314937, -0.0322161503, 0.0394970514, -0.0743305534, -0.0508348905, 0.0127453757, -0.0778676793, 0.0474447906, -0.0334230103, 0.0591505617, -0.0317644067, -0.0055824537, -0.0690720379, 0.0267877243, -0.0393439159, -0.0591621995, 0.0030788328, -0.0425210670, 0.0132264234, -0.0441636853, -0.0199488495, 0.0240604766, 0.0532304049, 0.0316309519, 0.0695686340, -0.0005079482, 0.0700962245, 0.0718181729, 0.0186929666, 0.0083991569, -0.0025447977, -0.0246671513, -0.0603475161, 0.0100843403, 0.0528742820, 0.0019081339, -0.0807418898, -0.0461375415, -0.0766693801, -0.0721458122, -0.0752359256, -0.0767579824, -0.0140068829, -0.0617916584, -0.0118828816, 0.0654202327, 0.0470842756, 0.0057089045, -0.0338292345, 0.0521553755, -0.0266547166, -0.0803133100, 0.0211206321, -0.0590111464, 0.0263019670, -0.0400206223, -0.0662221164, 0.0743540376, 0.0133811459, 0.0307468623, 0.0288001765, 0.0119593246, 0.0557286926, -0.0742718875, -0.0614794903, 0.0424767211, -0.0323960334, 0.0796676949, 0.0219355319, 0.0181943364, 0.0000842805, -0.0732989833, -0.0206069518, -0.0668420717, -0.0184748936, -0.0091176471, 0.0464402437, -0.0384174660, -0.0129937679, 0.0724559352, 0.0718289539, -0.0008032679, -0.0509405509, -0.0367037840, -0.0454309098, 0.0662573799, -0.0655178949, -0.0536030754, -0.0118217077, -0.0642313361, -0.0101644583, 0.0452237837, -0.0743105784, -0.0660821348, 0.0435538404, -0.0269800257, -0.0315114595, 0.0661554933, 0.0118760271, 0.0368484780, -0.0660458803, -0.0133876428, -0.0750010908, 0.0565405451, 0.0403369255, -0.0327562764, 0.0391702987, -0.0204542149, 0.0545089319, -0.0588135757, -0.0623549670, -0.0085540088, -0.0349920243, 0.0420484319, -0.0124919387, -0.0727582425, 0.0336870588, -0.0151067721, -0.0212384705, -0.0763252899, -0.0441108048, -0.0279528704, 0.0428066999, 0.0583843589, 0.0617263131, -0.0061778021, -0.0321507566, -0.0751994625, -0.0147263370, -0.0021865855, -0.0186038688, 0.0133522879, 0.0516993627, -0.0582192726, 0.0371640958, -0.0364680849, 0.0713442490, -0.0322187729, -0.0211053025, 0.0760798752, 0.0568758920, 0.0082907658, 0.0091108428, -0.0321469717, -0.0429996178, 0.0121025937, 0.0728757009, 0.0110951904, 0.0027108854, 0.0099845026, 0.0761147961, -0.0334265158, 0.0101879230, -0.0789083168, -0.0733811110, 0.0010973559, 0.0488505289, -0.0668323711, -0.0615719371, 0.0084047792, -0.0264553297, 0.0621048026, -0.0253118612, 0.0611869134, 0.0796009526, 0.0535773560, 0.0308215562, -0.0823247731, -0.0790550187, -0.0686648786, 0.0059545441, 0.0098247631, 0.0281080082, -0.0436747968, 0.0044129570, -0.0479321405, -0.0364057198, -0.0543932877, -0.0126055349, 0.0536612980, 0.0644527674, 0.0072131292, 0.0699996054, -0.0524994172, 0.0440310948, 0.0391682200, -0.0173736829, 0.0563879684, -0.0621787272, 0.0766687915, -0.0056651747, 0.0152073540, -0.0225864816, -0.0572828092, 0.0515098497, -0.0795332268, 0.0563579164, -0.0438481271, -0.0479125977, 0.0409191586, 0.0319599621, 0.0381318443, -0.0777302980, 0.0134727489, 0.0120567968, -0.0801643729, -0.0309848841, -0.0021854232, -0.0579047576, 0.0589949451, 0.0498952866, -0.0826195180, -0.0703463629, -0.0456219241, 0.0763877705, 0.0810979605, -0.0728973299, -0.0792601034, 0.0112001337, 0.0248855203, 0.0346564390, 0.0705251619, 0.0540429018, -0.0695157647, 0.0652480423, -0.0771587715, -0.0360620841, -0.0188632552, -0.0086109908, -0.0315588340, 0.0196622424, -0.0682051331, -0.0812162384, 0.0713490173, -0.0380797684, 0.0691095144, 0.0373007506, 0.0139064984, 0.0616332106, 0.0286350008, 0.0425955430, -0.0256806519, 0.0816759393, -0.0335031375, -0.0825945735, -0.0324367359, -0.0828399658, 0.0093499953, 0.0601875447, 0.0385411531, -0.0505917333, -0.0287746843, -0.0320132077, 0.0192879867, -0.0661923289, 0.0022088082, -0.0244046822, -0.0460033603, -0.0540306233, -0.0802092627, -0.0332581215, -0.0264980365, -0.0742485002, -0.0672987550, 0.0097387843, -0.0379107185, -0.0578534305, -0.0273570940, 0.0105667682, 0.0519816577, 0.0163667277, -0.0521111861, 0.0465375520, 0.0646493360, 0.0117695443, -0.0779781267, -0.0140402019, 0.0164635666, 0.0031712991, 0.0231640581, -0.0290048067, 0.0595174544, -0.0147522949, -0.0367628522, 0.0224171951, -0.0726177022, -0.0658699423, -0.0069808513, 0.0543501154, 0.0074960017, 0.0080458717, -0.0122306924, 0.0414986014, 0.0431593284, 0.0406800359, -0.0362173207, 0.0829995796, -0.0278282464, -0.0339035690, 0.0185427032, 0.0046264995, 0.0302758794, 0.0472377390, 0.0024682160, -0.0372396931, 0.0590151586, 0.0803569853, -0.0539095327, -0.0528339706, -0.0438812673, -0.0196620934, -0.0384769291, 0.0582259186, -0.0239780061, -0.0774130225, -0.0350591205, 0.0318871550, 0.0224335380, 0.0296041779, -0.0226907898, -0.0654764026, -0.0243628602, 0.0541954301, -0.0746094435, -0.0447447151, 0.0691622198, -0.0158527885, 0.0730420724, 0.0025785042, -0.0115776975, 0.0322395153, -0.0812054053, -0.0472374819, -0.0646644831, 0.0174403619, -0.0294298250, -0.0826352239, 0.0765196010, -0.0018926865, 0.0298366062, -0.0757928789, -0.0764576122, -0.0426984504, -0.0301445220, 0.0732334927, 0.0294508561, 0.0624164008, -0.0482818149, 0.0343811586, 0.0428208150, 0.0392968766, -0.0680162311, -0.0194297954, -0.0766455159, 0.0494325384, -0.0509943776, -0.0478468463, -0.0648438334, -0.0515314676, -0.0033989677, 0.0593983456, -0.0698455349, 0.0410883874, 0.0060066679, 0.0687416494, -0.0539586134, 0.0705595016, -0.0039648809, 0.0125864707, -0.0131334104, 0.0133334426, 0.0503108054, -0.0242735837, -0.0588911735, 0.0320797563, 0.0599498339, 0.0259758718, 0.0527277030, -0.0582871810, -0.0286003817, -0.0565570258, -0.0046419469, 0.0473153517, 0.0446594208, -0.0425300188, 0.0217581913, -0.0064211464, -0.0081586828, 0.0394946374, -0.0065407231, 0.0374433249, -0.0773007274, 0.0601057671, -0.0470435359, -0.0748385638, 0.0495574474, 0.0749448240, -0.0789489597, 0.0298315100, 0.0196630564, -0.0808324292, -0.0009805809, -0.0377570279, 0.0286523271, 0.0143556278, -0.0827958211, 0.0141700199, -0.0248872191, 0.0007308387, 0.0335397758, 0.0813015625, -0.0069081141, -0.0089267846, 0.0079968171, -0.0676852837, 0.0375141241, -0.0615424402, -0.0718023404, 0.0269457158, -0.0718830228, 0.0679103136, -0.0025622419, 0.0145988138, 0.0797905028, -0.0829679817, -0.0222054105, -0.0181061905, -0.0762338713, -0.0759487748, 0.0104276817, -0.0502120852, -0.0053613614, -0.0567942411, 0.0423853286, 0.0689379573, 0.0763640106, 0.0681481734, -0.0556224585, 0.0641651750, -0.0376782529, -0.0380811803, -0.0265740622, -0.0562435947, -0.0544244610, -0.0764228404, -0.0161776841, -0.0367279127, -0.0483560637, -0.0592983589, -0.0599366985, -0.0557611883, 0.0826070011, 0.0153181981, 0.0298478901, 0.0489070453, 0.0579517968, 0.0073153605, -0.0581802726, 0.0184079390, 0.0721773729, -0.0470516048, -0.0039637187, -0.0596610606, -0.0136814024, -0.0655073971, -0.0394382402, -0.0477437004, -0.0352124535, -0.0340714455, -0.0311329886, -0.0475046933, -0.0522699133, 0.0808759779, 0.0679795444, 0.0733026639, 0.0304600373, -0.0733573586, -0.0051937439, 0.0030274638, -0.0600997880, -0.0812323987, 0.0427152179, -0.0235286281, 0.0804675072, 0.0247257911, -0.0796463266, -0.0356048867, -0.0064211865, 0.0350705236, -0.0042103222, -0.0702013746, 0.0548350550, 0.0533257648, -0.0568123236, -0.0663269311, 0.0303458534, -0.0026352273, 0.0285373982, -0.0365566872, -0.0018545495, 0.0761514604, 0.0172508899, 0.0626357347, -0.0228393041, 0.0579204150, 0.0227857400, 0.0380352847, 0.0342569128, 0.0365109108, 0.0778995082, 0.0301507507, 0.0206998046, 0.0761526003, 0.0557057746, -0.0042405711, 0.0134040443, -0.0398885906, -0.0407914557, 0.0790904015, 0.0158627126, 0.0258336980, -0.0423112996, 0.0667129010, -0.0122744823, -0.0115203485, -0.0369015485, -0.0435836501, -0.0737460852, -0.0095021455, -0.0031557125, -0.0779252872, 0.0041794074, 0.0202012360, -0.0313252136, 0.0722336322, 0.0789419264, 0.0467927307, -0.0627480447, -0.0307771116, -0.0291012768, 0.0537534356, 0.0427532978, 0.0194765553, 0.0087361000, 0.0492196716, 0.0330705196, -0.0662176535, 0.0592285320, 0.0056274352, 0.0489949323, -0.0311794411, -0.0543195195, -0.0106699141, 0.0558378212, 0.0357940309, -0.0637627542, 0.0494952090, -0.0701394379, -0.0032491521, 0.0682135820, 0.0433377773, -0.0035933773, -0.0528982729, 0.0212898497, 0.0171827525, 0.0554009005, -0.0188246612, -0.0086124018, -0.0587325059, -0.0316010639, 0.0711925477, -0.0222672895, 0.0387346521, 0.0335670151, 0.0483331047, 0.0279695597, -0.0030785548, -0.0184534863, -0.0409665667, 0.0499274917, 0.0762025788, -0.0716111213, -0.0769022629, -0.0313985273, 0.0645071492, 0.0313405842, 0.0627364814, -0.0808640569, 0.0479424000, -0.0108712278, -0.0017286354, -0.0658526421, -0.0196487326, -0.0583749712, -0.0007853766, 0.0393044166, -0.0632562712, -0.0378131457, 0.0785431340, -0.0430040993, 0.0642142519, -0.0735166520, -0.0650078803, 0.0664106458, 0.0260665119, 0.0625532568, 0.0815797150, -0.0653362870, 0.0219223108, 0.0813419148, 0.0741955787, -0.0038743622, -0.0223675948, -0.0456209294, 0.0708048865, 0.0666568056, 0.0119602382, -0.0067357384, -0.0433209762, 0.0697916746, -0.0218351483, -0.0450494811, -0.0434890538, -0.0206463207, -0.0245551728, 0.0086620711, -0.0663755387, -0.0502726212, -0.0612351820, -0.0793459266, -0.0741169527, -0.0339021273, -0.0219720211, -0.0610793680, -0.0795816332, -0.0669651479, 0.0535494313, -0.0625670105, -0.0321310759, 0.0429732837, -0.0435883887, 0.0374116041, -0.0702335611, 0.0102267945, -0.0348463207, -0.0190338548, 0.0484914370, -0.0490201861, 0.0153025519, 0.0467191301, -0.0532930419, 0.0179547481, 0.0527048446, -0.0676696971, -0.0789356083, -0.0471502505, 0.0632101595, 0.0356033146, 0.0669623092, -0.0538823903, -0.0684509426, -0.0142793339, -0.0181952212, 0.0535669252, 0.0357581973, -0.0553130656, -0.0071311635, 0.0728223175, -0.0737674385, 0.0705557838, -0.0686674863, -0.0798766762, -0.0763722956, -0.0145073906, -0.0083752749, 0.0705608800, 0.0082219336, 0.0304586366, -0.0694789365, 0.0712305903, -0.0097917421, -0.0062218197, -0.0568157993, 0.0345153213, 0.0127903875, -0.0721887574, -0.0279879775, -0.0285377167, 0.0394387953, 0.0013676019, -0.0287966896, 0.0777803212, -0.0027001067, -0.0332988426, -0.0532495901, 0.0563660637, -0.0583921075, 0.0170308892, 0.0005780231, -0.0406709872, 0.0549164452, -0.0020849898, -0.0008838034, 0.0778287873, 0.0188408252, 0.0726504773, -0.0638020560, -0.0054157306, -0.0189277176, -0.0692158118, -0.0150299715, 0.0067988695, -0.0668994263, -0.0270070080, 0.0304471422, -0.0115623791, 0.0807852447, 0.0176871028, 0.0485084541, 0.0766765773, 0.0728804097, -0.0321590714, -0.0175727028, 0.0472742431, 0.0515122041, -0.0077111237, 0.0531323515, 0.0324513763, 0.0568392426, 0.0785002038, -0.0276019499, 0.0048252502, -0.0780066699, -0.0276726708, -0.0201232918, 0.0622749403, -0.0611680374, 0.0406356901, -0.0503671728, -0.0642962679, -0.0092258789, -0.0041382606, 0.0096144490, 0.0424287096, 0.0134567246, -0.0545667894, 0.0708991140, -0.0713240951, -0.0325259529, 0.0200658236, 0.0216625258, 0.0201064646, 0.0172649175, -0.0322385319, 0.0478937551, 0.0747667402, -0.0757672191, 0.0195165705, -0.0187604092, 0.0562560633, -0.0231232382, -0.0501982868, -0.0445223525, -0.0580124259, 0.0242118426, 0.0593022108, -0.0023927272, 0.0694292560, 0.0022804425, -0.0486145504, 0.0776929781, 0.0336617865, -0.0661483631, -0.0827075839, -0.0196637828, 0.0155387931, 0.0489935502, -0.0763644353, 0.0297907591, -0.0101315575, -0.0127228862, 0.0627811402, 0.0607522465, 0.0815897658, 0.0719928667, -0.0556767881, 0.0100560980, -0.0086596571, -0.0314170048, -0.0709677637, 0.0282916911, 0.0740501359, -0.0711719394, 0.0648029298, 0.0229779631, 0.0570542030, 0.0535417907, -0.0589748360, -0.0194949135, -0.0791396573, -0.0275186822, 0.0162677839, 0.0381240137, 0.0767531842, 0.0777868181, -0.0306661595, -0.0637904182, 0.0360424817, 0.0523509383, -0.0159063935, 0.0162970107, 0.0419253036, 0.0144769121, 0.0221396666, 0.0272660982, -0.0219234917, 0.0473050177, 0.0216489062, 0.0187556222, -0.0136236968, 0.0195178613, -0.0232531559, 0.0086344751, -0.0133526251, -0.0579712875, -0.0278109815, 0.0814839825, -0.0173361227, -0.0403657742, 0.0214891955, 0.0111969253, -0.0610599555, 0.0645115301, -0.0626934543, 0.0743059665, 0.0625952855, 0.0656756982, -0.0559840091, -0.0240747910, 0.0792687908, 0.0591568761, 0.0182898529, 0.0172197372, -0.0782146603, 0.0002090225, -0.0779361427, -0.0441629104, 0.0092459554, -0.0741190463, -0.0445599928, -0.0132366754, -0.0243469160, -0.0123908594, -0.0278307293, -0.0503294729, 0.0459190011, 0.0379501991, -0.0734742060, 0.0002266058, -0.0599591322, 0.0594573431, -0.0435959809, -0.0483998246, 0.0698580518, 0.0595039241, -0.0648169443, -0.0484013148, 0.0822015777, 0.0281448551, 0.0775985047, 0.0403002687, 0.0001729420, -0.0827316865, 0.0065358253, 0.0008167981, -0.0340011902, 0.0230620448, -0.0313879475, -0.0652368590, 0.0326991826, 0.0083778882, 0.0082646403, -0.0493405983, -0.0618263073, -0.0103361886, -0.0202555843, 0.0675918609, -0.0076462147, -0.0309719983, -0.0305853747, -0.0423670299, 0.0395347290, -0.0710758716, 0.0239156988, 0.0236516204, -0.0424837731, 0.0549472496, -0.0821390152, 0.0758634731, -0.0733556524, 0.0792232007, 0.0007979135, 0.0138394944, 0.0633502305, -0.0457920618, 0.0010867958, 0.0556441359, -0.0793744251, -0.0506814197, 0.0552018732, -0.0308771972, -0.0007563991, 0.0550334491, -0.0815223828, -0.0634630024, 0.0094262287, 0.0641143098, -0.0167629179, -0.0565886758, 0.0034764532, 0.0626492277, -0.0244634915, 0.0601086095, 0.0063058021, -0.0731131956, 0.0231685974, -0.0153593151, 0.0605415069, -0.0672975257, -0.0671642944, -0.0574919619, -0.0134361712, 0.0222915597, -0.0524336696, -0.0601598509, 0.0070963250, -0.0544064417, 0.0002410400, 0.0742733479, -0.0588705987, 0.0819547102, 0.0335465595, -0.0691644922, -0.0380242169, 0.0286254548, 0.0683800876, -0.0272196066, 0.0034642844, -0.0347596966, 0.0391787626, 0.0125786532, -0.0257321019, 0.0077376380, -0.0024923359, 0.0006868606, -0.0403322354, 0.0762581825, -0.0157207772, 0.0142268231, 0.0767489895, -0.0237874985, 0.0136127891, -0.0667154640, -0.0626833588, 0.0563695580, -0.0604992472, 0.0775555968, 0.0718535632, -0.0014432597, 0.0644490942, -0.0823377743, -0.0134431850, -0.0666816905, -0.0589477457, -0.0299136043, -0.0132256784, -0.0482716747, 0.0108649591, -0.0484796725, 0.0075088763, 0.0491293818, 0.0344633535, 0.0722627491, 0.0167442523, 0.0770078152, 0.0613637492, -0.0278712604, 0.0127573470, -0.0598195009, -0.0179143455, 0.0740267113, 0.0734096840, -0.0132403113, 0.0445602015, 0.0365935527, 0.0583187230, -0.0182526000, 0.0176086146, -0.0452939905, 0.0696208999, 0.0588353910, 0.0624640547, 0.0546895787, 0.0225472916, -0.0438489318, 0.0184140783, 0.0012641586, 0.0256389789, -0.0304165855, -0.0806197226, 0.0473157763, -0.0146057373, 0.0128275706, -0.0109964358, -0.0528650843, -0.0079537928, -0.0550477952, 0.0002830710, 0.0461116210, 0.0192283820, -0.0202771295, -0.0496226661, -0.0680191964, -0.0334897563, -0.0247625951, -0.0640475154, -0.0766361356, -0.0666805655, 0.0497925095, -0.0502805077, 0.0093095833, -0.0122318547, 0.0749164522, -0.0174202155, -0.0212428700, -0.0532441363, -0.0269373320, -0.0082691796, 0.0138233313, 0.0133399796, 0.0462265685, -0.0482162125, 0.0518249758, 0.0226134714, -0.0670093745, -0.0831704885, -0.0241340380, 0.0026901527, -0.0214389488, -0.0753004774, 0.0502557606, -0.0079261363, 0.0627579540, 0.0391800515, -0.0228652116, -0.0831127390, 0.0736025795, 0.0117043070, 0.0087070325, -0.0558969267, -0.0460106805, 0.0710377991, -0.0379208736, -0.0775980875, 0.0668068975, -0.0368961617, 0.0031320497, -0.0434220359, 0.0189276990, -0.0692997947, 0.0816967413, 0.0655635446, 0.0810625851, 0.0081173871, 0.0454987325, -0.0398385525, 0.0063768006, 0.0693136975, -0.0575730130, 0.0795586780, 0.0751000345, -0.0160692129, 0.0122110732, -0.0532963276, 0.0508475862, -0.0251080040, -0.0154732289, -0.0611956269, 0.0654009581, 0.0735247806, -0.0781895891, 0.0049865888, 0.0657355487, -0.0305568241, -0.0709081441, 0.0421267711, -0.0253944825, 0.0196842365, 0.0161042307, 0.0301103871, 0.0043469253, 0.0133488607, 0.0255908389, -0.0533827543, 0.0745544434, 0.0200271104, 0.0531337894, -0.0676354542, 0.0592262559, 0.0318336487, 0.0202399790, -0.0378611982, 0.0035789530, 0.0427904762, -0.0284470301, 0.0718403980, -0.0319060497, 0.0314256996, 0.0778802782, -0.0290967170, 0.0626217797, 0.0604151152, 0.0079843700, 0.0046365527, -0.0142820859, 0.0194594786, 0.0587363504, 0.0300839823, -0.0745867491, 0.0161475148, -0.0410786606, 0.0751680806, 0.0463825464, -0.0126181208, 0.0304464772, 0.0279532876, -0.0668503270, -0.0672909766, -0.0530673712, 0.0772010982, 0.0678442493, 0.0013857514, -0.0259420369, 0.0457410328, 0.0603961535, 0.0525735281, -0.0299744196, -0.0493277758, -0.0109824091, 0.0231290795, 0.0580592230, -0.0794039592, -0.0801817551, -0.0762082711, -0.0327381641, -0.0637957379, 0.0612415895, -0.0355852842, -0.0250096079, -0.0493318886, -0.0037379973, -0.0123506673, -0.0437854640, 0.0224626549, 0.0272266213, -0.0058638859, -0.0328009985, 0.0134597551, -0.0193098523, -0.0506408475, -0.0075491588, 0.0379119404, 0.0502098985, 0.0764221773, 0.0191304628, -0.0212271344, 0.0180314388, -0.0024185558, 0.0810813457, -0.0717636943, 0.0820780993, -0.0564519241, -0.0744940639, -0.0594279170, 0.0402334929, -0.0755830631, 0.0126968585, 0.0334501602, -0.0013537041, 0.0719631910, 0.0440096743, 0.0575814769, -0.0278795660, -0.0618735142, -0.0323266387, -0.0471206866, -0.0488658771, 0.0518334694, -0.0209808610, -0.0751145482, -0.0177659392, 0.0790098086, 0.0117899189, 0.0248618275, -0.0775382370, 0.0670754388, 0.0527066439, 0.0736103430, -0.0083622420, 0.0526761860, -0.0099986689, 0.0474375002, 0.0642354116, 0.0381836779, -0.0401216820, -0.0139137702, -0.0633704737, 0.0689988434, 0.0481402762, -0.0195700731, 0.0802357197, -0.0178503506, 0.0234689936, -0.0085166860, -0.0081364103, 0.0345021486, 0.0611721799, -0.0057610781, -0.0132870907, 0.0290762428, -0.0500530303, 0.0342231095, 0.0809338093, -0.0059113903, -0.0581832714, 0.0790228322, 0.0204607826, -0.0189215299, -0.0507346243, -0.0165864490, -0.0082546761, -0.0507753268, 0.0007953008, 0.0068188566, 0.0752884448, 0.0079219043, 0.0549339280, 0.0112496158, -0.0229726173, 0.0015563589, 0.0425565317, 0.0377998166, 0.0760210827, 0.0526330136, 0.0064018448, 0.0065178843, -0.0005082462, -0.0688201785, -0.0355132036, 0.0342925377, 0.0365349315, 0.0118718548, -0.0691520348, -0.0758754238, -0.0334581248, -0.0698388815, -0.0776762590, 0.0060192244, 0.0828514397, 0.0304470528, -0.0405729748, 0.0324228257, 0.0091780964, -0.0658667311, 0.0418777876, -0.0736360922, -0.0375180095, -0.0026111174, 0.0756143853, 0.0028185009, -0.0830396041, 0.0372383818, 0.0562330149, 0.0714549348, 0.0674623400, -0.0757838562, 0.0138777299, 0.0050868038, 0.0420281515, -0.0699346960, -0.0774811804, -0.0081103239, 0.0203284398, 0.0428320207, 0.0210823361, 0.0539834984, 0.0154885175, -0.0721147805, -0.0412103385, 0.0769850239, 0.0756376907, 0.0377378874, -0.0210811235, -0.0148243066, -0.0019468667, -0.0598072521, 0.0091970107, -0.0200136099, -0.0445790552, -0.0556483082, -0.0299743209, 0.0014862543, 0.0817788765, -0.0316963606, 0.0245703235, -0.0645706877, -0.0771889240, 0.0706784129, 0.0788451061, 0.0227924939, -0.0431611165, -0.0544513054, 0.0350225009, -0.0070133754, 0.0155514097, 0.0268765241, 0.0577647574, 0.0230564028, 0.0533930361, -0.0592387915, 0.0437459759, 0.0718422383, -0.0228501912, 0.0186368190, -0.0708933696, 0.0637276992, -0.0738508180, -0.0011978487, 0.0161599908, 0.0746301785, -0.0100854635, 0.0567965470, 0.0041512242, -0.0181102045, 0.0020002127, 0.0016917501, 0.0468595363, -0.0742890313, -0.0536827669, 0.0277220104, -0.0636723414, 0.0583447106, 0.0259595104, -0.0075772726, 0.0452896394, -0.0066872900, -0.0789508075, -0.0515926294, 0.0742459297, -0.0531496145, 0.0699195862, -0.0373557247, 0.0567839704, 0.0296298862, 0.0028291501, -0.0066547357, 0.0133041274, -0.0079367459, -0.0380895734, 0.0480703600, -0.0410451740, -0.0744231641, 0.0052459976, -0.0062340982, -0.0604502633, 0.0646695495, 0.0325632542, -0.0769349262, 0.0040298798, -0.0034384953, -0.0768928975, 0.0089282840, -0.0717755258, 0.0818478838, 0.0390412658, 0.0770468041, -0.0181203373, 0.0051401700, -0.0047145351, -0.0830535740, 0.0178684201, 0.0102111483, 0.0255051069, -0.0762154534, 0.0319095142, 0.0325141512, 0.0197396185, 0.0356112346, 0.0443867818, 0.0067732292, 0.0664632693, -0.0259879418, -0.0545856133, 0.0515767373, -0.0608931221, -0.0503879264, 0.0660445020, -0.0790006965, -0.0074400133, -0.0657959729, -0.0216482896, 0.0468305610, -0.0199892018, -0.0045747631, 0.0521329530, -0.0467212237, 0.0589930750, -0.0507681742, 0.0498024933, 0.0104996841, 0.0496307611, -0.0555026419, -0.0515903272, -0.0286248494, -0.0770847648, 0.0782101974, -0.0014798170, -0.0476322994, 0.0049893605, -0.0797744691, -0.0077343793, -0.0049181138, 0.0369632691, 0.0155093102, -0.0818321779, 0.0054012071, -0.0728043988, 0.0765627697, 0.0470628291, 0.0303356815, -0.0474440753, 0.0149378330, -0.0335849933, 0.0298732519, 0.0105206138, 0.0086265970, -0.0483460501, 0.0680261850, 0.0413832068, 0.0414528772, 0.0085389987, 0.0350141190, -0.0276039951, -0.0286644455, -0.0605188087, -0.0031736037, 0.0316059217, 0.0346350633, -0.0648808628, -0.0163813122, -0.0502219908, -0.0364044867, 0.0781729147, 0.0769767687, 0.0275471024, -0.0249416772, -0.0648176968, -0.0652699620, 0.0265011955, -0.0205514599, -0.0130853401, -0.0263617318, -0.0004286645, 0.0165079013, -0.0166563150, 0.0568526350, 0.0509562567, 0.0832893699, -0.0827990919, -0.0425370522, 0.0139372246, -0.0706312358, 0.0183792803, 0.0214519724, -0.0464686938, 0.0256163683, -0.0560242049, 0.0031488580, 0.0509223714, 0.0611796603, -0.0231629461, -0.0720745921, 0.0149547709, -0.0241206381, -0.0050567039, -0.0300171170, -0.0829144567, 0.0712235272, 0.0191111211, -0.0297523551, 0.0546485744, -0.0194940697, 0.0176987853, 0.0697886050, -0.0287383962, -0.0082684550, 0.0663104504, 0.0098020341, -0.0353170000, -0.0507174507, -0.0320192277, -0.0609140843, 0.0166542586, 0.0499105752, 0.0558119528, -0.0762245432, 0.0396643393, 0.0262143109, 0.0663286373, -0.0250017103, 0.0669784620, -0.0135945100, -0.0017225060, -0.0628006458, 0.0654784590, -0.0645700693, -0.0485344417, 0.0660504326, -0.0100207329, 0.0070167929, 0.0195329208, 0.0103416219, -0.0213062800, -0.0093349554, -0.0169524997, 0.0313647725, 0.0563671067, 0.0397505686, -0.0453501567, -0.0648298264, -0.0647424683, 0.0635463297, 0.0070066601, -0.0487016626, -0.0570111312, -0.0369543470, -0.0286408123, 0.0491044968, 0.0156644993, -0.0621693283, -0.0543234237, 0.0775067061, -0.0060190256, 0.0351577364, -0.0375316478, 0.0122436071, 0.0476337597, 0.0220938027, -0.0157244727, -0.0486771241, -0.0715904534, 0.0231380705, -0.0004569567, 0.0340867527, 0.0406303443, 0.0082669053, -0.0319364183, -0.0755082965, -0.0687632561, -0.0363619216, -0.0202292986, 0.0798171312, 0.0590979420, -0.0710195005, 0.0305913053, -0.0253760256, 0.0101594022, 0.0065933834, 0.0564302765, 0.0472859666, 0.0032624938, 0.0612512566, -0.0360050313, 0.0001927704, 0.0344059654, 0.0728493556, -0.0705195591, -0.0007563693, 0.0050625452, 0.0708759725, 0.0463109910, -0.0327150784, 0.0165776778, -0.0494703986, -0.0769803524, -0.0035207195, -0.0705094412, 0.0050368160, 0.0705957636, -0.0687676072, -0.0710405707, 0.0248557869, -0.0003498179, 0.0807760358, 0.0501468368, 0.0319720097, 0.0393065028, -0.0070636515, 0.0457290150, 0.0039867759, 0.0453071520, 0.0172540098, 0.0041418760, -0.0548688807, 0.0304017439, 0.0063374424, -0.0743923783, -0.0823165104, 0.0820904151, 0.0014061461, -0.0373860039, -0.0322129019, 0.0522662885, -0.0466712862, 0.0388010889, 0.0729955882, -0.0275893733, -0.0264218524, -0.0239727199, 0.0074918391, -0.0175875742, 0.0561929718, -0.0293733701, -0.0143513558, -0.0085638631, 0.0002896771, 0.0079449909, 0.0556171052, -0.0007065301, -0.0255587120, -0.0552418381, -0.0079722600, 0.0831036419, 0.0096296482, 0.0618384890, 0.0352327488, -0.0141303232, 0.0710671246, -0.0162382498, -0.0331025682, -0.0098917289, 0.0629810095, 0.0666100830, -0.0661534816, 0.0660749972, -0.0468878597, -0.0362127312, -0.0326170400, -0.0447024368, -0.0746075213, -0.0346606411, 0.0554576702, -0.0131207248, -0.0487499759, -0.0184398461, -0.0829039514, -0.0327034257, 0.0794609860, -0.0622665361, -0.0425159596, 0.0589576028, -0.0138910115, -0.0623442791, 0.0433148779, -0.0267331749, 0.0646689013, 0.0080385702, 0.0688807964, 0.0479517095, 0.0031254336, -0.0222228747, -0.0305686556, -0.0312634148, -0.0463977046, -0.0441886187, -0.0598308668, -0.0205291789, 0.0081305690, 0.0192800090, 0.0054078829, -0.0219772160, 0.0030274738, -0.0228331741, 0.0492764637, 0.0491230413, 0.0446027294, -0.0800911933, -0.0046518808, -0.0208961032, 0.0103506818, -0.0428429991, 0.0659376904, 0.0492846817, -0.0333296284, -0.0474519245, -0.0293609723, -0.0456751324, 0.0638355240, 0.0403296351, -0.0360172689, 0.0024962102, -0.0256074686, 0.0707607567, 0.0486262813, -0.0082249828, -0.0646692440, -0.0163369551, 0.0051661669, -0.0291199423, 0.0067333444, -0.0648654848, 0.0807054490, 0.0722089633, -0.0535793714, 0.0529766046, -0.0112498645, -0.0170915760, -0.0454779379, 0.0691016093, -0.0638954714, -0.0781068131, -0.0741201937, 0.0124307945, 0.0248183161, 0.0435693748, 0.0032033066, -0.0713781863, -0.0269340128, 0.0210472383, 0.0803755075, 0.0025679937, -0.0207856856, -0.0724731758, 0.0089507652, -0.0504420474, 0.0356734805, 0.0579029806, 0.0039601824, 0.0249445885, 0.0445637181, 0.0157555752, 0.0281438213, 0.0762052536, -0.0617677085, 0.0725008175, 0.0371390618, -0.0535383523, -0.0062467344, 0.0272182561, -0.0813449696, -0.0573477559, 0.0464517958, 0.0724783093, 0.0270835403, 0.0744391382, -0.0488457829, -0.0134856729, 0.0044211722, -0.0593001172, -0.0280078743, 0.0340654030, 0.0605734959, 0.0460416153, 0.0185868908, 0.0401852131, 0.0341204777, -0.0633478463, 0.0769002587, 0.0277717020, -0.0830322206, 0.0511173941, -0.0830832273, -0.0485065356, 0.0803194195, -0.0465748347, -0.0407467224, -0.0077813077, 0.0014706579, 0.0280826781, -0.0263676215, 0.0132015087, 0.0068915938, 0.0616344400, 0.0351135768, 0.0327834859, 0.0329230502, 0.0306274761, -0.0531013459, -0.0457483344, 0.0039327149, 0.0533474386, 0.0054689967, 0.0118161645, -0.0192719325, 0.0016589380, 0.0641738102, 0.0510094985, 0.0705021918, 0.0523379743, -0.0056279912, -0.0578866303, 0.0750354230, 0.0341213718, 0.0713220164, -0.0062703378, -0.0268191062, -0.0206688792, -0.0099013457, 0.0743139759, 0.0661907420, 0.0560043044, 0.0168016721, -0.0571901016, 0.0597544424, -0.0260506272, 0.0271821450, -0.0177005529, -0.0568651818, -0.0693799779, 0.0211464297, -0.0152100660, -0.0709142983, 0.0060493941, 0.0042131534, 0.0600840934, 0.0694436729, 0.0775529072, 0.0724207237, -0.0718335509, 0.0735059753, 0.0784246847, 0.0586239547, -0.0296394937, 0.0535806641, 0.0602211729, 0.0600307249, 0.0573171303, 0.0735139400, 0.0795510635, 0.0162119754, 0.0505318493, -0.0591955408, 0.0272154640, -0.0660091341, -0.0470951758, 0.0180345774, 0.0178177059, -0.0402763672, -0.0029341930, -0.0179487877, 0.0041481149, -0.0254420172, 0.0311232135, -0.0362766571, -0.0490490422, 0.0667318776, 0.0088387877, -0.0154162869, -0.0704111233, -0.0126433540, 0.0584112667, -0.0385880731, 0.0572337545, -0.0751931071, 0.0327809229, 0.0281155594, 0.0833261311, 0.0685343295, -0.0045068935, 0.0341551192, 0.0359011516, 0.0316312425, -0.0299323313, 0.0143586574, 0.0649409145, -0.0574459769, -0.0560709834, -0.0373800024, 0.0246526171, 0.0693066120, 0.0264621545, 0.0158065967, -0.0587084331, 0.0589778274, -0.0288173221, -0.0227122772, 0.0605697520, -0.0171164311, -0.0304177068, 0.0229340643, -0.0077951360, -0.0425549932, -0.0303469561, -0.0409580320, -0.0199639890, -0.0000297326, 0.0250756200, -0.0481722727, -0.0116283512, 0.0332092270, -0.0145729650, -0.0483994447, 0.0463262573, 0.0177876856, 0.0328603238, 0.0437886827, -0.0704446360, -0.0079612834, -0.0702587143, -0.0296455026, 0.0392590798, -0.0103915017, 0.0354213342, -0.0124092177, 0.0408727489, -0.0647463799, -0.0538108945, 0.0174159035, 0.0128956493, 0.0139203072, 0.0123802200, 0.0086003710, -0.0017900278, -0.0134746563, -0.0399331227, 0.0623398200, -0.0411355048, -0.0212733690, 0.0532976687, 0.0785004050, -0.0281090122, 0.0172431506, -0.0769467503, -0.0043760422, 0.0247368682, 0.0690611601, 0.0172693767, 0.0665289983, -0.0054069986, -0.0761163160, -0.0585197173, 0.0293449182, -0.0778882802, 0.0698478520, 0.0166557301, 0.0207877010, 0.0351977088, -0.0443408638, -0.0598193109, 0.0049408232, 0.0803579241, 0.0442686491, -0.0501866825, -0.0620789044, 0.0471149720, -0.0703004673, -0.0125226257, 0.0186082795, 0.0565224551, 0.0723375902, 0.0390508920, -0.0432540029, 0.0753862038, 0.0446588770, 0.0524862148, -0.0650332198, 0.0498371124, 0.0048724469, 0.0335832350, -0.0754581690, 0.0747967660, 0.0351723470, 0.0550542399, 0.0315702893, 0.0478896312, -0.0745961666, -0.0761201605, -0.0345533788, 0.0634652451, 0.0090764603, 0.0814932212, 0.0445079766, -0.0699124560, -0.0179582443, 0.0825248063, -0.0421660431, 0.0585617386, 0.0154959382, 0.0201995559, 0.0041560424, -0.0359249227, 0.0774513036, -0.0702668428, 0.0348607749, 0.0682722703, 0.0183037911, -0.0770945847, 0.0777114481, -0.0113336872, 0.0573308803, -0.0359066240, -0.0577696860, -0.0094540045, 0.0719054863, 0.0067973593, 0.0359179601, 0.0027571481, -0.0298811998, -0.0357359461, -0.0307798926, 0.0220092926, -0.0071162223, 0.0204522591, 0.0820927843, -0.0038377747, 0.0031677426, -0.0740092471, -0.0542047992, -0.0060793855, 0.0357284769, -0.0727695376, -0.0196229629, 0.0073360535, 0.0239800029, -0.0665552691, 0.0238079336, 0.0740751624, -0.0815366879, -0.0794015452, -0.0215868764, 0.0027729233, 0.0526633002, 0.0553528219, -0.0492829606, 0.0452090427, 0.0796676949, -0.0270062517, -0.0631692186, -0.0164908841, -0.0449036025, -0.0150768301, -0.0286993645, 0.0434939303, -0.0031014129, -0.0317856260, 0.0681981221, -0.0496810786, 0.0221817475, -0.0453679599, 0.0671186894, -0.0743501037, 0.0017319038, -0.0631670132, -0.0828587934, -0.0614235215, 0.0817402899, -0.0742726922, 0.0353384167, -0.0286144484, 0.0040538404, -0.0234379601, 0.0013130938, 0.0349169634, -0.0495664887, -0.0212920941, -0.0255632419, -0.0227862168, 0.0045895944, -0.0076385951, -0.0694908872, -0.0604683645, -0.0155764334, -0.0405509621, 0.0247249175, 0.0325479880, -0.0723895803, 0.0184817575, 0.0690223351, 0.0531653501, 0.0314700343, 0.0031304702, -0.0260105319, -0.0483963154, -0.0208309349, 0.0511761941, 0.0023215795, -0.0506273583, 0.0560343862, -0.0565970391, 0.0362149850, 0.0382357948, -0.0311242472, -0.0115708830, -0.0422813483, 0.0171593670, -0.0253015980};

#endif

#endif
