//Numpy array shape [16, 10]
//Min -0.249107152224
//Max 0.243348687887
//Number of zeros 0

#ifndef W27_H_
#define W27_H_

#ifndef __SYNTHESIS__
classifier_weight_t w27[160];
#else
classifier_weight_t w27[160] = {-0.1279925704, 0.1200034618, 0.1088508964, 0.1788222492, 0.0005548596, -0.0477215350, 0.2310550213, 0.2137356997, 0.0639084578, 0.2071302831, -0.2131965160, -0.0432272255, -0.2187215090, 0.1582500637, -0.0021523833, -0.0564251542, -0.1812862456, 0.1602427363, -0.0422139466, 0.1882189512, -0.0031206906, -0.1856698096, 0.0621815026, -0.0547589660, 0.0833890438, 0.0583333075, -0.1614971757, -0.0844453573, 0.0502449870, -0.0066660345, -0.2007532716, -0.0859892070, 0.0238681138, 0.0277966857, -0.0922778845, -0.1398160458, -0.0022518635, 0.2403399646, -0.2488075793, -0.2275031209, 0.1295284927, 0.1496224999, 0.1009283662, -0.1836579740, -0.0288951993, -0.2241491377, -0.1943223476, 0.1103868186, -0.1857097149, 0.2371570766, -0.1214399040, 0.0216687918, -0.0474558175, 0.0892520845, -0.1699287295, 0.1066628397, -0.0801250935, 0.1359424293, 0.1362810433, -0.1871076822, 0.1363748014, -0.1222747564, 0.0066559613, -0.0953657329, 0.1369341910, 0.2433486879, -0.1229363382, -0.2183793783, 0.0951577425, -0.0220660269, 0.0900149047, 0.0743166208, 0.0354624987, -0.1530793905, 0.0023859739, 0.2418591976, -0.2060186863, -0.1470504105, -0.2039867043, 0.0260596275, -0.1992229521, 0.1346841156, 0.0957395434, -0.1922750473, 0.0598850548, -0.0339578986, -0.1805679202, -0.2328087389, -0.2023878694, -0.1531198621, -0.2280258238, -0.2435264587, 0.2031071484, -0.1795263290, -0.0557671785, 0.2376967669, -0.2353563905, 0.1878803968, 0.2104195654, -0.1893143654, 0.1063657999, 0.1733847857, 0.1172533333, 0.0262765288, 0.1881528795, 0.0726770163, 0.0557813346, -0.2253575325, -0.0936937034, -0.1104770899, -0.0275953114, -0.1612738073, 0.1239798367, -0.1226764321, 0.0922322273, -0.0232755840, -0.1517076492, -0.2068658173, -0.0713081658, 0.0920982063, 0.0189542472, -0.0253956616, 0.2404324412, -0.1500606239, 0.1408295333, 0.0205208659, -0.0460823476, 0.0886478722, -0.1850040555, 0.1830784380, 0.0029766560, -0.0317341089, -0.2142503560, -0.1031112373, -0.0575937331, 0.0097503364, 0.0377182662, -0.2346420884, -0.1305128038, 0.1242438555, 0.0841249228, 0.1336753666, -0.1260187328, 0.1231773496, 0.1438897252, -0.0497015417, -0.0172022283, 0.0440594554, 0.1237662435, 0.1979019344, -0.1184621751, -0.1340954602, -0.2478249371, 0.0366851985, -0.0575007796, -0.2491071522, -0.0636344850, -0.2340134084, -0.1926836967, 0.2339861691};

#endif

#endif
