//Numpy array shape [3, 3, 16, 16]
//Min -0.083307258785
//Max 0.083304159343
//Number of zeros 0

#ifndef W8_H_
#define W8_H_

#ifndef __SYNTHESIS__
cell_edges_1_op_1_weight_t w8[2304];
#else
cell_edges_1_op_1_weight_t w8[2304] = {-0.0079399347, 0.0633649305, -0.0070946659, 0.0476129279, -0.0768669397, -0.0143828271, -0.0528781265, -0.0447245613, -0.0791605338, 0.0457361974, -0.0684170872, 0.0152456099, -0.0344840474, -0.0437648706, 0.0519075170, -0.0638329163, 0.0567340925, 0.0310519878, -0.0314423367, -0.0031214003, 0.0782523975, 0.0357286930, 0.0663574710, 0.0013479821, 0.0362338610, -0.0099009974, -0.0755303726, 0.0392465405, 0.0240355916, -0.0281122997, 0.0214722566, -0.0070053288, -0.0511712953, 0.0758628547, -0.0621534735, -0.0032138962, -0.0153673319, -0.0089403447, -0.0126534663, 0.0611779839, -0.0239732973, -0.0672802180, 0.0514868237, 0.0184012633, 0.0651762709, 0.0716836900, 0.0035527372, -0.0640671551, 0.0039917328, -0.0510939881, -0.0605269931, -0.0668331534, -0.0342454612, 0.0560172014, 0.0613673776, 0.0213595871, 0.0771768093, -0.0203829873, -0.0489934236, 0.0515501127, -0.0210621301, -0.0103018070, 0.0557070374, -0.0456169657, 0.0189184397, -0.0140392380, -0.0488033444, -0.0538413338, 0.0342333093, 0.0136615159, 0.0656613708, -0.0596330389, 0.0571017489, -0.0241547618, 0.0215280280, -0.0498528369, -0.0571664684, 0.0694541261, -0.0444470495, 0.0130442129, -0.0585663952, 0.0591717958, -0.0758277997, -0.0518382490, -0.0307212919, 0.0548670329, -0.0778418481, 0.0174674522, 0.0087805055, 0.0808963478, 0.0354968421, -0.0221412666, 0.0438157022, 0.0777352154, -0.0189201683, 0.0776545405, 0.0255333390, 0.0325146578, 0.0518047400, 0.0729285851, -0.0158601906, 0.0554539077, -0.0418398380, -0.0089627560, 0.0477140769, 0.0500415675, -0.0067872661, -0.0200176928, -0.0207797140, -0.0011722586, 0.0771386623, -0.0604613610, -0.0585047752, 0.0538468063, 0.0460038856, 0.0603028014, 0.0287697483, -0.0547797419, -0.0311353430, -0.0518252254, 0.0483509786, -0.0392452516, -0.0450052097, 0.0342990048, 0.0751663670, -0.0166821945, -0.0620062463, -0.0110868057, -0.0320114903, 0.0135553991, 0.0609692074, -0.0003369334, 0.0563479215, 0.0681127682, -0.0168321393, 0.0261588488, -0.0460199416, -0.0121805565, -0.0783256218, -0.0646856129, 0.0650061965, -0.0701953545, -0.0561799072, 0.0500803888, -0.0380609632, 0.0722884163, -0.0456330292, -0.0666354522, 0.0181628261, -0.0084905997, 0.0448231548, 0.0546404086, -0.0172262527, -0.0684463233, 0.0251670405, 0.0057692043, 0.0659015402, -0.0157354400, 0.0081095789, 0.0637315586, 0.0397262201, -0.0207965821, -0.0387336761, 0.0345048197, 0.0308049470, 0.0687441081, -0.0610827245, -0.0210390128, 0.0765060559, -0.0101737864, -0.0067267483, 0.0358899459, -0.0236042459, -0.0401387811, -0.0272261146, 0.0776117295, -0.0174651872, 0.0548330992, -0.0720334500, -0.0446085110, -0.0701547265, 0.0084456680, 0.0609187223, -0.0556042194, -0.0586692430, 0.0315198228, -0.0362387262, 0.0681387037, 0.0628693253, -0.0411966182, -0.0749077201, 0.0217072088, -0.0070952419, -0.0389868096, 0.0512575842, 0.0827140436, 0.0382558517, 0.0145656038, -0.0264550131, 0.0700111091, -0.0188485924, -0.0762917474, -0.0484193638, -0.0745314434, -0.0646563396, 0.0285539199, 0.0125267282, -0.0732217357, 0.0713800341, 0.0748886839, -0.0278817806, 0.0033987889, 0.0061412146, 0.0049183420, 0.0636986196, -0.0338959768, -0.0323114991, -0.0672757998, 0.0657308102, 0.0762815699, 0.0112722944, -0.0200045500, 0.0275056381, -0.0507684015, -0.0821467713, -0.0771144331, -0.0079352958, -0.0200710781, -0.0752147958, -0.0240874477, 0.0646637902, 0.0510689430, 0.0668432638, -0.0470805801, 0.0831092820, 0.0756951869, 0.0763714090, -0.0207620915, 0.0487269051, 0.0496992171, 0.0587496012, -0.0722939894, 0.0761997178, 0.0260788091, -0.0418923497, 0.0389736146, 0.0636688545, -0.0551816151, -0.0800595284, -0.0145400539, 0.0649644732, 0.0321572237, 0.0214435272, -0.0092944037, 0.0149978446, 0.0448921770, -0.0113247065, 0.0157676153, 0.0355364196, -0.0078189978, 0.0048500653, 0.0310114976, 0.0233141501, 0.0379553922, -0.0249151532, 0.0361256190, -0.0327491015, 0.0743496269, -0.0102178147, -0.0548425056, -0.0564164184, 0.0495974235, -0.0432089418, -0.0425197072, -0.0154106738, 0.0359911248, 0.0754878819, -0.0067205392, -0.0551008023, 0.0378551781, 0.0019958417, 0.0042995499, -0.0110472785, -0.0761743113, -0.0023477557, 0.0799235106, -0.0559491515, -0.0744952857, -0.0359203815, -0.0226723123, -0.0143898409, -0.0570414104, -0.0208331198, -0.0304345954, 0.0297322571, -0.0730089024, -0.0678890049, 0.0413482599, -0.0078090634, 0.0514762029, -0.0019944508, -0.0525866710, -0.0593103468, 0.0258957148, 0.0330399051, -0.0443659686, 0.0138952238, 0.0127038024, -0.0254238173, -0.0151499948, -0.0164449587, 0.0742845684, 0.0030902172, 0.0718124136, -0.0368517078, -0.0128511842, 0.0450956747, 0.0714987069, 0.0655170977, -0.0047959145, -0.0211826805, -0.0334518179, -0.0698101297, 0.0039851866, -0.0602507479, -0.0526581667, 0.0424822047, 0.0319901593, 0.0094344346, -0.0533780083, 0.0224478319, -0.0549347550, 0.0004526752, 0.0164314993, 0.0557339191, -0.0083262408, -0.0675166175, 0.0206245761, -0.0566433445, -0.0573320016, -0.0632383898, -0.0219378266, 0.0782148391, -0.0279395580, 0.0277580321, -0.0154720070, 0.0738973394, 0.0433381423, -0.0251370110, -0.0697224215, -0.0015041356, -0.0257318728, 0.0586546697, 0.0532378852, 0.0667898878, -0.0657659099, -0.0096905148, -0.0690544248, -0.0623073652, -0.0127657112, 0.0706341863, 0.0630610734, 0.0450819544, -0.0164910145, 0.0800738633, -0.0553458072, 0.0185708180, 0.0669793636, -0.0674444884, -0.0706764981, -0.0553103611, 0.0100966785, 0.0377841108, -0.0029971153, 0.0319037549, 0.0091895806, 0.0706011429, 0.0639223233, -0.0249713808, -0.0629731864, 0.0262435842, 0.0150898146, 0.0371980406, 0.0163323861, 0.0049635223, 0.0430618674, -0.0649915040, 0.0581818111, 0.0221868232, 0.0401866734, 0.0001763991, 0.0795615986, -0.0530143827, -0.0677169636, 0.0606968850, 0.0763001740, 0.0340345390, 0.0041943979, -0.0220386684, -0.0348810814, -0.0502203107, -0.0264674108, -0.0096751964, -0.0468505472, -0.0109539283, 0.0790789574, 0.0464149415, 0.0810327530, -0.0298333578, -0.0313569829, -0.0682893470, 0.0652281344, -0.0350256525, -0.0712708458, 0.0207192954, -0.0130431103, 0.0619536452, 0.0523017831, 0.0584333576, 0.0792101398, -0.0015046025, 0.0765617490, -0.0697221979, 0.0445750505, -0.0333098508, -0.0126547087, -0.0280424859, 0.0546369143, -0.0460795164, 0.0450344011, 0.0324991122, -0.0362070464, 0.0391558930, 0.0341743119, 0.0536544248, -0.0041383896, -0.0399584770, -0.0520235300, 0.0281397589, -0.0408317186, 0.0584671833, 0.0193763711, 0.0183742028, -0.0393979959, 0.0046621328, -0.0179321170, 0.0326484218, 0.0126108993, -0.0335314907, 0.0510298833, 0.0121565955, -0.0135228159, -0.0262299646, 0.0061257575, -0.0516877286, 0.0796613097, 0.0012105246, 0.0369008109, -0.0285691880, 0.0545906201, -0.0438483059, 0.0593775511, -0.0061293435, -0.0117532527, 0.0712928772, 0.0570786409, -0.0277314875, 0.0012813644, -0.0514055230, -0.0320814736, 0.0344537497, -0.0673681647, 0.0479486287, 0.0464345701, -0.0375377759, -0.0096479077, -0.0524165407, -0.0719282925, -0.0694735348, 0.0684825778, -0.0549274608, -0.0818795860, -0.0818782747, 0.0125254570, 0.0807169080, -0.0229143947, -0.0217770245, 0.0566974431, -0.0613052398, -0.0243935958, -0.0684542656, 0.0400039144, -0.0195278358, -0.0550211519, -0.0139291883, 0.0568013936, -0.0057036793, -0.0112917153, -0.0152659053, -0.0270351507, 0.0686055720, 0.0351447724, -0.0092312628, -0.0151298884, 0.0646522641, -0.0085990205, -0.0355313234, -0.0645445809, 0.0810580850, -0.0020133853, 0.0125692748, 0.0324660987, -0.0529729389, 0.0602472909, -0.0190243665, 0.0137312915, -0.0124998363, 0.0050965790, 0.0056799864, -0.0155795328, 0.0260639489, -0.0742004663, -0.0407308303, -0.0045813988, -0.0523990691, -0.0655144379, -0.0450541899, -0.0124309240, -0.0304623116, -0.0326864794, -0.0287619885, 0.0201828964, 0.0081309369, 0.0571235232, -0.0314607546, 0.0637209043, 0.0428963527, -0.0809025317, -0.0528213941, -0.0392566733, 0.0802142099, -0.0062242732, 0.0130613297, 0.0359000489, 0.0794449672, 0.0830247700, 0.0394346938, 0.0625681877, 0.0740218535, -0.0627003983, -0.0540385917, 0.0542163327, 0.0507894009, 0.0549802333, -0.0786905512, 0.0311754178, -0.0717738718, 0.0732798353, 0.0150806149, -0.0615269355, 0.0550328344, 0.0575949177, 0.0716251954, 0.0359129123, 0.0049777278, 0.0200803578, -0.0796490312, -0.0696919337, 0.0431866385, -0.0091061043, 0.0022216528, 0.0473728888, 0.0771022364, -0.0683844686, 0.0026575692, -0.0424786694, -0.0742340833, -0.0780469403, -0.0247783307, -0.0422539786, -0.0297323279, 0.0468414463, -0.0443628877, 0.0721461326, -0.0700129494, -0.0300076883, -0.0064111827, 0.0578003116, -0.0241717286, -0.0014299778, 0.0603462122, -0.0445768610, -0.0674123913, -0.0280661881, 0.0453346185, 0.0392264053, -0.0422807001, 0.0241210442, 0.0192723610, -0.0015932837, 0.0300233457, -0.0068964120, 0.0145552922, 0.0365707949, -0.0067857862, 0.0199589916, 0.0067786830, 0.0284147151, 0.0831154734, -0.0752171502, -0.0679087192, -0.0331978239, -0.0403824337, 0.0419326723, 0.0155644137, -0.0634334683, -0.0306435786, 0.0005868843, -0.0721421242, -0.0117923031, 0.0266472362, -0.0129761640, 0.0277475715, -0.0588393360, 0.0483605452, -0.0810125247, 0.0099052200, -0.0108148614, 0.0143680554, -0.0813607052, -0.0755419210, 0.0651109740, 0.0122062843, 0.0775660798, 0.0768357515, -0.0484071150, 0.0321906991, -0.0249745101, 0.0129851941, 0.0136469426, -0.0806922168, -0.0469150990, -0.0393278822, -0.0620679148, 0.0761257410, -0.0244150236, -0.0718862116, 0.0362504981, 0.0320978276, 0.0587928556, 0.0136154611, -0.0218192935, -0.0535192415, -0.0110387849, 0.0668838546, -0.0278701875, 0.0113138985, 0.0741976276, -0.0781039447, -0.0632765815, 0.0260992441, -0.0263764244, -0.0753517970, -0.0452697389, -0.0586644262, -0.0823492706, -0.0119404402, -0.0692534819, 0.0735556334, -0.0162803307, -0.0723555833, -0.0052620904, -0.0721187219, 0.0445009917, 0.0582321361, -0.0081362715, -0.0171886235, 0.0281147044, 0.0589316338, -0.0026657847, 0.0435015485, -0.0137103014, -0.0464142263, 0.0629693642, -0.0118650403, 0.0789868981, 0.0259177573, 0.0080770552, 0.0811448470, 0.0526483096, -0.0273377541, -0.0220731590, -0.0792737156, -0.0782342106, 0.0450107828, 0.0379018001, 0.0073504080, 0.0460060909, -0.0668804422, 0.0056305048, 0.0051789819, -0.0579693019, 0.0311740860, 0.0089166611, 0.0273700282, 0.0568460897, 0.0082246549, 0.0041296976, 0.0434145555, 0.0328182243, 0.0614406876, -0.0669831485, -0.0519335866, 0.0548756346, 0.0322677977, 0.0758705661, 0.0673959181, 0.0112387575, 0.0087496601, -0.0091132661, 0.0687879696, -0.0420354828, -0.0562549494, -0.0511729233, -0.0449882522, 0.0567289740, 0.0808192343, -0.0346197821, -0.0755276978, -0.0230876356, 0.0515825562, -0.0496038087, -0.0172456540, -0.0682864562, -0.0611029491, 0.0208517369, 0.0280468166, 0.0582358539, -0.0289687663, -0.0208694004, -0.0175907332, 0.0369460620, -0.0819883719, -0.0262283664, 0.0373071954, 0.0245521031, -0.0410799645, -0.0247358344, 0.0667433888, -0.0121297929, 0.0274521522, 0.0645431578, -0.0679611266, 0.0208409987, 0.0366505869, -0.0636968911, 0.0136666214, 0.0631872416, 0.0117159104, 0.0320102274, 0.0249312762, 0.0672604367, -0.0535996370, 0.0081878100, -0.0602480248, -0.0337115936, 0.0513425507, 0.0346550010, 0.0227888282, 0.0401501842, 0.0348221101, 0.0555712990, -0.0166474152, -0.0567554608, -0.0256810207, 0.0499387383, 0.0552664623, 0.0738667548, -0.0821070299, -0.0065431567, 0.0493898615, -0.0597173795, 0.0099287936, 0.0217704680, -0.0629510954, -0.0341575630, 0.0765226856, -0.0436857827, -0.0819751993, 0.0301091466, -0.0302703772, 0.0407874733, -0.0262305513, 0.0119303670, 0.0085001662, -0.0113707120, 0.0149469525, -0.0643150285, -0.0790183172, -0.0172130615, 0.0153920082, -0.0804326236, -0.0384294353, -0.0774492323, 0.0348764509, 0.0030507292, 0.0162897687, 0.0108899428, -0.0736762360, -0.0704894885, -0.0165735353, 0.0457641855, -0.0022212751, -0.0643836483, -0.0737502649, 0.0483193360, 0.0703641549, -0.0415909998, -0.0344481170, 0.0526790768, -0.0114425942, 0.0652680397, -0.0168202277, -0.0216276459, -0.0601815656, 0.0468827039, 0.0036297855, 0.0126053058, 0.0079207523, -0.0350351967, 0.0592474453, -0.0363897048, -0.0429012030, -0.0643987358, -0.0515692569, 0.0455762371, -0.0650741160, 0.0732664987, -0.0166436899, -0.0000898337, 0.0701145455, -0.0044495938, -0.0199983604, 0.0412424169, 0.0653996393, -0.0269569904, 0.0011193994, 0.0202102456, -0.0769138038, 0.0247224346, 0.0539950319, 0.0024127443, -0.0483630970, 0.0416425690, -0.0050147721, -0.0169715323, -0.0423292480, 0.0751183331, -0.0149866482, 0.0254797470, -0.0627470985, 0.0516748838, -0.0580252297, -0.0124327214, -0.0278393328, 0.0423226319, 0.0204805005, 0.0346726924, -0.0319021642, -0.0461062267, 0.0323495753, 0.0794688687, 0.0690429360, 0.0117153740, -0.0250241105, -0.0676976070, 0.0761201903, -0.0317089148, -0.0761752352, -0.0181585941, -0.0088059166, -0.0306517556, -0.0487905368, -0.0019616587, 0.0239027943, 0.0827452093, -0.0294526350, 0.0547145940, 0.0247059334, -0.0257660858, -0.0410713106, -0.0033503603, 0.0244729389, 0.0347627960, 0.0427909419, 0.0444151834, -0.0612386018, -0.0566927865, -0.0770904571, -0.0121694701, -0.0555524826, 0.0505731851, -0.0386822484, 0.0235694665, -0.0678351596, -0.0469365567, 0.0582268313, 0.0576996505, 0.0144319702, -0.0403862000, 0.0456119515, 0.0077711549, 0.0439420529, -0.0605369583, 0.0046910411, 0.0295023341, 0.0255454890, 0.0573093407, 0.0520128794, -0.0570087954, 0.0480833836, -0.0811981186, 0.0073231789, -0.0361410268, 0.0556296222, 0.0178131573, -0.0399255455, -0.0277308822, -0.0651200563, 0.0227247644, 0.0394657180, -0.0006868904, -0.0346393548, 0.0189952012, 0.0294086356, 0.0829421207, -0.0155540621, 0.0674239546, 0.0555530079, 0.0818114951, -0.0806294978, 0.0585507117, 0.0577268675, -0.0249861833, -0.0250600222, 0.0532314889, -0.0566963814, 0.0337422416, -0.0773809776, 0.0822769478, -0.0067310794, -0.0768939704, -0.0335519239, -0.0243728328, 0.0230261926, -0.0003148004, 0.0410206467, -0.0301032644, 0.0746531636, -0.0107778870, -0.0140794609, 0.0564668328, -0.0631426126, -0.0135573661, 0.0439116359, 0.0560376532, -0.0490431525, 0.0321210325, 0.0812638104, -0.0562887453, -0.0233943388, 0.0519603863, 0.0385313407, -0.0558357053, -0.0554950051, 0.0174763333, 0.0465799421, -0.0047856136, 0.0218986571, 0.0200996790, 0.0415152423, -0.0316235311, 0.0803217366, 0.0513280369, -0.0704621747, 0.0152002806, 0.0294989273, -0.0569507703, 0.0806546062, 0.0743251145, 0.0601973422, -0.0651305243, 0.0061820839, 0.0633525774, -0.0440152995, -0.0374171287, 0.0269544385, -0.0267212242, -0.0274871215, 0.0478833728, -0.0257840771, 0.0591510572, 0.0191523284, 0.0351809002, 0.0822152868, 0.0771569312, 0.0539929755, 0.0195581429, -0.0536213033, 0.0403935499, 0.0213178825, 0.0158917699, 0.0220919456, 0.0114675481, 0.0519224182, -0.0178820305, 0.0663724020, 0.0001306925, 0.0129843298, -0.0698024407, -0.0824947953, -0.0630429760, -0.0259807799, 0.0828637332, 0.0514267497, 0.0741031468, -0.0074998359, -0.0160820577, 0.0231348313, -0.0210113283, -0.0700286999, -0.0556706078, 0.0130881611, 0.0817998648, -0.0414635539, -0.0066522225, 0.0472548120, -0.0207621008, -0.0754087940, 0.0446685925, 0.0339294150, -0.0431548804, -0.0107641974, -0.0735711604, 0.0575771444, 0.0600758269, 0.0657538027, -0.0823434591, 0.0111629209, -0.0213292278, 0.0156328697, -0.0389930084, 0.0395727679, -0.0097515201, -0.0373459309, -0.0643960014, 0.0582468882, 0.0147735337, 0.0593071096, -0.0789445862, 0.0123751732, 0.0046231020, -0.0593660474, -0.0286428798, -0.0415030643, 0.0738125518, -0.0666261688, -0.0656942427, -0.0595651269, 0.0716797113, 0.0456825830, -0.0086053386, 0.0238106847, -0.0288051832, -0.0265625492, 0.0829080269, 0.0075362348, -0.0618908294, 0.0407381095, 0.0108905183, -0.0651615560, 0.0281391330, -0.0342010632, 0.0559411161, 0.0051227850, -0.0158461127, 0.0159086380, -0.0066015194, 0.0460460074, 0.0127407182, 0.0697762892, -0.0178636424, 0.0263169277, 0.0236115977, 0.0594925694, 0.0438716821, 0.0488789529, -0.0801520050, 0.0215670783, -0.0694340989, -0.0045149396, 0.0512291715, 0.0400745757, 0.0305736437, -0.0484450646, -0.0545534752, 0.0658642352, 0.0223349705, 0.0304583684, -0.0069795498, -0.0058494117, 0.0742278695, 0.0028037289, 0.0006082227, 0.0402314067, 0.0642439127, -0.0490798503, -0.0339390635, 0.0740677565, -0.0739861578, 0.0640161037, -0.0355604887, 0.0091615366, 0.0775125772, -0.0298716929, -0.0020971193, 0.0221704133, -0.0317657404, 0.0123124905, 0.0476859435, -0.0701093674, 0.0097686956, 0.0623577908, -0.0667942241, -0.0042714560, -0.0044580176, -0.0452179536, 0.0037889988, -0.0553809628, -0.0000165998, -0.0430741534, 0.0277320743, -0.0210365299, -0.0042520948, 0.0209687408, 0.0315008014, -0.0212318543, 0.0464759655, -0.0659968555, -0.0137741175, 0.0647492409, 0.0138009600, 0.0194216501, -0.0062707155, -0.0115590915, 0.0353179723, 0.0492032021, 0.0258323755, -0.0363897756, 0.0826831460, 0.0030736672, 0.0783016756, -0.0431503206, -0.0700804964, 0.0441242866, -0.0459016338, 0.0741681010, -0.0724535659, -0.0520860031, -0.0604356416, 0.0356921852, 0.0475102663, 0.0709810480, -0.0351213180, -0.0540438369, -0.0217332952, -0.0039193933, -0.0778301805, -0.0571588911, 0.0214080028, 0.0315274447, 0.0720613822, -0.0632376522, 0.0253910851, 0.0523344949, 0.0281077698, -0.0564973429, 0.0523201227, 0.0570964850, -0.0078106034, -0.0305237938, 0.0091542052, 0.0489837974, -0.0304738451, 0.0316521339, -0.0654875264, -0.0379452594, 0.0806320086, -0.0467157513, -0.0793116167, -0.0005903711, 0.0271142758, -0.0478472635, -0.0388635248, 0.0310808942, 0.0796627179, -0.0213008057, 0.0524116047, -0.0534029715, -0.0493761525, 0.0130175799, -0.0395269915, 0.0755335093, 0.0226900335, 0.0502530597, -0.0435954332, -0.0578948446, -0.0350562893, 0.0029296132, 0.0161472652, -0.0087280041, 0.0653825924, 0.0110706929, 0.0006263424, 0.0638598129, 0.0612837598, -0.0630914047, 0.0410288312, 0.0166012216, -0.0079592764, 0.0619703047, -0.0091977166, -0.0153132211, 0.0159452558, 0.0150435111, -0.0678841323, 0.0300458651, -0.0007194940, -0.0496298373, -0.0384003483, -0.0299349129, 0.0819984972, 0.0621609241, -0.0247145072, -0.0739131868, 0.0367904268, 0.0688936263, 0.0188505203, -0.0205995422, -0.0532848947, -0.0506732911, -0.0017748288, 0.0270747785, -0.0217523202, -0.0314535238, 0.0269831549, -0.0235687122, -0.0700338408, 0.0640009046, -0.0101018548, 0.0011613311, 0.0479039848, 0.0173540339, 0.0635254756, -0.0747904330, -0.0187076591, -0.0710389614, -0.0566945747, 0.0339880772, 0.0445694402, 0.0605275407, 0.0147786895, 0.0498920381, -0.0385356918, 0.0356564634, 0.0646336898, -0.0734917894, 0.0061203633, -0.0060985577, -0.0383139141, -0.0278744902, 0.0182744358, 0.0364051424, -0.0239631049, 0.0798159912, -0.0695872903, 0.0394268557, -0.0728966221, -0.0723604634, 0.0136036696, 0.0253484286, -0.0426265560, 0.0545348190, 0.0135197956, -0.0617340319, 0.0130203217, -0.0349544324, 0.0830266476, 0.0642182752, -0.0683683604, 0.0708565041, -0.0520313680, -0.0172013380, -0.0633345917, -0.0625548437, 0.0308641642, -0.0027367137, 0.0200572796, -0.0252491962, 0.0685300976, -0.0448471867, -0.0370041654, -0.0070573138, 0.0653589070, 0.0517996140, 0.0637122393, 0.0213012826, -0.0268040355, -0.0253402218, -0.0371598527, -0.0426195227, 0.0791176632, 0.0061094556, 0.0774340555, 0.0033500723, -0.0149923908, -0.0644728839, 0.0428645462, 0.0214586966, -0.0107922312, -0.0136654293, 0.0713547021, 0.0659312755, -0.0146273533, 0.0503949896, -0.0061678682, 0.0148427440, -0.0067395433, 0.0499739461, 0.0124162510, 0.0449824892, -0.0265301336, 0.0055272602, 0.0781113952, -0.0123393517, -0.0551044382, 0.0580978692, 0.0556376874, -0.0199231505, 0.0398025922, 0.0218155291, -0.0067274338, -0.0160521865, -0.0271531679, -0.0090962490, 0.0807594135, 0.0530631803, -0.0049976753, 0.0055272705, -0.0170308389, 0.0102365604, 0.0338870175, 0.0590037666, -0.0618207641, 0.0747902766, -0.0372863449, 0.0466991328, 0.0028306700, -0.0340184346, 0.0688443258, -0.0455859043, -0.0306394659, -0.0267386883, 0.0193914101, -0.0247870144, 0.0326227993, -0.0212991368, -0.0133512346, 0.0436641872, 0.0253903400, 0.0494653620, -0.0592481904, 0.0068732258, 0.0738097578, 0.0746980011, 0.0821899399, -0.0278414395, 0.0002462752, -0.0553703159, 0.0809775591, -0.0556408577, 0.0118651893, -0.0566521361, -0.0701553226, -0.0751724318, 0.0569259152, 0.0636017621, -0.0123822959, 0.0441100597, 0.0598448515, -0.0400873199, -0.0494309105, 0.0521598831, 0.0086021889, -0.0218599644, 0.0643458292, 0.0371865071, -0.0117701003, 0.0816115662, -0.0682237893, 0.0127582503, -0.0641886070, -0.0313145258, -0.0079551935, -0.0608591288, 0.0783371776, -0.0769364685, 0.0189041644, -0.0456209108, -0.0196815934, -0.0739791766, 0.0246690288, -0.0055622081, -0.0547088832, -0.0307404157, 0.0634847060, -0.0566820055, -0.0408813618, -0.0490583815, -0.0159912407, -0.0178581774, -0.0067330068, -0.0166173931, -0.0747312009, -0.0197943468, -0.0745027512, -0.0066411565, 0.0490363091, -0.0752243176, -0.0664246455, -0.0153098833, 0.0622150376, 0.0083817029, 0.0133298263, 0.0286225639, -0.0140132606, -0.0527740158, 0.0152668189, 0.0663746074, -0.0621966869, 0.0012920534, 0.0143088577, -0.0162629560, -0.0273914952, 0.0412396751, 0.0676450282, 0.0048409658, 0.0728911310, -0.0527708381, -0.0104769748, 0.0039336486, -0.0577013977, -0.0204166155, 0.0294894408, 0.0724514276, 0.0646810010, -0.0312022399, -0.0139353173, -0.0185817853, -0.0713780522, 0.0694859400, -0.0485233925, -0.0343189128, -0.0026843017, 0.0397985317, 0.0256716926, -0.0589859337, 0.0037041816, 0.0581631549, -0.0404475629, 0.0465579182, -0.0272797681, -0.0579097457, -0.0416602790, 0.0545980595, -0.0216049664, 0.0274858791, 0.0830984414, 0.0141266575, -0.0150401434, -0.0097126383, 0.0635201111, 0.0233117063, -0.0222908240, 0.0293334443, -0.0184014831, 0.0631154254, 0.0554296300, -0.0575646088, -0.0832044631, -0.0060095289, 0.0688245371, -0.0739165395, -0.0703879222, 0.0231993441, -0.0011240884, 0.0456205346, -0.0745269135, -0.0216442272, -0.0815808401, -0.0470659584, -0.0454474799, 0.0116280029, 0.0722160488, 0.0744424760, 0.0199616440, -0.0739528015, 0.0265268162, 0.0665660948, 0.0336011983, -0.0002688057, 0.0586351715, 0.0618751943, -0.0212171413, -0.0272425842, 0.0618610270, -0.0501251407, 0.0641701818, 0.0106344195, -0.0018690135, 0.0081091318, 0.0092024943, 0.0428963229, -0.0079024145, -0.0642776415, 0.0673895329, -0.0082747526, -0.0794841796, 0.0032966172, -0.0604806021, 0.0202220175, 0.0662559718, -0.0644295290, -0.0313172787, 0.0660053343, -0.0781994835, -0.0768269822, -0.0182643123, -0.0722613782, -0.0536952019, -0.0365944766, -0.0427783206, -0.0633734688, 0.0521804094, 0.0653138459, 0.0805253461, 0.0736026987, 0.0041010473, 0.0523243733, 0.0591326393, -0.0734308884, -0.0770814940, -0.0796425343, -0.0412148088, 0.0727935806, -0.0741522759, -0.0647491142, -0.0369975902, -0.0757521167, 0.0503128543, 0.0502222590, -0.0317997634, 0.0587936006, 0.0417533033, 0.0788533017, -0.0000219344, -0.0482758954, 0.0594316237, 0.0067630173, -0.0289536752, -0.0503752492, -0.0285189915, 0.0153321158, -0.0426777788, -0.0063976129, -0.0398881510, 0.0667066053, -0.0413052440, -0.0770055279, -0.0033230120, -0.0373350903, 0.0095356731, -0.0561841205, -0.0453389101, 0.0659087598, 0.0200474355, -0.0025933355, 0.0304074753, 0.0649188980, -0.0568502620, 0.0096174097, 0.0470013581, 0.0397853889, 0.0339304991, -0.0055122501, -0.0617731400, -0.0813220143, -0.0122146988, 0.0198357720, 0.0724291056, -0.0090775331, -0.0118588908, -0.0386435948, 0.0074531264, -0.0611877888, -0.0106568905, -0.0759881660, -0.0459998623, 0.0718252063, -0.0617082007, 0.0677039772, -0.0657510906, 0.0811194777, 0.0329670683, 0.0096481461, -0.0125285462, 0.0759756342, -0.0587348603, -0.0137620280, -0.0813312531, 0.0031125788, 0.0434767753, 0.0064554093, -0.0455486812, -0.0301298779, 0.0378700681, -0.0813125074, 0.0120605426, 0.0227925144, -0.0380905457, 0.0045149000, -0.0060599144, -0.0686019659, 0.0368827134, 0.0396843888, -0.0123061519, 0.0036100266, -0.0009244932, 0.0260524936, 0.0602636002, 0.0523439348, 0.0156995766, 0.0476208925, -0.0754950643, -0.0251487419, -0.0534966700, 0.0098936362, 0.0100881252, -0.0270849410, -0.0434405059, -0.0338319875, 0.0041678934, -0.0571659133, 0.0718990788, 0.0496965162, 0.0321890526, 0.0626104549, 0.0132764215, 0.0715198070, -0.0195705015, -0.0666925386, 0.0628180057, -0.0672677532, 0.0752878711, -0.0188370291, -0.0184932221, -0.0578585044, -0.0504629463, -0.0580059364, 0.0509321541, 0.0402712710, 0.0601981543, 0.0791462809, -0.0052888030, -0.0543625727, 0.0446614102, 0.0030915982, -0.0293142516, 0.0041330652, 0.0758032501, -0.0546195991, -0.0016719119, -0.0087132119, -0.0305819884, 0.0126441680, 0.0152216787, 0.0490662977, -0.0421217270, -0.0608788654, -0.0233802423, -0.0118970973, -0.0681620315, -0.0489937812, 0.0645813718, 0.0778308660, -0.0649943650, -0.0470902883, 0.0738043189, 0.0589269437, 0.0775992200, -0.0762394592, -0.0222532228, 0.0416098163, 0.0010326453, -0.0713078007, -0.0102215298, 0.0737279132, 0.0778583512, -0.0473977551, 0.0713877082, -0.0135603463, 0.0331930146, -0.0645900741, 0.0233575236, 0.0237914529, -0.0709364116, 0.0559416525, 0.0484835170, 0.0545068942, 0.0021177623, -0.0827962160, -0.0259790421, -0.0491837412, -0.0153982760, -0.0014239380, -0.0677347332, -0.0442479961, -0.0535389893, 0.0132289566, 0.0617496483, -0.0731720775, 0.0426330231, -0.0700793192, -0.0151862334, -0.0771210492, 0.0736049786, -0.0638309196, -0.0634218678, -0.0168607105, 0.0361806639, 0.0277448799, -0.0717443824, 0.0475099199, -0.0570957102, -0.0525277816, 0.0788152367, 0.0178623013, 0.0665144697, 0.0614033341, 0.0337823555, -0.0539686941, -0.0185788237, 0.0352718383, 0.0701193139, 0.0800485983, -0.0111262640, 0.0385948382, -0.0443448983, 0.0169801749, 0.0524254628, 0.0074469373, 0.0704895929, -0.0311228260, -0.0772313699, 0.0821909234, -0.0520793796, -0.0332956649, -0.0228786934, -0.0186390448, 0.0081083570, -0.0219575968, -0.0450664498, 0.0550639667, -0.0352806300, 0.0133102862, -0.0174420495, -0.0268532187, 0.0114397034, 0.0498750396, 0.0833041593, -0.0820316151, -0.0032184958, 0.0454662181, -0.0096873157, 0.0138337621, -0.0744392574, -0.0383370593, -0.0649932325, -0.0504162163, 0.0047493838, -0.0002573716, 0.0620724373, 0.0795780495, 0.0022479682, -0.0727445334, -0.0592275970, 0.0602756105, 0.0009980351, -0.0550682992, 0.0717713237, -0.0299602430, 0.0378081985, -0.0402667895, 0.0483071692, 0.0229818970, -0.0537011847, -0.0014001161, -0.0522617400, 0.0063463831, -0.0639870241, -0.0443314388, 0.0255263560, -0.0702429488, 0.0227931105, 0.0423291698, 0.0330221727, -0.0715339035, 0.0498340316, 0.0604890846, -0.0745865703, -0.0030578619, -0.0001952042, -0.0575660802, -0.0082987528, -0.0833072588, 0.0559145324, -0.0482733622, -0.0246035121, 0.0116140367, 0.0307798143, 0.0505301431, 0.0434597954, -0.0467415005, -0.0353273116, -0.0122248717, 0.0119886100, -0.0549100786, -0.0101398816, 0.0609410442, 0.0070223855, -0.0235282406, 0.0607699901, 0.0659084171, -0.0515232198, -0.0105486382, -0.0201064143, -0.0830726847, 0.0642560646, 0.0464766100, 0.0346409529, 0.0161747336, 0.0167402588, -0.0077387802, 0.0341746993, -0.0741321221, -0.0083427010, 0.0104847532, -0.0679831058, 0.0096075255, -0.0405742787, 0.0754266381, -0.0671582073, -0.0595322773, 0.0112611586, 0.0607972071, 0.0814478025, -0.0571286902, 0.0628142208, -0.0656754524, 0.0059932871, -0.0722530261, -0.0172017459, -0.0470762104, -0.0248084720, -0.0516389422, -0.0638776422, -0.0066981777, 0.0161431637, -0.0386239253, -0.0536537170, -0.0040228665, -0.0468481928, 0.0611021072, -0.0798430145, 0.0016128937, -0.0160273220, -0.0148640629, -0.0820452496, -0.0428421423, -0.0119377282, 0.0644183159, 0.0523093231, 0.0827402174, 0.0332804061, 0.0643486455, -0.0644775853, -0.0513867177, -0.0022753861, -0.0619187057, 0.0680363849, 0.0626265407, 0.0742316246, -0.0818588808, 0.0683075562, 0.0279836953, -0.0560370982, -0.0363667868, 0.0670558140, 0.0440151505, -0.0671606511, 0.0710798800, 0.0710282549, -0.0320684612, 0.0466970950, -0.0035865626, 0.0800553635, 0.0595737025, 0.0704834461, -0.0731647536, -0.0211728942, -0.0011133794, 0.0732966810, 0.0253283307, 0.0330543891, -0.0488973893, 0.0119475126, -0.0288962275, -0.0087001482, -0.0061088195, -0.0226347614, 0.0395852365, 0.0761204362, -0.0337143876, 0.0359267592, -0.0635820031, 0.0617065914, 0.0647855252, -0.0040783281, 0.0110756196, -0.0167428721, 0.0820140466, -0.0325873569, -0.0439479463, 0.0218264852, 0.0158524122, -0.0688922256, -0.0586566776, -0.0623701662, 0.0655034110, 0.0389794372, -0.0703774914, 0.0422723964, -0.0084990133, 0.0809940472, 0.0449445024, -0.0759609118, 0.0511226282, -0.0321861506, -0.0367741250, -0.0323878676, 0.0400089398, 0.0179066174, 0.0589452833, 0.0311769675, -0.0169619955, 0.0539012551, 0.0041040974, -0.0427317582, 0.0320632160, 0.0811654329, -0.0532831252, -0.0389090329, 0.0828216970, -0.0596874282, 0.0128303226, -0.0504717082, -0.0240542982, 0.0148446020, 0.0443577021, -0.0304099191, 0.0412228443, 0.0344264209, 0.0385718122, -0.0380953848, 0.0434540138, 0.0745174959, -0.0809185058, 0.0274454169, -0.0579488873, -0.0272914413, 0.0669399425, -0.0384814590, -0.0075820601, -0.0015732071, 0.0008102118, 0.0247765724, 0.0403598547, -0.0095618190, -0.0479999557, -0.0168531891, -0.0532330684, -0.0774983019, -0.0713121742, -0.0455414988, -0.0635606945, -0.0749319270, 0.0340945795, 0.0746200457, -0.0219062474, -0.0698612928, -0.0575826801, -0.0661357865, -0.0008579251, 0.0072770850, -0.0774184167, 0.0180298798, 0.0087832073, 0.0202525258, 0.0791161209, -0.0797297210, 0.0352571569, -0.0491151735, 0.0160710718, -0.0649266392, -0.0698317289, 0.0621882342, -0.0676045194, 0.0365650728, 0.0580596626, 0.0201189816, -0.0618176162, -0.0541700609, -0.0815456808, -0.0064301966, 0.0676120594, -0.0451860949, -0.0599187501, -0.0596558452, -0.0352968127, -0.0144558521, 0.0128277596, -0.0085587967, 0.0817574263, 0.0455466434, -0.0679261759, 0.0814565495, 0.0673525482, -0.0646672174, -0.0055522937, -0.0032189030, -0.0458479226, 0.0747039095, -0.0356222391, 0.0241425913, 0.0152987577, 0.0737204850, -0.0374570116, -0.0444874130, -0.0605553053, -0.0740973055, -0.0687254667, 0.0730938092, 0.0684812367, -0.0505056940, -0.0018317807, 0.0079426570, -0.0002795444, 0.0823734105, -0.0708054528, 0.0177081339, 0.0044923699, -0.0210924093, -0.0080900490, -0.0307930559, 0.0128853573, 0.0257964246, -0.0200547278, -0.0593600869, 0.0244534779, -0.0113074714, -0.0191468056, -0.0509757139, -0.0517728813, 0.0567634180, 0.0256492216, -0.0378476493, 0.0493361801, -0.0279449727, -0.0053267018, -0.0218209829, 0.0473602824, 0.0825943872, -0.0179686248, -0.0622139424, 0.0312636048, 0.0341544226, 0.0205032993, -0.0377241075, -0.0069176708, -0.0124325529, -0.0635385513, 0.0769155547, -0.0104112402, 0.0268259794, 0.0598145835, 0.0057308087, -0.0480232500, -0.0487848446, -0.0037978003, -0.0831336603, 0.0339650288, -0.0088412017, 0.0158476830, -0.0431787893, -0.0547207035, -0.0622787736, -0.0823774412, 0.0672823116, 0.0084956158, 0.0443418398, 0.0405014642, -0.0298953652, 0.0288732685, -0.0143176792, -0.0220953133, -0.0748367384, 0.0335806422, -0.0145322355, -0.0219646599, -0.0561338253, -0.0664569587, -0.0415340178, -0.0482317097, 0.0464595445, 0.0489274412, -0.0095302491, 0.0421589278, 0.0514253601, 0.0307391342, -0.0537864082, 0.0687406138, 0.0385756753, -0.0567428619, 0.0803063810, -0.0382543914, -0.0497550182, -0.0107466038, -0.0222991686, 0.0553563982, 0.0228621326, -0.0431503691, -0.0512489900, 0.0570220463, -0.0358115435, -0.0504229814, 0.0159401502, -0.0518848598, 0.0345196202, -0.0056901588, 0.0396135263, 0.0648879409, -0.0561762229, -0.0510902144, 0.0615648031, -0.0455439202, 0.0117021017, -0.0328100696, 0.0789261311, -0.0620190203, -0.0830065534, -0.0353340171, 0.0441837497, 0.0777847469, -0.0493531078, 0.0709552690, 0.0669593960, -0.0432718918, 0.0021639159, 0.0079116225, -0.0746873319, 0.0445080176, -0.0623762868, -0.0203865636, -0.0705023929, -0.0334756300, -0.0309460703, -0.0751434118, 0.0265714601, -0.0359102115, -0.0714559779, 0.0282403901, -0.0464955568, -0.0505386367, 0.0559785664, -0.0729141161, -0.0222670212, -0.0328889154, -0.0001492294, 0.0756192878, 0.0140913716, 0.0424316414, -0.0415046737, -0.0556959994, 0.0641460344, 0.0042474950, 0.0454786159, 0.0485637076, 0.0343451090, -0.0660061464, 0.0074140057, 0.0715292990, -0.0495920368, 0.0162048321, -0.0235483777, -0.0642364696, -0.0307055358, -0.0190061778, 0.0220710728, 0.0154902367, -0.0173080992, -0.0101602757, 0.0101860752, 0.0821045339, -0.0335879140, -0.0014463691, -0.0045577558, 0.0467263423, 0.0097019291, -0.0605301149, 0.0674486905, -0.0718827248, -0.0362397507, -0.0520071574, -0.0556200147, -0.0264099408, -0.0156236803, -0.0266856309, 0.0257185418, 0.0363296159, -0.0286947545, -0.0728644505, -0.0423508063, 0.0298534539, -0.0774687156, -0.0416093990, -0.0259089172, 0.0690839365, 0.0169396847, -0.0824176595, 0.0337910876, 0.0161516573, -0.0039688251, -0.0552837290, -0.0409459621, -0.0593088195, -0.0682106987, -0.0438047349, -0.0547269136, -0.0046191481, -0.0053019556, 0.0211884417, 0.0223571733, -0.0011357410, 0.0394144468, 0.0717234313, 0.0203128532, 0.0670591816, -0.0188161787, -0.0320595019, 0.0613110997, -0.0230272952, -0.0705141500, -0.0577155724, 0.0175946876, -0.0309546534, -0.0642204806, 0.0609617680, 0.0455350801, 0.0597528443, -0.0112015940, 0.0691268221, -0.0519002266, 0.0271201469, -0.0028904434, -0.0534301102, -0.0080884593, -0.0513456203, 0.0115927774, 0.0203848947, 0.0226158258, -0.0793402717, 0.0385398418, -0.0649038777, -0.0521019287};

#endif

#endif
