//Numpy array shape [3, 3, 16, 16]
//Min -0.083217732608
//Max 0.083125434816
//Number of zeros 0

#ifndef W5_H_
#define W5_H_

#ifndef __SYNTHESIS__
cell_edges_1_op_1_weight_t w5[2304];
#else
cell_edges_1_op_1_weight_t w5[2304] = {0.0809011608, -0.0008799291, -0.0315887481, -0.0639082789, 0.0327980369, 0.0137835350, -0.0135420682, -0.0663985237, -0.0726012141, -0.0251990184, 0.0774782300, 0.0343637243, 0.0352876522, -0.0429087318, -0.0269910134, -0.0526439399, 0.0087593757, -0.0633080304, -0.0386016220, 0.0831139088, 0.0609675199, -0.0437560976, 0.0618838370, -0.0641105548, -0.0464779139, 0.0174764115, 0.0379489772, -0.0742090121, 0.0097180624, 0.0706055462, 0.0494935103, -0.0785488412, -0.0404347554, -0.0020423827, -0.0203183275, -0.0265030935, 0.0120970001, 0.0746655315, -0.0445288979, 0.0418165624, 0.0439946465, -0.0491425730, -0.0807716623, 0.0735913590, 0.0265991371, 0.0741517320, -0.0172604471, -0.0277814064, 0.0328049734, -0.0496130697, 0.0148236705, -0.0025589338, 0.0700066388, -0.0092731649, 0.0092395283, 0.0120239351, -0.0482771955, 0.0585653633, -0.0057418258, -0.0416163318, -0.0712573379, 0.0597292781, -0.0817973018, -0.0617521591, -0.0713345557, -0.0416949317, -0.0271605588, 0.0290807039, -0.0687254816, 0.0288364626, -0.0204499532, -0.0408092774, 0.0220152345, 0.0265616942, 0.0034467406, -0.0701954290, -0.0660674199, 0.0085038515, 0.0482789539, -0.0321630426, 0.0487763025, 0.0010875707, -0.0808793083, 0.0780473799, -0.0184099954, 0.0518196300, -0.0808021799, -0.0071126269, -0.0793013126, -0.0472439378, 0.0786968023, 0.0700325444, 0.0308756884, 0.0597799532, -0.0172908157, 0.0164006241, 0.0248261932, 0.0556504838, -0.0517930873, -0.0768110380, 0.0241898578, 0.0087311529, -0.0541944280, -0.0791768208, -0.0438996144, -0.0285627507, 0.0633906499, 0.0694472864, 0.0670888796, -0.0752979741, 0.0367992781, -0.0693578646, -0.0390959494, -0.0427332707, -0.0584515184, 0.0815601125, 0.0771103054, 0.0099613667, -0.0360868536, -0.0377768464, 0.0215096492, -0.0173629839, -0.0552343577, 0.0076336083, -0.0422029868, 0.0022067220, -0.0379205346, 0.0410474204, 0.0146227339, -0.0772763938, -0.0351263322, 0.0638765469, 0.0196233112, 0.0803398490, 0.0542206429, 0.0105293961, -0.0376624949, -0.0813590661, -0.0455698483, 0.0644083247, 0.0031245593, -0.0491684899, 0.0408868231, 0.0708921179, -0.0470307618, 0.0528188087, 0.0192396380, 0.0023382688, 0.0806856528, -0.0761586130, -0.0247487780, 0.0723221228, -0.0509151593, 0.0445304178, 0.0561714768, -0.0117183542, -0.0666192397, -0.0668632463, -0.0076988353, 0.0018518772, -0.0331831798, -0.0256051738, 0.0303200055, -0.0203498285, -0.0549194440, -0.0490783975, 0.0786162466, 0.0418698303, -0.0640468597, -0.0513652377, 0.0708694309, 0.0315396413, 0.0467717014, -0.0070533203, -0.0250285417, -0.0646197423, -0.0828457028, -0.0651358068, -0.0724150985, 0.0360037982, -0.0568251871, -0.0829099417, -0.0284543224, 0.0611032285, -0.0730327889, 0.0250011329, 0.0820272863, -0.0087698856, -0.0678659827, 0.0327144228, -0.0399575122, -0.0402576104, 0.0759212598, -0.0750178397, -0.0644264817, 0.0516880378, -0.0402078032, -0.0309234411, 0.0395334773, 0.0190991405, -0.0589329861, -0.0221347008, -0.0012270946, -0.0452634133, 0.0179387834, -0.0112935137, 0.0007331931, -0.0252312943, -0.0444584265, 0.0526523627, 0.0126902424, 0.0427579768, -0.0594671071, -0.0105352569, -0.0269716810, 0.0666297227, -0.0326343253, 0.0011820138, 0.0796721354, -0.0656119883, 0.0436865203, 0.0404898822, 0.0756754801, 0.0178632643, -0.0171519164, -0.0211645905, -0.0524470285, 0.0415507965, -0.0053394469, -0.0282246955, -0.0239549484, -0.0430942699, -0.0482153259, 0.0040599499, -0.0319172740, -0.0376466997, -0.0418219492, 0.0355230980, 0.0097596264, 0.0617075749, 0.0039194925, -0.0203785673, -0.0536440015, -0.0433996953, -0.0042636879, -0.0550064072, 0.0241727922, -0.0607187189, 0.0514140651, 0.0823554397, 0.0294756424, -0.0445853136, -0.0059828958, 0.0259699523, -0.0456766710, -0.0085690990, -0.0760279372, 0.0087744854, -0.0225229226, 0.0073768529, -0.0079141455, 0.0522798598, -0.0408781730, -0.0766239241, -0.0695235804, 0.0506122485, 0.0312327072, -0.0060356851, 0.0743177906, 0.0102009261, -0.0191245228, -0.0565500520, -0.0487046614, 0.0210842825, -0.0407224856, 0.0317103453, 0.0356632471, 0.0073606502, -0.0603970252, -0.0202797130, 0.0321238153, -0.0768119842, -0.0830294341, -0.0351148285, 0.0012891031, 0.0757865086, -0.0347300209, -0.0718939304, 0.0230352227, 0.0484942384, -0.0518069752, 0.0621949993, -0.0719685182, -0.0578228123, -0.0233175177, -0.0596788451, 0.0828585178, -0.0395998582, -0.0675859079, -0.0362217203, 0.0233843643, -0.0821182355, 0.0145762134, 0.0276216790, 0.0203668941, -0.0095244972, 0.0822180286, 0.0751874745, 0.0441039987, -0.0650088787, -0.0213089418, -0.0684533566, 0.0374714881, 0.0269075092, 0.0002145260, 0.0040285490, -0.0402425602, -0.0644082502, -0.0757455826, -0.0814025328, -0.0076918616, 0.0215387568, -0.0201623626, -0.0272854697, 0.0465797223, 0.0708714649, 0.0567339808, 0.0175886676, -0.0680357665, -0.0821580812, -0.0360473394, 0.0204476584, -0.0123790773, 0.0304174591, 0.0574246570, -0.0255263560, -0.0556445904, 0.0548495278, 0.0731745586, -0.0237753093, 0.0153530268, 0.0067667919, -0.0206426755, -0.0701395199, 0.0254872460, 0.0420888737, -0.0315270163, 0.0502877496, 0.0655958951, 0.0396691896, 0.0098994579, -0.0715390667, 0.0455609486, -0.0567174815, -0.0312973782, 0.0068388237, -0.0039360030, -0.0395069942, -0.0040429332, 0.0232355036, -0.0524653755, -0.0401200838, -0.0137946317, -0.0180892628, -0.0460135341, -0.0349016823, -0.0410242230, -0.0260666702, -0.0457797833, 0.0001164967, 0.0031628152, 0.0007671377, -0.0083504599, -0.0055869143, 0.0023153508, -0.0059740841, -0.0188766867, 0.0610960349, 0.0164483171, 0.0784801990, 0.0112948148, 0.0795433745, 0.0067815045, 0.0084221745, 0.0482682548, 0.0076510329, 0.0071688234, 0.0458829775, 0.0432093889, -0.0760572627, 0.0632154793, -0.0468687862, 0.0676148459, 0.0657194480, 0.0250412580, -0.0508745275, 0.0684984624, -0.0398854800, 0.0167530645, -0.0480977669, 0.0614116080, 0.0026101540, 0.0058195000, -0.0289803986, 0.0498759747, 0.0722663179, 0.0223954394, 0.0707719177, -0.0561606996, 0.0320879035, -0.0185248815, -0.0326925963, -0.0646612048, 0.0582216270, 0.0689506009, 0.0423252657, -0.0253369436, -0.0264169350, -0.0552775003, -0.0278689172, -0.0417741537, -0.0620292611, -0.0544995852, -0.0816846117, -0.0568609387, 0.0162282661, -0.0432729572, 0.0114871385, 0.0635348260, -0.0292065870, -0.0777636394, -0.0171352960, -0.0353475213, 0.0694178641, -0.0799006075, -0.0556089170, -0.0457696803, 0.0304982141, 0.0540654026, -0.0129546570, -0.0306274071, 0.0100889103, 0.0468482636, -0.0124216555, 0.0016377984, 0.0423084758, -0.0320393033, 0.0800122023, -0.0011479500, -0.0542402454, 0.0495088883, -0.0121836653, 0.0040562446, 0.0595749617, 0.0057363026, -0.0794529691, 0.0713796914, 0.0171376504, 0.0533856675, -0.0203688517, 0.0440053754, -0.0475678854, -0.0253841504, 0.0611893572, -0.0040608342, -0.0154088959, -0.0032972926, 0.0396830961, -0.0696697161, -0.0047686659, -0.0742051676, 0.0440510102, -0.0530788861, -0.0370146669, -0.0171829201, 0.0236537065, 0.0258508828, -0.0721703470, 0.0204815138, 0.0077336342, -0.0013653667, 0.0055771689, -0.0732331723, -0.0491450578, 0.0064484156, -0.0715842396, 0.0800491646, 0.0759779736, -0.0121791353, -0.0640775040, 0.0623615347, -0.0654576346, 0.0741697401, -0.0387588292, -0.0618085861, -0.0093215639, 0.0327018574, 0.0588775612, 0.0025008791, 0.0131481430, 0.0295323562, 0.0420171618, -0.0323415212, 0.0328575522, 0.0712911487, -0.0082648285, -0.0601874478, 0.0495457351, -0.0351649374, 0.0582349002, -0.0699400604, -0.0280857291, -0.0057402463, -0.0710179731, 0.0646326542, 0.0814620033, 0.0096575040, 0.0662298277, -0.0042222231, 0.0094619514, -0.0241578799, -0.0454361960, 0.0827696621, 0.0482154749, 0.0421672538, 0.0224439576, -0.0016598520, -0.0083741928, -0.0642526820, -0.0826437026, 0.0544563308, -0.0147665003, 0.0028534490, -0.0372507013, 0.0602384470, -0.0307807382, -0.0517022833, 0.0720358938, 0.0784811005, 0.0746027678, -0.0727046058, -0.0748538226, -0.0376071818, 0.0512977950, 0.0011347277, 0.0375370607, 0.0606502444, 0.0589511655, 0.0091939513, 0.0405259505, 0.0747142211, 0.0689916313, 0.0263334382, 0.0159008298, -0.0235637743, -0.0247085858, 0.0303099342, -0.0775727779, -0.0737510100, 0.0326583646, 0.0172565132, -0.0049211932, 0.0190626439, 0.0232722890, 0.0435636044, -0.0710237920, -0.0389749482, -0.0698053241, -0.0100445645, 0.0105561288, -0.0383996628, -0.0094790785, -0.0103812795, -0.0007195636, -0.0069355122, -0.0057520978, -0.0382278673, 0.0372396745, -0.0327805430, 0.0830458328, -0.0358034484, 0.0319828689, 0.0032353438, 0.0007147357, 0.0646463260, -0.0432460047, 0.0359804258, -0.0314240791, -0.0677639097, -0.0472481251, 0.0505078509, 0.0452278778, -0.0493056215, 0.0698586777, -0.0146486526, -0.0207436644, -0.0406457335, -0.0315529257, -0.0602958761, -0.0401683934, -0.0832052380, -0.0534117632, -0.0211350750, 0.0210556425, 0.0299798045, 0.0093868803, 0.0639869347, 0.0699503198, -0.0570650920, -0.0343400910, 0.0643230006, 0.0080175102, -0.0560071580, 0.0164367538, -0.0166146215, -0.0464947820, -0.0752939805, -0.0799195170, 0.0054132668, 0.0738480240, -0.0497752130, 0.0671468526, -0.0097447149, 0.0156040601, -0.0506207198, -0.0472174622, 0.0124179395, -0.0207368881, -0.0491444319, 0.0206461623, 0.0677110255, -0.0574774556, 0.0552168824, 0.0751882717, 0.0579314828, 0.0268022679, 0.0403728485, 0.0381778292, 0.0808082074, -0.0212568380, -0.0289147440, 0.0550405718, 0.0367176607, 0.0451055504, 0.0573777370, 0.0312331952, 0.0430276021, -0.0410941094, -0.0233502015, -0.0683225170, 0.0122542763, 0.0537613742, -0.0112303235, 0.0316740163, 0.0056079747, -0.0333076753, -0.0797631443, 0.0275246315, 0.0386368595, -0.0437138267, 0.0220089350, -0.0732029602, 0.0487376601, -0.0561859272, 0.0209882017, -0.0746571720, 0.0065854858, -0.0659055561, 0.0508967191, -0.0455531515, 0.0056881621, 0.0043729227, 0.0360844843, 0.0734015629, -0.0392386541, 0.0535888188, 0.0629243925, 0.0718234926, -0.0249050204, 0.0179122295, 0.0048409859, 0.0146792196, 0.0529195331, 0.0406721570, 0.0079158647, 0.0812969208, 0.0366842821, 0.0148716923, -0.0363098159, 0.0177481379, 0.0007637502, -0.0471163057, -0.0274864845, 0.0479372069, -0.0487829670, 0.0622893423, -0.0071219346, 0.0274737105, 0.0219887700, 0.0411133729, 0.0427692421, 0.0004178265, 0.0395614021, -0.0191350523, -0.0409417115, 0.0414463580, -0.0624049678, 0.0055427672, -0.0398479998, -0.0051712235, -0.0291096810, 0.0719539151, 0.0560948066, -0.0777516961, -0.0562922433, 0.0186140314, 0.0810684338, 0.0051148278, -0.0632160306, -0.0699453950, 0.0366230793, 0.0813799202, 0.0300018769, 0.0776499808, -0.0402404852, 0.0576715544, 0.0021165006, -0.0535919666, 0.0784194097, -0.0294930860, -0.0273107924, 0.0677473247, 0.0575620048, 0.0743733719, -0.0822448209, -0.0329146832, -0.0513380989, -0.0407143496, -0.0764962658, -0.0695309043, 0.0745730996, 0.0641795024, 0.0151900779, -0.0614505522, -0.0009351227, 0.0608897544, 0.0393690392, -0.0179756097, 0.0329623967, 0.0761659667, -0.0296958685, -0.0025881499, 0.0571546890, -0.0375540107, 0.0557650812, 0.0551407561, 0.0285996664, -0.0749431700, -0.0003497484, 0.0205434430, 0.0523335710, -0.0055544893, -0.0735836774, 0.0126752220, 0.0202391148, -0.0000561175, 0.0705179051, 0.0632643700, -0.0292683467, 0.0444668084, 0.0733971968, -0.0582845099, -0.0409532636, 0.0588599779, -0.0457962453, -0.0126553141, 0.0266616400, 0.0789381191, -0.0432516672, 0.0144597860, 0.0376841426, -0.0297351591, -0.0523729995, -0.0592287779, 0.0704425350, 0.0167086776, -0.0829272494, -0.0210556034, -0.0196780078, 0.0676297992, 0.0687123910, -0.0423723124, 0.0688820854, 0.0531344078, -0.0736393705, 0.0378236584, -0.0357211754, -0.0154365627, -0.0312084779, -0.0652096421, -0.0523417294, -0.0785108060, -0.0219619367, -0.0832177326, -0.0235136077, 0.0208421610, 0.0642006993, 0.0633452609, 0.0800796896, 0.0381793864, 0.0798970014, 0.0349039286, 0.0487360805, -0.0012509760, -0.0216787178, -0.0435354002, -0.0625259951, 0.0803151503, -0.0287260581, 0.0643123612, -0.0681638271, -0.0664837733, 0.0480507798, 0.0390990004, 0.0108096562, 0.0495608337, -0.0224997588, -0.0495497286, -0.0792053789, -0.0776842535, 0.0624873415, 0.0786029249, -0.0032230455, 0.0128782149, 0.0429147109, 0.0668133721, 0.0644136742, 0.0622434877, 0.0722538084, -0.0129708592, 0.0463384986, -0.0754663348, -0.0001891345, -0.0372429416, -0.0239533689, -0.0751739368, -0.0229183082, 0.0063118618, -0.0178388953, 0.0543102510, 0.0461285114, -0.0750491470, -0.0102405930, 0.0717393756, 0.0608066358, 0.0290104300, -0.0619482994, -0.0295978896, 0.0816887021, -0.0008092681, -0.0320484340, -0.0321267135, -0.0809923708, -0.0555606969, -0.0266601704, -0.0668152943, -0.0271666478, 0.0298647881, 0.0771348327, 0.0485686250, -0.0442771688, 0.0357230231, 0.0162114184, -0.0771933720, -0.0060278769, -0.0714950114, -0.0480368920, 0.0120287826, -0.0225795172, -0.0301356502, -0.0166079868, -0.0659481511, -0.0041564493, 0.0117825875, 0.0579657033, 0.0543417409, 0.0237957146, 0.0071659428, 0.0724791437, 0.0591030866, 0.0705617741, -0.0785909370, -0.0415680818, 0.0344905853, 0.0593894646, -0.0522977784, 0.0648334250, -0.0621663406, 0.0182826798, -0.0437086709, -0.0503457859, -0.0503443033, -0.0356410556, 0.0366751030, 0.0030317951, 0.0367754474, 0.0081674252, -0.0228068996, -0.0291981138, -0.0406572968, 0.0466051362, 0.0145025821, -0.0429327413, -0.0292489845, 0.0662719533, 0.0653049275, 0.0151691567, -0.0819927529, 0.0743173435, -0.0013355149, -0.0381146260, 0.0718065500, 0.0452044532, -0.0003189031, -0.0292082354, -0.0290728360, 0.0416643918, 0.0092251236, -0.0425902493, 0.0330112651, 0.0039916039, 0.0408237427, -0.0384814218, -0.0727364048, 0.0576491877, 0.0396196954, 0.0606618151, -0.0415388569, -0.0264451578, 0.0423682518, 0.0532714948, -0.0598915331, 0.0467526354, -0.0270048119, -0.0615331046, -0.0009818326, -0.0256828088, -0.0219194796, 0.0644905493, 0.0256764106, -0.0469987243, -0.0468160249, -0.0432715565, -0.0231889728, -0.0261166692, 0.0146756433, -0.0826426148, -0.0605490468, -0.0015321198, 0.0757831112, -0.0340954661, 0.0080999825, -0.0317598283, 0.0255225915, -0.0797810331, -0.0257088952, 0.0608536638, -0.0333766267, -0.0011586688, 0.0175288543, -0.0304049421, -0.0179515891, -0.0452484526, -0.0436124504, -0.0167553183, -0.0074454276, -0.0299810860, 0.0548208989, -0.0562980548, -0.0503738783, -0.0543136075, -0.0498741865, 0.0751769468, -0.0192554817, -0.0282401629, -0.0777341053, -0.0831851065, 0.0442846976, -0.0520600080, 0.0071893078, 0.0772015080, 0.0611358136, 0.0061274660, 0.0067073768, -0.0736609548, -0.0691220835, 0.0014708863, -0.0174563155, -0.0737695172, -0.0720758066, 0.0338146910, -0.0305054355, -0.0352780558, -0.0471681319, 0.0743782967, 0.0732507557, -0.0120362137, 0.0321701057, 0.0609210879, -0.0573292412, 0.0374595076, 0.0719458759, -0.0779086649, -0.0422755256, -0.0611193925, -0.0312307011, -0.0549428016, 0.0668882951, 0.0405206084, -0.0308746547, -0.0053584804, -0.0238914602, 0.0186492875, 0.0527088009, 0.0300619192, 0.0171533860, -0.0213789083, 0.0081206653, 0.0540582202, 0.0264699925, -0.0037120990, 0.0095605878, -0.0821476877, -0.0129441172, -0.0382676423, 0.0682343096, 0.0365400575, 0.0610887557, -0.0669787973, 0.0557347052, -0.0049558333, -0.0262792986, 0.0286583658, -0.0620010197, -0.0695915222, 0.0803485662, 0.0494159386, -0.0151392063, 0.0606690980, -0.0384707116, -0.0534863174, 0.0256056003, 0.0559199937, -0.0442273207, -0.0383261293, 0.0740315318, 0.0705981031, -0.0645083785, -0.0222906061, 0.0697819591, -0.0399981216, 0.0627913922, 0.0072411732, -0.0336965732, -0.0178699698, -0.0680755079, -0.0233622510, 0.0077770958, -0.0154604735, 0.0069278930, -0.0692963228, -0.0716890693, 0.0647326857, -0.0395180322, 0.0122143608, -0.0578320995, -0.0660814643, -0.0296718292, -0.0718105659, 0.0155263068, -0.0596326217, -0.0561408810, 0.0573314242, -0.0549346358, 0.0039541125, -0.0649620220, -0.0197713189, 0.0446921140, -0.0590929240, -0.0367748030, -0.0292659532, -0.0430097319, 0.0770899057, -0.0044350503, 0.0367741659, -0.0824068412, 0.0057029244, 0.0218093395, -0.0803550556, 0.0513344631, 0.0272348858, 0.0470222980, -0.0004483539, 0.0538510494, 0.0244050995, -0.0563718528, -0.0637062192, -0.0257608108, -0.0718476474, 0.0142639857, 0.0217162184, -0.0609226748, 0.0492152609, 0.0520215407, -0.0068726493, 0.0315761790, 0.0830373466, 0.0716164038, 0.0775433406, -0.0577504337, 0.0451049134, -0.0163729973, -0.0010781533, 0.0494156331, -0.0367454663, -0.0587542020, -0.0441608019, -0.0647044480, -0.0611565635, -0.0289810840, -0.0613651127, -0.0607591718, 0.0521363318, -0.0795427337, 0.0314023532, 0.0485703126, 0.0219917689, -0.0672808737, -0.0364623033, -0.0664058253, 0.0248712059, 0.0575081930, -0.0036767141, 0.0763426349, -0.0198494103, -0.0626066029, -0.0528094806, 0.0312486216, 0.0205116551, 0.0272787344, 0.0668760091, -0.0587575100, 0.0100932317, 0.0647300705, 0.0633805022, 0.0100271003, -0.0569770560, 0.0645444989, -0.0412693769, 0.0455269627, 0.0434284434, -0.0245690513, -0.0610845126, 0.0406456031, 0.0110574318, -0.0211636852, -0.0627695620, -0.0192191228, -0.0012210944, -0.0698763505, -0.0521885231, 0.0351450108, -0.0811836421, -0.0156585984, -0.0165425222, 0.0494698137, -0.0274044685, -0.0821935311, 0.0195729155, -0.0551019236, -0.0739418864, -0.0480827056, -0.0701859593, 0.0025185719, -0.0111996476, -0.0398213267, 0.0434252247, 0.0268512126, -0.0386885256, -0.0548934489, 0.0648228973, -0.0082126353, 0.0095937466, -0.0660114288, 0.0523925312, -0.0010423012, -0.0101112323, -0.0008554019, -0.0476933345, -0.0425140448, -0.0713205338, 0.0578418076, -0.0697902739, 0.0421096571, -0.0276997108, 0.0712614879, 0.0479854159, 0.0490608849, -0.0239325464, 0.0756100193, -0.0468494929, -0.0072683529, -0.0264900699, -0.0230005328, 0.0410663523, 0.0116941342, 0.0226969477, 0.0748337209, 0.0196215026, -0.0019567511, 0.0724516436, 0.0358982906, -0.0255994312, 0.0380049236, -0.0357195362, 0.0625486746, 0.0040031471, -0.0168799628, 0.0017582984, 0.0229747538, 0.0388845764, -0.0561748929, 0.0549874529, -0.0480371378, -0.0551366545, 0.0663063675, -0.0288337320, -0.0523745492, -0.0352721848, 0.0479173660, -0.0433992594, -0.0322411358, -0.0594644174, 0.0742252916, 0.0178385284, 0.0296423547, 0.0019861956, 0.0171537139, -0.0743257999, 0.0285525192, 0.0566408783, 0.0731506795, 0.0354986414, 0.0362156108, 0.0752434954, -0.0299364142, 0.0491632558, -0.0245746449, -0.0192894675, -0.0052081086, -0.0288830344, 0.0142075811, 0.0319032371, 0.0115512237, 0.0545542128, -0.0654546767, 0.0208939072, 0.0098239789, 0.0567334853, -0.0160694215, -0.0761208460, 0.0723247677, 0.0721797720, -0.0815133452, -0.0731132776, 0.0228702296, -0.0489068180, 0.0023741703, -0.0629243925, -0.0597490966, 0.0082082143, 0.0629578605, -0.0144633921, 0.0413330197, -0.0133746294, 0.0246024802, -0.0536832809, 0.0654593855, -0.0510183983, -0.0547670946, -0.0625899285, 0.0157042556, -0.0527145304, 0.0812210813, -0.0140298204, -0.0591586158, 0.0438769162, 0.0633055344, -0.0108795324, -0.0815282837, 0.0535119697, 0.0612637326, -0.0120069878, 0.0076687951, 0.0072980458, 0.0619247258, 0.0751089603, 0.0182471853, 0.0180288367, 0.0275127515, 0.0630878359, 0.0400489047, -0.0574078485, -0.0260947738, -0.0622887984, 0.0610243306, 0.0168699287, -0.0577934682, 0.0613979697, 0.0797590092, 0.0211942922, -0.0012499131, 0.0092752408, -0.0703866258, 0.0163458567, -0.0767910704, 0.0701275840, 0.0168875623, -0.0602808185, 0.0313619822, 0.0234569237, -0.0806959122, 0.0767364800, -0.0187381767, -0.0580130704, 0.0565125123, 0.0428296663, -0.0260317121, 0.0616730452, 0.0046115983, 0.0759610534, 0.0547569431, -0.0790194497, 0.0438927822, -0.0391075835, 0.0054731793, -0.0077996957, 0.0792312771, -0.0479678027, -0.0059542656, -0.0258836038, 0.0347166620, -0.0823902264, 0.0075054588, -0.0009307120, -0.0473326743, 0.0029029802, -0.0344814360, 0.0174183380, -0.0414103381, -0.0677411109, 0.0731336996, -0.0753416643, -0.0714717954, -0.0405690037, 0.0257746987, -0.0091334926, -0.0059181950, 0.0572047867, 0.0663051531, 0.0103618084, 0.0674279481, 0.0297028627, -0.0609826073, -0.0676322207, -0.0163658038, -0.0279789474, 0.0329158083, 0.0321940891, 0.0058839526, -0.0748153105, -0.0302411113, 0.0038633354, 0.0137706604, -0.0088909818, 0.0052080192, 0.0068346816, -0.0680716783, -0.0634883866, 0.0641861930, -0.0496568084, -0.0699832365, 0.0104542058, 0.0141445985, 0.0389289111, 0.0125969816, -0.0632458031, 0.0191916954, 0.0761655346, -0.0605859943, 0.0175151359, 0.0095856003, -0.0739793479, -0.0018222440, -0.0452985801, 0.0817381516, -0.0127203427, 0.0554862507, -0.0411819480, -0.0371046811, -0.0171540324, 0.0383661054, 0.0798750520, -0.0030644881, -0.0170963556, -0.0512009598, -0.0256521311, -0.0325991064, 0.0729651898, 0.0359557569, 0.0442779623, -0.0693321452, -0.0627945065, 0.0804878920, 0.0725821033, 0.0649506301, -0.0691423193, 0.0610822886, 0.0418271646, -0.0153563740, 0.0716551766, -0.0411085039, 0.0217226464, 0.0728348047, 0.0213071834, -0.0169336740, 0.0752824321, 0.0484140404, -0.0764558241, 0.0120707145, -0.0572946109, 0.0747461095, 0.0596630983, 0.0720622092, 0.0786420926, 0.0375571586, -0.0078633837, -0.0421626344, 0.0459286571, 0.0102368779, -0.0623083077, 0.0233134646, 0.0352669992, -0.0170922130, -0.0603417121, 0.0298269000, 0.0438195579, 0.0733390599, -0.0308543090, 0.0435288064, -0.0026451615, 0.0723206773, 0.0736212879, -0.0698961914, -0.0807090774, -0.0595388040, 0.0433740467, 0.0495878458, 0.0484348126, 0.0567057282, 0.0010836567, -0.0186353587, -0.0309803933, -0.0501889996, -0.0640185699, 0.0740680546, -0.0180002563, -0.0373441502, -0.0203867033, -0.0700579807, -0.0466203652, -0.0524215177, 0.0777784213, 0.0145551432, -0.0062184720, -0.0569577850, -0.0644202530, 0.0076386547, 0.0152762765, -0.0151755046, -0.0236460175, 0.0365025587, -0.0333874747, -0.0049839169, -0.0154202105, 0.0447132066, -0.0700698271, -0.0570751466, 0.0522791445, 0.0272012390, -0.0722358599, 0.0435331166, -0.0661854148, 0.0831254348, -0.0504501909, -0.0825686827, 0.0390434824, -0.0469839610, -0.0760282651, -0.0589153729, -0.0081381686, -0.0086982213, -0.0300881546, -0.0102082277, 0.0438343287, -0.0308267530, 0.0789239779, -0.0155067667, 0.0150295841, -0.0472525172, 0.0798049644, -0.0019304259, 0.0116181895, -0.0351724178, 0.0717423484, 0.0529508851, 0.0663130507, 0.0224452894, 0.0735063404, -0.0461731628, -0.0376438908, -0.0139280558, -0.0797023848, 0.0289762262, 0.0512310378, 0.0200465117, 0.0497439802, 0.0776429623, -0.0046473313, 0.0065227025, 0.0196162574, -0.0732982531, 0.0149606122, 0.0272296201, 0.0591500252, 0.0072715119, 0.0534854047, 0.0826176926, -0.0209804326, 0.0241603535, -0.0373104848, -0.0211709272, 0.0745110959, 0.0815401003, -0.0378754251, 0.0466696881, -0.0424945615, -0.0210660528, -0.0551491603, -0.0456031971, -0.0050512203, 0.0403974727, -0.0077360286, -0.0526013114, -0.0418178141, -0.0137781315, 0.0341841169, 0.0319324546, 0.0614268295, -0.0389089547, 0.0764839947, -0.0328586362, -0.0504002534, 0.0181411784, 0.0523186997, 0.0490422882, 0.0753028765, -0.0510246493, 0.0574230365, -0.0399368703, -0.0673010200, 0.0356106386, 0.0675063878, 0.0659712777, -0.0790549144, 0.0386766940, -0.0012612280, -0.0379528813, -0.0579392910, -0.0766499192, 0.0820700899, 0.0156548433, 0.0147101944, 0.0287718736, 0.0637196973, 0.0744071156, -0.0437230878, -0.0153082740, -0.0332932509, -0.0392867066, -0.0775820017, 0.0239702575, -0.0680778176, -0.0433717296, 0.0036755716, -0.0013096764, 0.0058568823, 0.0296516418, 0.0148608536, -0.0731855184, -0.0496260412, -0.0063819070, 0.0517017059, -0.0455014631, -0.0043323222, -0.0431285836, 0.0358400159, -0.0422180668, 0.0762468353, -0.0613644049, 0.0477631688, -0.0116587887, -0.0111392774, -0.0630799085, 0.0768434703, 0.0622596815, 0.0806049556, -0.0196445491, 0.0690123886, -0.0798813477, 0.0713335499, 0.0168051478, -0.0690147579, -0.0761498511, 0.0085829571, -0.0042771483, -0.0491355509, 0.0302975569, -0.0204151254, -0.0175352115, 0.0514777042, -0.0007460577, -0.0804226175, 0.0447669588, -0.0129264351, -0.0322678983, -0.0131576695, -0.0250807647, 0.0649870262, 0.0045355135, -0.0296583883, 0.0076730661, 0.0669017285, 0.0548243970, 0.0063868640, -0.0763368830, -0.0364401415, -0.0812274814, -0.0043590348, 0.0801546276, -0.0408880375, -0.0037456860, 0.0673583820, -0.0598068833, 0.0788992196, 0.0214154143, 0.0176516790, -0.0803303123, 0.0342873037, -0.0753899589, 0.0137085821, 0.0461230651, 0.0797188058, -0.0217960272, -0.0236665606, 0.0807829276, 0.0623958670, -0.0618006177, -0.0410912484, -0.0616295524, 0.0697123408, 0.0704426542, 0.0180996154, -0.0454773940, -0.0108482204, -0.0024360099, -0.0050505446, -0.0773940831, 0.0108115636, -0.0735732689, -0.0580901504, 0.0124125360, -0.0805757716, 0.0187803078, -0.0770937130, -0.0015166128, -0.0626921058, 0.0770815536, 0.0522742942, -0.0386714600, -0.0760696605, 0.0348956548, -0.0133954212, 0.0577478893, 0.0198197383, 0.0504039377, -0.0790290982, -0.0562167242, -0.0033433866, -0.0762042478, -0.0421746932, 0.0729761496, 0.0565666221, 0.0433446690, 0.0629462302, 0.0483223386, -0.0648784488, -0.0133029055, -0.0774684176, 0.0117511563, -0.0433418080, 0.0270776786, 0.0124388309, -0.0780499578, 0.0128018213, -0.0739812404, -0.0154611990, -0.0142133329, -0.0494347252, -0.0008791542, 0.0270882379, -0.0407153219, 0.0252746474, 0.0795104951, -0.0748275369, 0.0536523573, 0.0066388515, -0.0748399869, 0.0791106746, 0.0677515566, 0.0530565344, 0.0002966310, 0.0533062033, 0.0589895509, -0.0302098077, -0.0019238197, -0.0487457141, 0.0676482394, -0.0213003792, 0.0643443391, -0.0322725587, 0.0486130379, -0.0071865958, -0.0427853502, -0.0532388203, -0.0253892466, 0.0088269077, 0.0221139193, -0.0368826129, 0.0809012055, -0.0153761432, -0.0067319935, -0.0673625022, -0.0505000018, 0.0286242831, -0.0418799222, 0.0673959777, -0.0718545914, -0.0114641506, -0.0768927187, 0.0338959768, -0.0788383037, 0.0551237017, 0.0248222891, 0.0602572449, 0.0544773005, -0.0025282376, -0.0039369669, 0.0451667644, 0.0440595746, -0.0735808834, -0.0798721910, -0.0089129461, 0.0306989998, -0.0201687012, -0.0194026064, 0.0782937482, 0.0132453777, 0.0528404862, 0.0530427545, -0.0493474044, -0.0541750081, -0.0745556653, 0.0549299270, 0.0124912141, -0.0265790503, -0.0680214465, -0.0669231489, -0.0008251924, -0.0429846495, -0.0100155370, -0.0014562435, 0.0564620644, -0.0651157424, -0.0699494854, 0.0102000916, -0.0291226450, -0.0559509285, -0.0192288291, 0.0671059266, 0.0670471638, 0.0266660005, 0.0700592399, 0.0255491249, -0.0225392245, 0.0097446255, -0.0426373444, 0.0788608268, -0.0099615250, 0.0773616135, 0.0099890232, -0.0315053612, -0.0220097899, -0.0441879630, -0.0247808751, 0.0541820191, -0.0474582128, -0.0482241176, 0.0454345383, 0.0382105298, -0.0636130273, -0.0037761738, -0.0717973337, -0.0342443958, -0.0316301398, 0.0763569176, 0.0789339319, 0.0773686916, 0.0566044897, 0.0280996636, 0.0191837382, 0.0672468469, 0.0101994658, -0.0497932434, 0.0286509749, -0.0075616064, -0.0797044113, -0.0459322520, 0.0539814010, -0.0475692078, -0.0440669470, 0.0379300416, -0.0646923110, -0.0434042364, -0.0486075059, -0.0219934676, -0.0183071382, 0.0172485858, -0.0416437797, 0.0468976945, 0.0112760598, -0.0713476539, 0.0030344077, -0.0162650123, -0.0367303155, 0.0313540846, -0.0176400077, 0.0641498193, -0.0516680889, 0.0581949726, -0.0208592676, 0.0277523305, 0.0077909338, -0.0478887782, 0.0691118240, -0.0229303986, -0.0095375301, -0.0429920703, -0.0426917560, 0.0002118239, 0.0422264598, 0.0164110344, -0.0068238536, 0.0102829523, 0.0171087533, -0.0194700696, 0.0271789376, 0.0689330548, 0.0582373627, -0.0146428505, -0.0243402515, -0.0809087306, 0.0141433571, 0.0633640811, -0.0789400786, 0.0703842267, 0.0737731308, 0.0447701961, 0.0082672331, -0.0275053401, 0.0651376992, 0.0810821652, 0.0597973466, -0.0576870218, -0.0743837431, -0.0109636933, -0.0433110036, -0.0789302364, 0.0121892076, -0.0777868181, -0.0611723997, 0.0343917385, 0.0310557541, -0.0472733192, -0.0236915257, -0.0096820509, -0.0057650320, -0.0152676338, 0.0742634386, 0.0118362308, -0.0444256738, -0.0392224900, -0.0253174230, 0.0102651007, -0.0610639080, -0.0447449461, 0.0764013752, -0.0655708835, -0.0364054218, -0.0599746890, -0.0327504054, -0.0090424959, 0.0374793150, -0.0595076010, -0.0026142269, -0.0325695053, 0.0062646954, 0.0554367788, -0.0821194425, -0.0158184674, 0.0708704218, 0.0143864835, 0.0114005040, 0.0325204507, 0.0226080082, 0.0125432881, 0.0163642839, -0.0802261233, 0.0596748106, 0.0369149894, -0.0103547750, 0.0618338101, 0.0288563408, 0.0392633900, -0.0701312497, -0.0830858648, 0.0717117488, 0.0155137209, 0.0542590804, 0.0015041156, 0.0451895930, 0.0395532176, 0.0769268125, 0.0626038462, -0.0719932541, -0.0399891138, -0.0010726597, 0.0175405070, -0.0023605109, -0.0343325809, -0.0121058617, -0.0507711731, 0.0788571090, -0.0631985441, -0.0563426875, 0.0481585152, -0.0017450763, 0.0456050560, 0.0738525689, 0.0384036452, -0.0624207705, -0.0473125093, 0.0404276550, -0.0649768710, 0.0100478530, 0.0336140618, -0.0196226742, -0.0634374693, -0.0139816003, 0.0077170343, 0.0461363867, 0.0751172304, -0.0766885504, 0.0733424500, 0.0266019963, -0.0193087794, 0.0378435440, -0.0767084658, 0.0600499287, 0.0119070709, -0.0258162431, 0.0688607767, -0.0124432119, 0.0475154743, 0.0616526119, 0.0799128488, 0.0271509923, -0.0631983131, -0.0114034144, -0.0373852886, 0.0107646938, -0.0315460190, 0.0357558951, -0.0463267453, 0.0363354050, 0.0286046620, -0.0687861145, -0.0800501406, -0.0710148662, -0.0479683280, -0.0269891154, -0.0769002885, -0.0793876573, 0.0095308349, 0.0096931178, -0.0804043710, -0.0683453232, -0.0329901241, 0.0274560675, 0.0305622183, 0.0370160379, -0.0736914277, 0.0224352069, 0.0241945963, -0.0005863876, 0.0252632126, -0.0228861514, 0.0082297018, -0.0814969838, 0.0558986254, -0.0618119054, 0.0045285099, -0.0004484035, 0.0797449425, -0.0127037931, -0.0366013236, 0.0735184923, 0.0215150826, 0.0512135848, -0.0021653166, -0.0275321025, -0.0150728868, 0.0471574403, -0.0520807281, 0.0473623089, 0.0630127937, -0.0363120325, 0.0559612922, 0.0608652867, -0.0529409386, 0.0312795788, -0.0465391725, 0.0343108848, 0.0065017315, 0.0636520386, 0.0818999633, -0.0018261083, 0.0107650915, -0.0320840366, -0.0627905801, 0.0712937638, -0.0692236051, 0.0288786329, -0.0079449117, -0.0307432059, 0.0129226800, 0.0458308049, 0.0571994707, -0.0224833470, 0.0067176586, -0.0042794133, -0.0400269814, 0.0740763620, 0.0685221329, -0.0350745879, -0.0123291593, -0.0519006625, 0.0332290754, -0.0523307100, -0.0816422626, -0.0231712405, 0.0340779424, 0.0082526598, 0.0610588118, 0.0778289661, -0.0480102487, -0.0591499768, -0.0058229971, 0.0149764363, -0.0666366965, 0.0792176276, 0.0659035444, -0.0770172924, -0.0563342832, 0.0182631891, 0.0575914420, -0.0252578091, -0.0130692665, -0.0794908851, 0.0035934071, -0.0278015826, -0.0809035078, 0.0487736985, 0.0152139794, 0.0166439284, -0.0308770593, 0.0661269426, -0.0047506951, 0.0065503493, 0.0577122942, -0.0315196142, -0.0130088869, 0.0614884906, 0.0253386926, 0.0431149937, -0.0002449639, -0.0625912324, -0.0399266966, 0.0210446957, 0.0751709044, -0.0763153359, 0.0328970999, -0.0297242310, 0.0458819345, 0.0397453830, 0.0478122756, 0.0509822182, 0.0339809433, -0.0141504500, 0.0056388988, 0.0380573161, 0.0206746813, 0.0234283339, 0.0674569681, -0.0564500839, 0.0828332305, 0.0481851771, -0.0704647824, 0.0070624994, 0.0443280190, -0.0112168929, 0.0366732962, -0.0558816604, -0.0376061685, -0.0653889626, -0.0284435526, 0.0458562151, 0.0211848058, 0.0582799613, -0.0206806622, 0.0116469972, 0.0263021663, 0.0581328161, 0.0477276556, 0.0725660399, 0.0149982916, -0.0288375765, 0.0497725606, -0.0776899680, 0.0096653719, -0.0048933281, -0.0200718530, -0.0528091043, 0.0176524650, -0.0267565511, 0.0503535643, -0.0394863114, -0.0097588021, -0.0807022899, 0.0315966755, 0.0730525926, 0.0089127375, -0.0150836846, 0.0499013066, 0.0065823365, -0.0223037675, -0.0471068881, 0.0717706084, 0.0351689011, 0.0554790087, -0.0028238255, -0.0244324375, -0.0817252994, 0.0660147890, -0.0515788533, -0.0455481447, -0.0291075744, -0.0322615020, 0.0151705677, -0.0027681151, 0.0661958084, -0.0149602946, -0.0670583695, -0.0587259866, 0.0661806986, -0.0802771822, -0.0006766882, -0.0026347307, -0.0447898358, 0.0129724890, -0.0723906085, 0.0195604172, -0.0759108141, -0.0040710266, 0.0245837942, -0.0322534554, 0.0688423663, -0.0247225426, 0.0261394475, -0.0478314459, 0.0583650172, -0.0631472468, -0.0300132427, 0.0209875852, -0.0315443724, 0.0729749128, -0.0669762120, 0.0615723915, 0.0496905036, 0.0293382127, -0.0423722044, -0.0277471449, -0.0267901178, -0.0667977110, -0.0573453046, 0.0218885839, 0.0481595472, 0.0358435512, 0.0498236828, 0.0266249031, -0.0080654621, 0.0455602743, -0.0647124648, -0.0319917388, 0.0184862185, 0.0367791131, -0.0377539098, -0.0205124002, 0.0298171844, 0.0661813170, -0.0249546226, 0.0055738408, 0.0212402176, -0.0497021973, 0.0557311177, -0.0238827970, -0.0262209363, 0.0488274544, -0.0663549379, 0.0446945876, -0.0184440687, -0.0251264796, 0.0549758710, 0.0652562380, 0.0408206731, -0.0022767570, 0.0095402328, 0.0332417600, 0.0029325339, -0.0569133610, 0.0151861738, -0.0321427099, 0.0119865537, 0.0395509712, -0.0196619350, 0.0410429984, 0.0061436882, -0.0241321512, -0.0217246227, -0.0540365353, 0.0529583246, -0.0156520922, 0.0113615524, 0.0776781589, -0.0703223124, 0.0220294986, 0.0337943546, -0.0575590357, -0.0589679927, -0.0453110375, 0.0376598127, 0.0338975266, -0.0367944017, 0.0216501467, -0.0367103703, 0.0748000816, 0.0553391203, 0.0370696336, 0.0600393899, 0.0539618395, -0.0550208539, -0.0092446338, 0.0170126799, -0.0164570287};

#endif

#endif
