//Numpy array shape [3, 3, 16, 16]
//Min -0.083236992359
//Max 0.083295643330
//Number of zeros 0

#ifndef W7_H_
#define W7_H_

#ifndef __SYNTHESIS__
cell_edges_3_op_1_weight_t w7[2304];
#else
cell_edges_3_op_1_weight_t w7[2304] = {-0.0520270057, -0.0447297655, 0.0124983964, -0.0417684242, -0.0233539268, -0.0074189529, 0.0235897619, 0.0201445911, 0.0475951657, 0.0504067503, 0.0194618441, 0.0090937857, -0.0491609201, 0.0081932731, 0.0570714511, 0.0473434031, -0.0508830808, -0.0643503442, -0.0038104265, -0.0426006801, -0.0245312024, -0.0410532095, 0.0605862029, 0.0045966976, 0.0146946767, 0.0447219759, 0.0198851246, 0.0089947134, 0.0552709252, 0.0265267659, -0.0003082538, -0.0551716909, 0.0189561099, -0.0148339225, 0.0336010866, 0.0363642164, 0.0632425323, -0.0291502811, -0.0493964106, 0.0644327924, -0.0531495064, 0.0416395962, -0.0692229941, 0.0022177785, 0.0713976845, 0.0120997122, -0.0460939296, 0.0217246935, 0.0165121742, 0.0420747660, 0.0525965132, -0.0621300004, -0.0729583129, -0.0613061227, 0.0748249367, -0.0333257131, -0.0607184991, 0.0101128118, 0.0368310548, -0.0404911824, -0.0572510883, 0.0254007615, 0.0349864513, -0.0393468477, 0.0341523588, -0.0493208990, -0.0814834312, 0.0824446678, 0.0761473551, -0.0651985109, 0.0458976813, 0.0107345246, -0.0565435253, 0.0088565405, -0.0118310656, 0.0286156889, 0.0042115538, 0.0109945787, -0.0004533606, -0.0394487716, -0.0496998429, -0.0105586024, -0.0529359244, -0.0160822365, -0.0288864225, 0.0243746210, -0.0445339456, 0.0289971381, -0.0399038866, 0.0223580785, 0.0801849961, -0.0368587226, 0.0191622209, -0.0162765365, 0.0217757430, 0.0005978614, -0.0128648933, -0.0596242547, -0.0628358871, 0.0633552670, 0.0823188946, 0.0129693896, 0.0729196295, 0.0293306038, 0.0550989062, 0.0097919805, 0.0802579597, 0.0295977108, 0.0671743825, -0.0519607663, 0.0442952476, 0.0182051938, 0.0170486718, -0.0314671546, 0.0580803156, -0.0750981644, -0.0407838076, 0.0762542710, -0.0656688958, -0.0289069153, -0.0765931308, 0.0534415357, 0.0010801898, 0.0611884519, -0.0541502014, -0.0618971772, 0.0620435886, -0.0419291668, -0.0307718758, -0.0641270503, -0.0390457064, 0.0055146343, 0.0757819042, 0.0126242405, -0.0023588024, 0.0538100228, 0.0685911328, 0.0258729551, 0.0641073063, -0.0312232208, -0.0630649477, 0.0724049881, -0.0544089042, -0.0763454959, 0.0409506522, -0.0529423207, -0.0073387059, 0.0399225056, 0.0231735054, 0.0637341961, -0.0115847513, -0.0606160723, -0.0382768102, -0.0183410142, -0.0477287881, -0.0272556078, 0.0680399090, -0.0276751239, 0.0746121481, 0.0128087560, -0.0077885198, -0.0581265390, 0.0754571334, -0.0433258750, 0.0025525463, -0.0098394258, 0.0164996665, -0.0478295013, 0.0230735689, 0.0553358831, 0.0320400596, 0.0506310426, 0.0281808954, -0.0729170889, 0.0650282502, -0.0696685314, 0.0440363400, -0.0518035181, -0.0728560612, -0.0245692302, -0.0730517432, -0.0578317419, 0.0073755910, -0.0667292103, 0.0306584407, 0.0572154932, -0.0114495978, 0.0031462749, 0.0623898171, -0.0217117686, 0.0170442909, 0.0632402971, -0.0761026368, 0.0298600495, -0.0712301433, 0.0645812750, -0.0662315041, -0.0089923590, 0.0252754726, 0.0050302492, -0.0233090837, 0.0046769446, 0.0783019885, -0.0414046049, 0.0788099244, 0.0052323081, 0.0132115223, -0.0299888346, -0.0432919301, 0.0312880203, 0.0731997862, -0.0439346619, -0.0079736710, 0.0668541938, -0.0097334599, 0.0481131040, -0.0540607534, -0.0683920532, -0.0467363745, 0.0435748808, -0.0028030635, -0.0774272084, 0.0186623801, 0.0704115033, -0.0793959647, 0.0670650676, 0.0116099641, 0.0178747289, 0.0805688351, -0.0312299766, -0.0054098000, 0.0323685557, 0.0419497788, 0.0514316894, -0.0737564266, -0.0294785723, -0.0476819500, 0.0692715868, 0.0114618465, 0.0652889758, -0.0270781256, 0.0819125772, 0.0490296930, 0.0637423024, -0.0485491045, 0.0593112707, -0.0532559976, 0.0638883710, -0.0490577444, 0.0779533535, 0.0645515844, 0.0538258776, -0.0808305517, -0.0135550816, 0.0426658280, 0.0399476476, -0.0636008382, 0.0297095887, 0.0728981271, 0.0681711435, 0.0057032821, -0.0644318685, -0.0309874061, 0.0747610629, 0.0781825930, 0.0031984984, 0.0265061334, -0.0152733065, -0.0741047114, -0.0781228542, -0.0095663192, -0.0017463975, -0.0347774290, -0.0142325936, -0.0163331013, 0.0162231605, -0.0641041324, 0.0527950674, 0.0257748868, -0.0365952514, -0.0647160336, -0.0596069098, 0.0151467668, -0.0719499812, 0.0646497905, 0.0064181066, -0.0100005064, -0.0453164019, 0.0325730108, 0.0176249668, -0.0382628739, 0.0323733538, 0.0765767694, -0.0038627591, -0.0434014052, -0.0303385332, 0.0059044864, -0.0193633474, -0.0706580505, -0.0180050135, -0.0004727122, 0.0368885025, -0.0373096988, -0.0289920717, 0.0736413375, 0.0628737062, 0.0467177480, 0.0338606723, -0.0362900682, 0.0539815314, 0.0803125501, -0.0511719398, -0.0239727199, 0.0415261202, -0.0159754250, 0.0115920622, -0.0720140561, -0.0460890904, 0.0683186427, -0.0336349644, 0.0249645263, -0.0500101745, 0.0709193572, -0.0005467805, 0.0322039016, -0.0238353126, -0.0234555732, 0.0393961295, 0.0064563332, 0.0612373501, -0.0144984592, 0.0155804269, 0.0324913710, 0.0137573788, -0.0525372066, 0.0689618737, 0.0542517379, -0.0734969750, -0.0153822033, 0.0800606161, -0.0170030929, 0.0663502365, -0.0796316415, 0.0463591293, -0.0349608921, -0.0136651816, -0.0065947939, -0.0341863930, -0.0401811302, 0.0825531706, 0.0538927428, 0.0105605787, 0.0707020983, -0.0115385177, -0.0083103357, -0.0394947045, -0.0399776995, -0.0223289207, 0.0031095787, 0.0752380490, -0.0712109432, -0.0703716651, -0.0422455743, 0.0081325062, 0.0253043808, 0.0234167594, 0.0077966759, 0.0699177161, 0.0655441508, 0.0148068424, -0.0739540756, -0.0293523800, 0.0571354739, -0.0440606661, -0.0653679594, 0.0629229397, 0.0283535700, -0.0289642364, -0.0052966410, -0.0001983136, 0.0586637892, 0.0470269285, -0.0521727391, -0.0626641959, 0.0336088650, -0.0096800644, 0.0041138227, 0.0551887900, -0.0055782916, 0.0200417433, 0.0234619696, 0.0750724226, 0.0217463598, 0.0725186989, 0.0355961621, -0.0513768606, 0.0779019594, -0.0648795068, -0.0753116384, -0.0033164753, -0.0497956090, -0.0618601143, 0.0083314562, -0.0635076985, 0.0327364281, 0.0766563267, 0.0202441812, 0.0191658176, -0.0189882275, 0.0509752855, 0.0832590759, -0.0748736635, 0.0111876167, 0.0258774348, 0.0650226474, -0.0190553721, 0.0479372852, 0.0081589110, -0.0069615892, 0.0696398020, 0.0738893002, 0.0813230798, -0.0340037048, -0.0041405945, 0.0155803580, 0.0457738228, 0.0246123038, -0.0728617385, 0.0608952492, -0.0496882014, 0.0264777225, -0.0491466746, -0.0438715704, 0.0506899506, -0.0075147175, -0.0737169385, 0.0555274077, -0.0450381972, 0.0481524840, -0.0133057563, 0.0066152778, -0.0358921885, 0.0094104437, -0.0661559403, 0.0244248286, -0.0261784792, -0.0122465380, -0.0079209907, 0.0370456800, -0.0265428592, 0.0331505574, -0.0763487816, 0.0066599017, 0.0004771527, 0.0019347273, 0.0754697397, -0.0507007614, -0.0729827806, 0.0479441397, -0.0614503436, 0.0210612360, -0.0822131857, -0.0215627570, 0.0661809444, 0.0003541094, 0.0660522431, 0.0353741050, -0.0812685713, -0.0725120232, -0.0217366442, 0.0294212922, 0.0637856051, 0.0294275414, 0.0400122106, -0.0582552552, -0.0341811478, 0.0172489621, -0.0652514696, -0.0202212036, -0.0713585168, -0.0129075702, 0.0157946572, -0.0218947232, 0.0271539632, 0.0420258045, -0.0512115881, 0.0662477985, 0.0707724020, -0.0809559301, -0.0183395427, -0.0018816000, 0.0250966400, 0.0107624587, 0.0067053600, 0.0561888181, -0.0459939614, 0.0588085316, 0.0522865951, -0.0481946953, -0.0661336184, -0.0211604182, -0.0094486894, 0.0790063813, -0.0176880360, -0.0667713508, 0.0449266881, -0.0234831590, 0.0651832148, -0.0039576092, 0.0346130766, 0.0030343581, -0.0257278699, 0.0193331167, 0.0120358560, -0.0431194939, 0.0321820490, -0.0438472815, 0.0499830842, -0.0200088322, 0.0572766699, -0.0211827289, 0.0750836581, 0.0162730105, 0.0108962106, -0.0271874703, 0.0340134203, -0.0403602719, -0.0103172446, -0.0385141335, -0.0426046625, 0.0523462184, -0.0669756159, -0.0315352827, -0.0358393900, -0.0524622649, -0.0366367176, 0.0243515857, 0.0166533943, 0.0162418857, 0.0520928092, 0.0240406785, -0.0316922180, 0.0054692947, 0.0445618406, -0.0135521907, -0.0131728193, -0.0113364188, -0.0098960800, 0.0664709657, -0.0455225147, -0.0659923106, 0.0317911319, 0.0762863234, 0.0045023933, -0.0722269192, 0.0634795353, 0.0050656842, 0.0682638586, -0.0404955335, 0.0534044430, -0.0586936511, 0.0375127234, -0.0037472856, 0.0173058230, 0.0751371458, -0.0582063496, 0.0534335189, -0.0272757243, -0.0328716785, 0.0083579896, 0.0000339645, 0.0477613136, 0.0011738382, -0.0442980304, 0.0277022142, -0.0701457784, -0.0351708084, -0.0038986309, -0.0409381948, 0.0234482419, 0.0750248283, -0.0224642344, -0.0214991793, -0.0214648172, -0.0694575608, -0.0213838946, 0.0832019150, 0.0329370573, 0.0453553312, -0.0642142817, 0.0163858607, -0.0131391026, -0.0578182042, 0.0076645431, -0.0821354687, 0.0123878000, 0.0152706243, -0.0723809227, 0.0438257642, -0.0790235549, -0.0127757052, -0.0611828715, 0.0546617173, 0.0509913303, 0.0271743182, -0.0432531089, 0.0234380979, -0.0354279280, -0.0515038595, 0.0164221711, -0.0067492882, 0.0526709892, -0.0165980924, 0.0125095127, -0.0450501665, -0.0272327904, 0.0314072818, 0.0436615460, -0.0507307611, -0.0034554033, -0.0420014858, -0.0479009263, -0.0340709761, -0.0171584226, 0.0746068135, 0.0340226479, -0.0255991723, -0.0495799780, -0.0389808491, 0.0717079192, 0.0224486962, -0.0593616068, 0.0243764389, -0.0013752213, -0.0473680310, 0.0127077065, -0.0234255213, -0.0054262211, 0.0458114929, 0.0832792819, -0.0397900753, -0.0653435737, -0.0365300439, 0.0665444210, 0.0149501814, 0.0603152886, -0.0043356600, 0.0062079518, 0.0310084578, -0.0104251681, -0.0775252581, 0.0822014585, 0.0552992150, -0.0449978486, -0.0133683905, -0.0290097240, 0.0287761744, -0.0169043299, -0.0629039854, 0.0631240904, -0.0607110783, 0.0214682147, 0.0639055595, 0.0313504264, 0.0389691740, -0.0073762271, -0.0050753597, 0.0357318334, 0.0189096685, 0.0094082179, -0.0016265033, 0.0829295143, 0.0143132294, 0.0124414237, 0.0770097598, 0.0658773482, 0.0248299595, 0.0688449293, 0.0031700176, 0.0652399808, -0.0396295004, 0.0179596357, -0.0435108691, 0.0580778793, -0.0357327759, 0.0322521925, 0.0593060963, 0.0814061463, 0.0567521229, -0.0665359050, 0.0074433712, 0.0200027023, -0.0430893935, 0.0730919316, -0.0720353350, -0.0494561940, -0.0182857011, 0.0663930327, -0.0654141009, -0.0162323490, -0.0323003642, 0.0314063765, -0.0109484838, -0.0025627287, 0.0673768073, 0.0799530447, 0.0547778048, 0.0382604115, -0.0619688034, 0.0515751280, 0.0010603514, -0.0155946128, 0.0146246413, -0.0132171651, 0.0681357235, -0.0599425510, -0.0688851178, -0.0370114483, -0.0313836485, -0.0003472251, 0.0192663893, -0.0085378857, 0.0221494213, -0.0534546897, 0.0262951124, -0.0475134365, -0.0385985635, -0.0099728005, -0.0533636510, 0.0812685266, 0.0191988181, -0.0482042991, -0.0691825598, 0.0276790969, 0.0490251817, -0.0284269135, 0.0813317671, 0.0459626094, 0.0319583304, 0.0577567406, -0.0319981873, 0.0199448951, 0.0780613124, -0.0176352393, 0.0729488805, 0.0578288436, 0.0215481743, 0.0541171506, -0.0528186709, -0.0519187450, -0.0691558793, -0.0357699208, -0.0624328107, -0.0271872617, -0.0242317803, -0.0103123374, -0.0651524588, 0.0178017132, 0.0030595607, -0.0776607320, -0.0126984185, -0.0512288623, -0.0052532493, -0.0011178398, -0.0033791394, 0.0023315432, -0.0679315329, 0.0552706458, 0.0285784863, 0.0364280418, 0.0381299853, -0.0811830536, 0.0604564212, 0.0206526481, -0.0460116044, 0.0392022766, -0.0402564891, 0.0098669734, -0.0239036679, 0.0729034990, -0.0663581342, -0.0588350855, 0.0335061960, 0.0125359772, 0.0679575577, 0.0550490543, -0.0280166958, 0.0303727463, 0.0369130224, -0.0725596696, -0.0632534549, -0.0349793471, -0.0826071128, 0.0377462022, -0.0280341208, 0.0360453352, -0.0478109829, 0.0311315488, 0.0201863833, 0.0599353574, 0.0793748349, 0.0781577751, -0.0504790321, 0.0423271842, -0.0396489240, 0.0009350134, -0.0209985729, -0.0619781129, 0.0299992152, 0.0296712331, -0.0381878801, 0.0061110151, 0.0157466754, 0.0354566984, 0.0013257994, -0.0666235536, 0.0413897634, -0.0020662444, 0.0101071494, -0.0768538415, -0.0659624040, -0.0071233055, 0.0123755904, -0.0317439921, 0.0652234703, -0.0512352921, 0.0450507030, -0.0371546298, 0.0654124469, 0.0360064618, -0.0339676142, -0.0485965796, 0.0465600044, 0.0658812448, 0.0289927162, 0.0603131615, -0.0256622639, 0.0784870237, -0.0043164478, -0.0108381175, 0.0493194014, -0.0671993569, 0.0481257811, 0.0004805402, 0.0516293682, 0.0097151613, -0.0748251677, -0.0747210234, 0.0296227541, 0.0569218025, 0.0083018225, 0.0384158865, -0.0603147335, -0.0610215701, 0.0556778908, 0.0661215186, -0.0304335821, -0.0720572695, -0.0165540949, -0.0159729812, 0.0508259609, 0.0707731470, -0.0744891539, -0.0497620292, -0.0830948204, -0.0713781342, 0.0262141917, -0.0172068030, 0.0597590506, 0.0419934802, 0.0101434579, 0.0634575710, -0.0616270900, 0.0365638994, 0.0158104412, 0.0429845899, -0.0476033203, -0.0758329630, -0.0550300702, 0.0688440651, -0.0051387292, -0.0504203811, -0.0578037687, -0.0163856037, -0.0232325736, 0.0351250209, -0.0830189213, 0.0517001264, 0.0383142829, -0.0734232515, 0.0143852513, 0.0832956433, 0.0651350021, -0.0803882182, -0.0628267899, 0.0832925290, 0.0356230959, 0.0384833366, 0.0495192409, 0.0341139026, 0.0808215439, 0.0327980891, -0.0137149207, 0.0312620550, -0.0732974336, -0.0358864367, 0.0823875442, 0.0222215932, -0.0232318193, 0.0760219023, 0.0673244745, 0.0458975807, -0.0406292938, -0.0286127385, -0.0165262204, 0.0127759529, 0.0144540938, -0.0233709831, -0.0653640851, 0.0570107140, 0.0628128648, -0.0012053092, -0.0106963478, -0.0602759086, 0.0198769476, 0.0039802492, 0.0074485964, -0.0755218267, 0.0679022074, 0.0256034844, -0.0042837150, 0.0559885390, 0.0012888149, 0.0721917599, -0.0517105497, -0.0269903783, 0.0753162578, -0.0768447667, 0.0334881656, -0.0536952317, -0.0194448568, 0.0593359098, 0.0643667877, 0.0206097737, 0.0065723229, -0.0587626137, 0.0641049668, -0.0022449680, -0.0304619744, -0.0799997598, 0.0055820565, -0.0771754533, 0.0501984768, 0.0206014980, -0.0070280079, -0.0278878305, -0.0164677091, -0.0185381640, 0.0637172535, -0.0354841463, 0.0381667614, 0.0313475356, -0.0606041513, -0.0611839630, -0.0730293766, 0.0388625823, -0.0216906685, -0.0572700128, -0.0821251646, -0.0318958573, 0.0416995101, 0.0729678348, -0.0129958335, -0.0241184719, 0.0332146212, 0.0147603117, -0.0475832149, -0.0719532520, -0.0666523948, 0.0397012569, 0.0018974050, -0.0657412708, -0.0779282898, -0.0462471843, -0.0511887409, -0.0125637418, 0.0533089638, 0.0826253816, 0.0166300107, -0.0677551180, -0.0029134208, -0.0035326404, 0.0472913906, -0.0542890988, 0.0683085173, -0.0060751135, -0.0081336191, 0.0256164186, 0.0824021995, -0.0821888819, 0.0248096138, -0.0633494779, -0.0311474930, 0.0807858482, -0.0147606796, -0.0663504153, 0.0008970057, -0.0613770708, -0.0450756177, -0.0068410491, 0.0736090690, -0.0424338356, 0.0764217004, -0.0566553324, 0.0797635913, -0.0329671763, 0.0504739247, 0.0574812517, 0.0326756686, -0.0294857156, 0.0213097166, 0.0290063564, 0.0461569726, 0.0141307209, 0.0564114712, 0.0593025796, 0.0264392272, 0.0624297410, -0.0615825541, 0.0610022768, 0.0768641680, -0.0550866462, 0.0018656857, -0.0828823745, -0.0751422197, 0.0288106557, 0.0001315369, -0.0425445698, -0.0130359083, -0.0790992007, 0.0784233138, 0.0387581438, 0.0796409994, 0.0213555042, -0.0349793769, -0.0591578595, 0.0370669700, -0.0112467147, 0.0250193924, 0.0185224488, -0.0694652870, -0.0384509116, 0.0264805127, 0.0087704128, -0.0143850232, 0.0354855284, -0.0537166819, -0.0125670498, 0.0474661104, -0.0255610254, 0.0139019890, -0.0027229649, -0.0541694127, -0.0381475575, 0.0292587597, 0.0735777095, 0.0286582075, -0.0499104150, -0.0404663086, 0.0527901500, -0.0007554851, -0.0245786384, -0.0217176098, -0.0240873285, 0.0729825273, 0.0302953012, -0.0487567410, 0.0593766384, -0.0774967298, 0.0747540444, -0.0747415125, -0.0818708837, -0.0148165971, -0.0158187244, -0.0136676049, -0.0203415137, -0.0671829432, 0.0749684423, 0.0130245928, 0.0045914422, -0.0030098406, 0.0194476973, -0.0449361056, 0.0169801451, -0.0090386514, 0.0206902381, 0.0338728800, 0.0254243445, -0.0415043645, 0.0791633278, 0.0575852320, -0.0660530925, -0.0240465887, -0.0754691288, 0.0697150007, -0.0114034051, -0.0509945191, 0.0329057239, 0.0805261731, -0.0623702258, -0.0079678195, -0.0088387383, 0.0393469073, 0.0212034713, 0.0452408902, -0.0362338908, 0.0689229146, 0.0192444548, -0.0145315696, -0.0134537648, 0.0417628512, -0.0604216941, -0.0529518984, 0.0112062041, -0.0607852079, -0.0177132301, -0.0113603501, -0.0054767653, -0.0137736909, -0.0040647779, -0.0018688943, 0.0655949414, -0.0705862567, 0.0638221800, 0.0654845089, 0.0606608428, 0.0176906791, 0.0751807317, 0.0315551311, -0.0684357136, -0.0188860539, -0.0040393271, 0.0339418836, -0.0263783112, 0.0140334265, -0.0356186628, -0.0776247978, -0.0429870933, -0.0640093163, 0.0305146240, 0.0157114379, 0.0177522805, -0.0754739419, -0.0383872166, -0.0512341969, 0.0619111359, -0.0821800232, 0.0489497036, 0.0757308900, 0.0674461573, -0.0803246573, 0.0066540008, 0.0029844493, 0.0438549221, 0.0235567018, 0.0328003615, 0.0490004458, -0.0110269533, -0.0134253632, 0.0439908616, 0.0113702742, 0.0694656149, 0.0686499327, 0.0650814325, 0.0328969732, 0.0053323540, -0.0688699782, -0.0774432048, 0.0647706911, -0.0722438321, -0.0006525981, 0.0345113948, -0.0455899946, -0.0687417239, 0.0518016517, -0.0108619295, -0.0574003272, 0.0530333780, -0.0581287518, 0.0161968544, -0.0019240681, -0.0455965437, 0.0716966242, -0.0568048432, -0.0252588131, -0.0524312034, 0.0346892327, -0.0737664774, 0.0053760242, -0.0440702029, -0.0679229349, -0.0817479789, 0.0380327292, 0.0656793267, 0.0028514324, 0.0251512062, 0.0552286841, 0.0084397774, 0.0173855945, -0.0255223718, -0.0570496060, 0.0274630804, 0.0318773277, -0.0036511635, 0.0642953590, -0.0242794342, -0.0116322255, -0.0561950281, -0.0697899982, 0.0400629938, 0.0544170626, 0.0390875265, -0.0739553943, 0.0173073541, 0.0587085038, 0.0144733358, -0.0741776600, 0.0804212168, 0.0286987685, -0.0005191439, 0.0751765892, -0.0684038103, -0.0485639758, 0.0069902688, -0.0666275099, -0.0169164408, -0.0479612872, -0.0712652504, -0.0425927527, -0.0020550387, -0.0011703612, 0.0762441158, -0.0713354498, 0.0560857467, -0.0693268701, 0.0442787558, -0.0158959720, -0.0374357849, -0.0030723161, -0.0723477080, 0.0140827391, -0.0181143973, 0.0650112927, 0.0716034323, 0.0383757204, -0.0063831685, -0.0584169477, -0.0638719797, -0.0185869411, -0.0667143315, 0.0568606108, 0.0268758088, 0.0052784220, 0.0189977642, 0.0790199116, 0.0746194273, 0.0413667671, 0.0455160476, 0.0346098691, 0.0065857638, -0.0574067570, -0.0079955263, 0.0819304660, -0.0773843080, 0.0698724464, 0.0546935834, -0.0251753461, -0.0502902828, -0.0811292753, -0.0021096463, -0.0507375374, 0.0806518793, 0.0511201136, -0.0176996402, -0.0026403435, 0.0210952405, -0.0218120720, 0.0826322064, -0.0114028482, -0.0561479442, -0.0558925383, -0.0323826149, -0.0563435927, 0.0759065524, 0.0787566230, 0.0429262966, -0.0121209119, -0.0446185619, -0.0756875202, 0.0525715798, 0.0055987658, 0.0613360852, -0.0099933241, -0.0757076815, 0.0083372770, 0.0193331279, 0.0489565283, 0.0573413111, 0.0441395827, -0.0503788851, 0.0583569482, -0.0258802865, 0.0194679834, -0.0624333695, -0.0673389658, 0.0570167527, -0.0090556284, -0.0464693978, 0.0405542105, -0.0527658127, -0.0272823311, 0.0109330071, -0.0152831012, 0.0509344712, -0.0248242561, 0.0733668432, 0.0079796910, 0.0196828954, 0.0346569754, -0.0126763051, -0.0203178804, -0.0339551456, -0.0356149487, 0.0338510796, -0.0006578233, -0.0424586311, -0.0669294372, 0.0151506606, 0.0723718852, -0.0100049470, 0.0469160527, 0.0273014549, -0.0832369924, 0.0356502831, 0.0770156235, 0.0649511665, 0.0712183863, -0.0604871772, -0.0707321465, -0.0623925775, -0.0672872812, -0.0107460972, -0.0029328021, 0.0031498712, -0.0191729404, -0.0028496243, 0.0723219588, 0.0559173822, 0.0534040742, -0.0741092861, -0.0058672037, 0.0526449941, 0.0106543368, -0.0396802835, -0.0006570982, 0.0671097711, 0.0175565202, -0.0485094152, 0.0811000839, 0.0702027455, 0.0561248772, 0.0298214965, -0.0323150754, 0.0256845560, 0.0482641645, 0.0144950822, -0.0738914981, 0.0179953575, 0.0421886407, -0.0199809372, -0.0079268711, 0.0243711136, -0.0710223541, -0.0824443474, -0.0796717778, 0.0332244150, 0.0022361267, 0.0517257750, 0.0222443826, 0.0493562557, 0.0607804507, 0.0689291507, 0.0644674003, 0.0246326588, -0.0288036428, 0.0021478229, 0.0480899289, 0.0246419273, -0.0042892480, 0.0047696992, 0.0809500590, -0.0668920502, 0.0704411343, -0.0694125816, 0.0073553454, 0.0368449315, -0.0420815311, 0.0563123077, -0.0275637526, -0.0673049614, -0.0386382118, -0.0382375829, 0.0075844545, -0.0215209443, -0.0135679664, 0.0779789835, -0.0048878444, 0.0626558214, 0.0770751983, -0.0482283123, 0.0062639304, 0.0531058945, -0.0824839771, -0.0338244960, 0.0021386039, -0.0741711333, -0.0428985991, 0.0364243463, -0.0629457906, -0.0600780137, 0.0020923412, -0.0822246671, 0.0294781253, 0.0081774881, -0.0732917339, 0.0816742703, 0.0099523859, 0.0331251845, -0.0479693636, -0.0062992456, -0.0582399666, 0.0725868419, -0.0520638824, 0.0454610512, -0.0405789353, -0.0005998581, -0.0779263675, -0.0583905466, 0.0024003563, -0.0458124466, 0.0555753596, -0.0106643606, -0.0476794057, -0.0224706810, -0.0017636926, -0.0033053989, 0.0210888814, -0.0514998473, 0.0030871278, 0.0128278891, 0.0582529306, -0.0757451355, -0.0665454492, 0.0004519102, 0.0018657751, -0.0799432397, 0.0762368143, 0.0166422483, 0.0709622726, 0.0050794329, -0.0368116461, 0.0810700431, 0.0099513838, 0.0443444513, -0.0471280552, -0.0145690218, -0.0002001514, 0.0374427959, -0.0222769156, 0.0739974678, -0.0806348696, 0.0676621571, 0.0293060075, -0.0564120859, -0.0016048172, 0.0232485272, 0.0382097065, -0.0034824337, -0.0276658647, -0.0039203269, -0.0716460198, -0.0506540686, 0.0208915025, 0.0045490139, 0.0186923910, -0.0389721654, 0.0119170453, 0.0016873990, -0.0242410786, 0.0076498208, 0.0162255149, -0.0237327628, -0.0095722498, 0.0005163922, -0.0006568002, 0.0774073899, -0.0413366780, -0.0239622500, 0.0032566723, 0.0371806771, -0.0436883271, 0.0066349078, -0.0539753512, 0.0006046265, -0.0574809946, 0.0692028105, 0.0050191232, 0.0411021560, 0.0120527642, 0.0502889417, -0.0621329620, 0.0188109130, 0.0146943592, -0.0093615884, 0.0018820768, 0.0365442298, -0.0566431731, -0.0636763573, 0.0196956005, 0.0376546979, 0.0406362973, 0.0680408180, -0.0637647882, 0.0314199552, -0.0766725391, -0.0598730668, -0.0601394735, -0.0623920932, -0.0105602806, 0.0052244901, 0.0263379589, 0.0622930303, -0.0726972595, 0.0251942910, -0.0558896363, -0.0429776162, -0.0019565327, -0.0650907978, 0.0206273478, 0.0134229688, -0.0414871275, -0.0529905520, 0.0830322430, -0.0717600510, -0.0058349576, -0.0469356328, -0.0678235739, 0.0129127363, 0.0354942605, 0.0010311453, -0.0071637472, -0.0729992613, -0.0377386510, -0.0225905944, -0.0512633435, -0.0064985924, 0.0474806353, 0.0345948413, 0.0158739481, -0.0633330047, -0.0374728180, 0.0540202744, -0.0476361029, -0.0690693408, -0.0729551390, -0.0267390665, -0.0239132456, 0.0729859024, 0.0169693772, -0.0129580144, -0.0759486258, 0.0178193655, -0.0192132927, 0.0559711456, -0.0416770391, 0.0550415739, -0.0197173469, 0.0750801414, -0.0423997417, -0.0441485047, -0.0643667802, -0.0637769997, 0.0786040276, -0.0029837440, -0.0281648319, 0.0520908833, 0.0234006867, 0.0115881385, 0.0495365374, 0.0344360247, -0.0587509014, -0.0466583110, 0.0441813879, 0.0075314664, -0.0316296406, -0.0324969962, -0.0753720701, 0.0312735066, -0.0039073629, 0.0543399416, 0.0320555754, 0.0216325447, 0.0224495903, 0.0144519778, -0.0818140730, -0.0575548038, -0.0477664694, 0.0154558150, 0.0187603403, 0.0464732535, 0.0501842313, -0.0036119041, 0.0627693012, 0.0687283650, 0.0511253886, 0.0241847020, 0.0446679965, -0.0001833231, 0.0050349683, -0.0116165597, -0.0651377887, 0.0387987643, -0.0425991677, -0.0020775392, 0.0514426157, -0.0214046948, 0.0153139466, 0.0393601283, 0.0747057796, -0.0676446483, -0.0705312267, -0.0311362483, -0.0715488642, 0.0811700225, 0.0137001285, -0.0042261570, 0.0061874278, -0.0055092201, 0.0322806835, -0.0673652142, 0.0800139755, 0.0650514662, -0.0707298219, 0.0092378296, 0.0361141339, 0.0577751882, 0.0344331861, -0.0490977988, -0.0257062726, -0.0383212715, -0.0707730055, -0.0588158704, 0.0588954240, 0.0321461149, 0.0152117349, 0.0715677440, 0.0402377322, 0.0321202092, 0.0055606980, 0.0480059348, 0.0367509387, -0.0577108562, -0.0518310145, -0.0531986803, 0.0212214924, 0.0047606193, -0.0475431904, -0.0769079179, 0.0400951505, 0.0421452895, -0.0355351567, -0.0646800101, 0.0608983971, 0.0595526509, -0.0646435693, -0.0020129085, 0.0603381358, -0.0524527431, -0.0135600884, -0.0153752593, 0.0457877815, -0.0371554419, -0.0301123541, 0.0266522020, -0.0484943949, 0.0667114928, -0.0261702836, -0.0397834592, -0.0674430802, 0.0532483459, 0.0086286440, -0.0017861634, 0.0477397442, -0.0679805428, 0.0319137983, -0.0429166704, -0.0828452632, 0.0434477068, 0.0793618932, -0.0641207770, 0.0583694056, -0.0225225855, 0.0717239529, 0.0507662445, -0.0252365898, -0.0580397323, 0.0429945029, -0.0243752263, -0.0820496306, -0.0823875889, 0.0093620252, 0.0570546612, -0.0505944565, 0.0133855864, -0.0324645191, -0.0467141420, -0.0309691485, -0.0820027664, 0.0451136939, -0.0620749705, 0.0589620024, -0.0682609826, 0.0624476634, 0.0181749649, 0.0611843914, 0.0407907329, -0.0623098463, -0.0615327843, -0.0557992347, -0.0716736317, -0.0245727375, -0.0037744851, 0.0175981447, 0.0517978370, -0.0825797021, -0.0111574773, -0.0144322589, -0.0549045056, 0.0388811305, 0.0177266002, 0.0600372814, -0.0424371250, -0.0119098229, 0.0697122216, -0.0435311198, 0.0534313321, 0.0398410745, 0.0738039613, -0.0606879741, 0.0530568212, 0.0179727972, -0.0195578150, -0.0008866147, 0.0030308613, 0.0772751868, -0.0304707456, 0.0385165885, 0.0474203639, -0.0683299601, 0.0691472590, 0.0231480151, -0.0663870350, -0.0711692497, 0.0253675412, 0.0468981005, 0.0475812852, 0.0061093662, -0.0756914392, -0.0020400283, 0.0818885788, 0.0608936474, -0.0208357424, 0.0537450314, -0.0535698757, 0.0137823531, -0.0332154371, 0.0095815677, -0.0014328288, -0.0618113577, 0.0560380705, -0.0530607253, 0.0221123789, 0.0236583650, 0.0294636115, 0.0088748690, -0.0728189424, -0.0230160207, 0.0276470110, -0.0627198815, 0.0309662968, -0.0548135266, 0.0162386876, -0.0122181457, -0.0459759831, -0.0153993787, 0.0706033409, 0.0458162911, -0.0717414171, 0.0163694900, 0.0668141395, -0.0193724856, 0.0172189213, 0.0759990141, 0.0646901652, -0.0363653563, -0.0540244542, -0.0036775486, -0.0704284534, -0.0720422715, 0.0169427432, -0.0076154089, -0.0634419248, -0.0089186281, 0.0388690680, -0.0702469572, -0.0457023196, 0.0303655043, -0.0400221944, -0.0391111597, -0.0523184314, 0.0493535735, 0.0171862692, 0.0253372230, -0.0601031147, 0.0561860166, -0.0058218944, 0.0539718047, 0.0745178759, 0.0747516528, 0.0824267641, 0.0481834598, 0.0468740501, 0.0460894108, -0.0519085415, 0.0695406869, -0.0733834431, 0.0510894582, -0.0192527510, 0.0817257836, -0.0375386514, 0.0344672091, -0.0493373126, -0.0734645948, -0.0556861274, -0.0021051462, 0.0451043062, 0.0161335859, -0.0784106329, -0.0410688557, 0.0740556791, -0.0126477350, -0.0582438298, -0.0653414056, -0.0550509021, 0.0638141558, -0.0413436219, 0.0184019785, -0.0447414778, -0.0680863261, -0.0037838530, -0.0239364915, 0.0122408951, -0.0441555567, -0.0465387143, -0.0026219953, 0.0184754990, 0.0712294728, -0.0379699171, -0.0087709585, 0.0541004613, -0.0806765333, -0.0138995452, 0.0090099629, 0.0561421998, -0.0783142224, -0.0569333248, -0.0769940838, -0.0813607648, 0.0795683712, -0.0648233145, 0.0108101927, -0.0310549196, -0.0440196693, -0.0742728412, 0.0321443975, -0.0490660220, -0.0746905357, 0.0170990471, 0.0425053313, -0.0370385796, 0.0011420293, 0.0444921516, -0.0248643812, 0.0152540440, -0.0651264489, -0.0463755317, -0.0172128715, -0.0719971210, -0.0382423587, 0.0755944476, 0.0620395243, 0.0263188351, -0.0212687682, -0.0599219166, 0.0221913531, -0.0038608715, 0.0171906985, 0.0466808230, 0.0627275109, 0.0051076259, -0.0653997362, 0.0588001348, 0.0783291087, -0.0141036799, -0.0454167239, 0.0662931651, -0.0626693666, -0.0640252009, -0.0338658877, 0.0057405941, 0.0541925505, -0.0172024406, 0.0591609292, -0.0090410057, 0.0060785012, -0.0694784522, -0.0679764524, 0.0765379742, 0.0592091605, 0.0016494013, -0.0533098504, 0.0582178123, 0.0357917249, 0.0231444091, 0.0623536855, -0.0580695570, 0.0298451893, 0.0589022599, -0.0797368288, -0.0805326253, -0.0715045258, -0.0114724655, -0.0364329703, 0.0258399453, -0.0486064218, -0.0256673414, 0.0550948828, 0.0799046829, 0.0490341224, -0.0266885720, -0.0645939112, -0.0258531384, 0.0635145009, -0.0685882941, -0.0708514675, -0.0596218035, 0.0244788490, -0.0410147943, 0.0732454509, 0.0727760419, -0.0063454988, -0.0323565416, -0.0591241457, 0.0472876541, 0.0652148873, -0.0046630371, 0.0470248014, 0.0059214039, -0.0467398129, -0.0667453632, -0.0252502598, -0.0554359853, 0.0185916200, 0.0209504627, 0.0776789635, 0.0367872082, -0.0621599033, 0.0831234679, 0.0282375198, -0.0664826855, 0.0197334196, 0.0111819943, -0.0414530151, 0.0348197483, -0.0067795771, -0.0529438294, 0.0485562757, 0.0406871103, -0.0623820089, 0.0691615939, -0.0671431571, 0.0431978926, 0.0366719738, 0.0095806140, -0.0682698935, -0.0483954810, -0.0180970915, 0.0087032281, -0.0074706301, 0.0393044278, 0.0467543639, -0.0684587061, 0.0433944501, 0.0312834010, -0.0105586620, 0.0145693496, -0.0290096439, -0.0177603867, 0.0279167984, 0.0244746283, 0.0374073610, -0.0774017200, -0.0551750287, 0.0629875064, 0.0042949901, -0.0482461229, -0.0151099702, 0.0656274781, 0.0092663104, -0.0299345758, 0.0829102695, 0.0025494567, 0.0357330963, 0.0617453754, 0.0498637445, 0.0275949854, -0.0415645838, 0.0197736640, 0.0047445162, -0.0675581619, -0.0065570842, -0.0278457701, 0.0505838767, 0.0680184364, 0.0325175896, 0.0427158847, -0.0224215761, 0.0184628144, -0.0619106293, -0.0431328453, -0.0160559714, -0.0313202590, -0.0041472604, -0.0288719181, -0.0244636107, -0.0188476890, 0.0237894170, 0.0605687164, 0.0815252662, -0.0708720088, -0.0039566956, 0.0705739334, -0.0465743206, 0.0456386618, -0.0324948281, -0.0483476892, -0.0070654894, 0.0377065539, 0.0780431330, 0.0790035650, -0.0345545895, -0.0754830018, 0.0545171387, -0.0000110665, 0.0097835762, -0.0550463833, 0.0780409798, -0.0077826092, -0.0823748708, 0.0508844517, -0.0330165178, -0.0264085010, 0.0132656833, -0.0226592291, -0.0049771219, -0.0735361204, -0.0615564995, 0.0417402312, -0.0517433584, -0.0236607101, -0.0482181795, 0.0702148750, 0.0775251091, -0.0454304554, 0.0808335319, 0.0709926113, 0.0462461412, -0.0425568894, -0.0663211495, 0.0331769399, -0.0493171848, -0.0512482636, 0.0316413343, -0.0364113115, -0.0215205774, -0.0644640252, -0.0225777980, -0.0138041880, -0.0370223559, 0.0334817693, 0.0425893627, 0.0333527960, 0.0585355721, -0.0100414157, -0.0771199316, -0.0212400686, 0.0369507410, 0.0231390148, 0.0188003425, 0.0662426800, 0.0803621858, -0.0215433165, 0.0200003479, -0.0339764729, -0.0166147016, -0.0228489600, 0.0379910767, -0.0756306127, -0.0488752276, -0.0398703516, -0.0546029173, 0.0506884120, 0.0804748088, -0.0166512188, 0.0443434194, -0.0694858357, -0.0816060603, -0.0582357123, -0.0125971902, 0.0442327559, -0.0238389187, -0.0763400272, -0.0645127669, -0.0659063980, 0.0577973202, -0.0489958674, 0.0075069787, -0.0674546286, 0.0661104172, -0.0779629871, -0.0103041911, 0.0261760056, -0.0037816872, 0.0605608597, 0.0688449517, -0.0230692774, -0.0225934945, 0.0013415448, -0.0734964535, -0.0476722233, 0.0522264242, 0.0113299517, -0.0616232269, -0.0487659127, 0.0579251125, 0.0332948677, -0.0307097789, 0.0572089478, -0.0478488803, -0.0538275763, -0.0460337773, 0.0677163303, -0.0801373571, 0.0100960229, -0.0042452998, -0.0261960514, -0.0367168374, 0.0715519711, 0.0529203266, -0.0205087941, 0.0787336007, -0.0037813992, -0.0006721483, -0.0793446228, 0.0178928580, -0.0075088064, -0.0310720541, 0.0261956044, 0.0304937437, -0.0691268593, 0.0178689472, -0.0242013913, 0.0329479128, -0.0035032455, 0.0243500751, 0.0239265170, -0.0106701823, 0.0611059219, -0.0364226587, 0.0518008359, -0.0329575688, -0.0295977406, -0.0141003318, -0.0177557468, -0.0595626347, -0.0381057858, -0.0275556259, -0.0062488900, -0.0194628071, -0.0561954752, -0.0085336836, -0.0349102877, -0.0369504318, -0.0017124229, -0.0208600312, 0.0133158099, 0.0653349087, 0.0181470197, 0.0517181940, 0.0360952094, -0.0295088012, -0.0199842844, 0.0678163618, 0.0431869775, 0.0555381477, -0.0618585162, -0.0099472310, -0.0675493330, -0.0284799300, 0.0337164141, 0.0341244340, -0.0485876091, -0.0675350204, 0.0735938996, 0.0539225638, -0.0328811780, 0.0121681588, 0.0769061670, 0.0198544078, 0.0058713560, -0.0525586046, -0.0803637207, -0.0399311669, 0.0321194343, -0.0654297918, -0.0494499542, 0.0618698299, 0.0538125448, -0.0357250795, -0.0821546018, 0.0742507726, 0.0214099996, 0.0822369978, 0.0141110411, 0.0830476135, 0.0398268700, 0.0228477772, -0.0378616266, -0.0160584543, 0.0702897832, 0.0158924963, 0.0703796223, 0.0313175656, -0.0449239090, -0.0678816512, -0.0274921972, 0.0583902970, 0.0687370151, -0.0554935820, -0.0789728090, -0.0110483123, -0.0655079484, 0.0043021129, -0.0047259592, 0.0026500889, 0.0214628093, -0.0508262776, 0.0361497067, -0.0401490517, 0.0635942742, -0.0508596674, -0.0816994607, 0.0821594670, 0.0105110276, 0.0502329133, 0.0736213103, 0.0168518089, -0.0472587273, -0.0047949310, -0.0062785428, 0.0717875063, 0.0551364571, -0.0010892396, -0.0027872981, 0.0535697043, 0.0192605183, 0.0035055105, -0.0490163192, -0.0331519768, -0.0690838546, -0.0732261464, -0.0169479493, -0.0129781812, 0.0333921835};

#endif

#endif
